<?xml version="1.0"?>
<opencv_storage>
<cascade>
  <stageType>BOOST</stageType>
  <featureType>HAAR</featureType>
  <height>20</height>
  <width>20</width>
  <stageParams>
    <boostType>GAB</boostType>
    <minHitRate>9.9900001287460327e-01</minHitRate>
    <maxFalseAlarm>5.0000000000000000e-01</maxFalseAlarm>
    <weightTrimRate>9.4999999999999996e-01</weightTrimRate>
    <maxDepth>1</maxDepth>
    <maxWeakCount>100</maxWeakCount></stageParams>
  <featureParams>
    <maxCatCount>0</maxCatCount>
    <featSize>1</featSize>
    <mode>BASIC</mode></featureParams>
  <stageNum>20</stageNum>
  <stages>
    <!-- stage 0 -->
    <_>
      <maxWeakCount>8</maxWeakCount>
      <stageThreshold>-1.9142940044403076e+00</stageThreshold>
      <weakClassifiers>
        <_>
          <internalNodes>
            0 -1 244 2.0853202790021896e-02</internalNodes>
          <leafValues>
            -8.1598061323165894e-01 2.5816023349761963e-01</leafValues></_>
        <_>
          <internalNodes>
            0 -1 88 -1.5918403863906860e-02</internalNodes>
          <leafValues>
            5.0159835815429688e-01 -5.4778003692626953e-01</leafValues></_>
        <_>
          <internalNodes>
            0 -1 11 4.2648184299468994e-01</internalNodes>
          <leafValues>
            -3.6988094449043274e-01 5.8895176649093628e-01</leafValues></_>
        <_>
          <internalNodes>
            0 -1 173 -2.5115668773651123e-02</internalNodes>
          <leafValues>
            -8.9530295133590698e-01 2.3749855160713196e-01</leafValues></_>
        <_>
          <internalNodes>
            0 -1 15 6.5084733068943024e-02</internalNodes>
          <leafValues>
            2.7113923430442810e-01 -8.1090772151947021e-01</leafValues></_>
        <_>
          <internalNodes>
            0 -1 37 5.4361119866371155e-02</internalNodes>
          <leafValues>
            -3.9995852112770081e-01 4.6740224957466125e-01</leafValues></_>
        <_>
          <internalNodes>
            0 -1 298 -6.1544831842184067e-03</internalNodes>
          <leafValues>
            4.0259748697280884e-01 -4.3581700325012207e-01</leafValues></_>
        <_>
          <internalNodes>
            0 -1 40 8.8984856847673655e-04</internalNodes>
          <leafValues>
            -4.7704631090164185e-01 4.1983222961425781e-01</leafValues></_></weakClassifiers></_>
    <!-- stage 1 -->
    <_>
      <maxWeakCount>9</maxWeakCount>
      <stageThreshold>-1.5872899293899536e+00</stageThreshold>
      <weakClassifiers>
        <_>
          <internalNodes>
            0 -1 172 -1.0946258902549744e-02</internalNodes>
          <leafValues>
            2.6666668057441711e-01 -6.4242422580718994e-01</leafValues></_>
        <_>
          <internalNodes>
            0 -1 234 -3.6666419357061386e-02</internalNodes>
          <leafValues>
            2.8126651048660278e-01 -6.1647200584411621e-01</leafValues></_>
        <_>
          <internalNodes>
            0 -1 295 2.0454533398151398e-02</internalNodes>
          <leafValues>
            -3.4192317724227905e-01 4.8939198255538940e-01</leafValues></_>
        <_>
          <internalNodes>
            0 -1 161 -5.9669263660907745e-02</internalNodes>
          <leafValues>
            -9.8685860633850098e-01 1.5621459484100342e-01</leafValues></_>
        <_>
          <internalNodes>
            0 -1 17 8.1752285361289978e-02</internalNodes>
          <leafValues>
            1.8227311968803406e-01 -7.7868348360061646e-01</leafValues></_>
        <_>
          <internalNodes>
            0 -1 56 -2.0641477778553963e-02</internalNodes>
          <leafValues>
            5.7754403352737427e-01 -2.8179597854614258e-01</leafValues></_>
        <_>
          <internalNodes>
            0 -1 26 -1.0027360171079636e-01</internalNodes>
          <leafValues>
            -9.0390974283218384e-01 1.5932045876979828e-01</leafValues></_>
        <_>
          <internalNodes>
            0 -1 31 1.6311723738908768e-02</internalNodes>
          <leafValues>
            -3.2783570885658264e-01 4.4821101427078247e-01</leafValues></_>
        <_>
          <internalNodes>
            0 -1 14 -4.0211426094174385e-03</internalNodes>
          <leafValues>
            2.6276755332946777e-01 -5.4907715320587158e-01</leafValues></_></weakClassifiers></_>
    <!-- stage 2 -->
    <_>
      <maxWeakCount>12</maxWeakCount>
      <stageThreshold>-1.6766653060913086e+00</stageThreshold>
      <weakClassifiers>
        <_>
          <internalNodes>
            0 -1 231 2.3486316204071045e-02</internalNodes>
          <leafValues>
            -5.5830389261245728e-01 3.5869565606117249e-01</leafValues></_>
        <_>
          <internalNodes>
            0 -1 144 1.8547940999269485e-03</internalNodes>
          <leafValues>
            -7.3272502422332764e-01 2.0307809114456177e-01</leafValues></_>
        <_>
          <internalNodes>
            0 -1 66 3.6157676577568054e-01</internalNodes>
          <leafValues>
            -2.9635253548622131e-01 4.7717198729515076e-01</leafValues></_>
        <_>
          <internalNodes>
            0 -1 118 -2.2179636359214783e-01</internalNodes>
          <leafValues>
            6.7619812488555908e-01 -2.5358915328979492e-01</leafValues></_>
        <_>
          <internalNodes>
            0 -1 249 4.6557183377444744e-03</internalNodes>
          <leafValues>
            -3.4359762072563171e-01 3.7650132179260254e-01</leafValues></_>
        <_>
          <internalNodes>
            0 -1 262 2.7511931955814362e-02</internalNodes>
          <leafValues>
            -1.7893624305725098e-01 7.4072742462158203e-01</leafValues></_>
        <_>
          <internalNodes>
            0 -1 178 -7.5276829302310944e-02</internalNodes>
          <leafValues>
            -9.8579514026641846e-01 1.3651819527149200e-01</leafValues></_>
        <_>
          <internalNodes>
            0 -1 252 2.7630235999822617e-02</internalNodes>
          <leafValues>
            -3.3850556612014771e-01 3.6223286390304565e-01</leafValues></_>
        <_>
          <internalNodes>
            0 -1 268 2.9241112992167473e-02</internalNodes>
          <leafValues>
            1.2025817483663559e-01 -9.2380136251449585e-01</leafValues></_>
        <_>
          <internalNodes>
            0 -1 55 7.3731713928282261e-03</internalNodes>
          <leafValues>
            -2.5881376862525940e-01 4.7209042310714722e-01</leafValues></_>
        <_>
          <internalNodes>
            0 -1 75 4.1232958436012268e-02</internalNodes>
          <leafValues>
            -1.6788116097450256e-01 6.7119240760803223e-01</leafValues></_>
        <_>
          <internalNodes>
            0 -1 299 -4.1514646727591753e-04</internalNodes>
          <leafValues>
            2.5946015119552612e-01 -5.4041439294815063e-01</leafValues></_></weakClassifiers></_>
    <!-- stage 3 -->
    <_>
      <maxWeakCount>11</maxWeakCount>
      <stageThreshold>-1.2450598478317261e+00</stageThreshold>
      <weakClassifiers>
        <_>
          <internalNodes>
            0 -1 276 -3.6189481616020203e-02</internalNodes>
          <leafValues>
            4.6093750000000000e-01 -4.9678456783294678e-01</leafValues></_>
        <_>
          <internalNodes>
            0 -1 2 -4.9961679615080357e-03</internalNodes>
          <leafValues>
            2.9352599382400513e-01 -4.3113383650779724e-01</leafValues></_>
        <_>
          <internalNodes>
            0 -1 24 1.0070058703422546e-01</internalNodes>
          <leafValues>
            -3.8836497068405151e-01 2.9911655187606812e-01</leafValues></_>
        <_>
          <internalNodes>
            0 -1 245 1.8496489152312279e-02</internalNodes>
          <leafValues>
            -5.9804105758666992e-01 2.1179047226905823e-01</leafValues></_>
        <_>
          <internalNodes>
            0 -1 316 1.8194273114204407e-02</internalNodes>
          <leafValues>
            1.5068231523036957e-01 -7.8443557024002075e-01</leafValues></_>
        <_>
          <internalNodes>
            0 -1 153 9.2915277928113937e-03</internalNodes>
          <leafValues>
            -1.8550379574298859e-01 6.2931340932846069e-01</leafValues></_>
        <_>
          <internalNodes>
            0 -1 160 -5.2369595505297184e-03</internalNodes>
          <leafValues>
            2.9015505313873291e-01 -4.2158734798431396e-01</leafValues></_>
        <_>
          <internalNodes>
            0 -1 236 -6.8311868235468864e-03</internalNodes>
          <leafValues>
            6.2409913539886475e-01 -2.3975926637649536e-01</leafValues></_>
        <_>
          <internalNodes>
            0 -1 13 -1.1814422905445099e-01</internalNodes>
          <leafValues>
            -7.3881447315216064e-01 1.7894391715526581e-01</leafValues></_>
        <_>
          <internalNodes>
            0 -1 247 3.3791039139032364e-02</internalNodes>
          <leafValues>
            -1.4590021967887878e-01 9.0530890226364136e-01</leafValues></_>
        <_>
          <internalNodes>
            0 -1 33 1.9111406803131104e-01</internalNodes>
          <leafValues>
            1.2626361846923828e-01 -9.7429180145263672e-01</leafValues></_></weakClassifiers></_>
    <!-- stage 4 -->
    <_>
      <maxWeakCount>10</maxWeakCount>
      <stageThreshold>-1.7379564046859741e+00</stageThreshold>
      <weakClassifiers>
        <_>
          <internalNodes>
            0 -1 79 1.1988003825535998e-04</internalNodes>
          <leafValues>
            -6.9163954257965088e-01 2.3661485314369202e-01</leafValues></_>
        <_>
          <internalNodes>
            0 -1 270 -1.7052727343980223e-04</internalNodes>
          <leafValues>
            3.8870641589164734e-01 -5.1814240217208862e-01</leafValues></_>
        <_>
          <internalNodes>
            0 -1 68 -3.4997053444385529e-04</internalNodes>
          <leafValues>
            3.3944007754325867e-01 -4.9049669504165649e-01</leafValues></_>
        <_>
          <internalNodes>
            0 -1 62 1.7387828847859055e-04</internalNodes>
          <leafValues>
            -3.6010998487472534e-01 4.1500231623649597e-01</leafValues></_>
        <_>
          <internalNodes>
            0 -1 80 5.6668613106012344e-03</internalNodes>
          <leafValues>
            2.3586185276508331e-01 -8.5344099998474121e-01</leafValues></_>
        <_>
          <internalNodes>
            0 -1 183 3.5136332735419273e-04</internalNodes>
          <leafValues>
            -3.6645433306694031e-01 4.5664554834365845e-01</leafValues></_>
        <_>
          <internalNodes>
            0 -1 246 -8.7675965914968401e-05</internalNodes>
          <leafValues>
            4.3225562572479248e-01 -2.7012956142425537e-01</leafValues></_>
        <_>
          <internalNodes>
            0 -1 151 1.6372097888961434e-04</internalNodes>
          <leafValues>
            -3.0833938717842102e-01 4.2117556929588318e-01</leafValues></_>
        <_>
          <internalNodes>
            0 -1 122 -6.1632037162780762e-02</internalNodes>
          <leafValues>
            5.9330320358276367e-01 -2.2579772770404816e-01</leafValues></_>
        <_>
          <internalNodes>
            0 -1 102 -3.2307785004377365e-02</internalNodes>
          <leafValues>
            4.3419140577316284e-01 -3.4024128317832947e-01</leafValues></_></weakClassifiers></_>
    <!-- stage 5 -->
    <_>
      <maxWeakCount>11</maxWeakCount>
      <stageThreshold>-1.2632000446319580e+00</stageThreshold>
      <weakClassifiers>
        <_>
          <internalNodes>
            0 -1 221 1.4040031237527728e-03</internalNodes>
          <leafValues>
            -5.8490568399429321e-01 3.9018088579177856e-01</leafValues></_>
        <_>
          <internalNodes>
            0 -1 191 -7.5770949479192495e-04</internalNodes>
          <leafValues>
            6.8437236547470093e-01 -2.8341719508171082e-01</leafValues></_>
        <_>
          <internalNodes>
            0 -1 191 3.7221459206193686e-04</internalNodes>
          <leafValues>
            -2.9833829402923584e-01 5.9622544050216675e-01</leafValues></_>
        <_>
          <internalNodes>
            0 -1 314 -1.2660676613450050e-02</internalNodes>
          <leafValues>
            -7.5370538234710693e-01 2.4242974817752838e-01</leafValues></_>
        <_>
          <internalNodes>
            0 -1 267 -6.3278041779994965e-03</internalNodes>
          <leafValues>
            3.1806117296218872e-01 -5.9958779811859131e-01</leafValues></_>
        <_>
          <internalNodes>
            0 -1 279 7.2541402187198400e-04</internalNodes>
          <leafValues>
            -3.0262121558189392e-01 6.3264077901840210e-01</leafValues></_>
        <_>
          <internalNodes>
            0 -1 149 -3.5022303927689791e-04</internalNodes>
          <leafValues>
            5.1790052652359009e-01 -2.8462386131286621e-01</leafValues></_>
        <_>
          <internalNodes>
            0 -1 280 -2.7477303519845009e-03</internalNodes>
          <leafValues>
            6.6230285167694092e-01 -2.3759199678897858e-01</leafValues></_>
        <_>
          <internalNodes>
            0 -1 235 3.4462829353287816e-04</internalNodes>
          <leafValues>
            -2.5801172852516174e-01 5.1131576299667358e-01</leafValues></_>
        <_>
          <internalNodes>
            0 -1 165 -5.0147268921136856e-02</internalNodes>
          <leafValues>
            -8.1443697214126587e-01 2.1189101040363312e-01</leafValues></_>
        <_>
          <internalNodes>
            0 -1 54 -3.6710349377244711e-04</internalNodes>
          <leafValues>
            3.9059507846832275e-01 -3.8529321551322937e-01</leafValues></_></weakClassifiers></_>
    <!-- stage 6 -->
    <_>
      <maxWeakCount>13</maxWeakCount>
      <stageThreshold>-1.5114767551422119e+00</stageThreshold>
      <weakClassifiers>
        <_>
          <internalNodes>
            0 -1 11 4.0988561511039734e-01</internalNodes>
          <leafValues>
            -5.8097165822982788e-01 1.4453125000000000e-01</leafValues></_>
        <_>
          <internalNodes>
            0 -1 73 -3.8146269321441650e-01</internalNodes>
          <leafValues>
            5.6764900684356689e-01 -2.3970542848110199e-01</leafValues></_>
        <_>
          <internalNodes>
            0 -1 41 9.0608140453696251e-04</internalNodes>
          <leafValues>
            -4.4166874885559082e-01 2.6248988509178162e-01</leafValues></_>
        <_>
          <internalNodes>
            0 -1 171 -3.1930536031723022e-02</internalNodes>
          <leafValues>
            6.2666261196136475e-01 -1.8148081004619598e-01</leafValues></_>
        <_>
          <internalNodes>
            0 -1 318 -5.6105367839336395e-03</internalNodes>
          <leafValues>
            -8.8136345148086548e-01 1.2993387877941132e-01</leafValues></_>
        <_>
          <internalNodes>
            0 -1 213 -4.8583964817225933e-03</internalNodes>
          <leafValues>
            -8.2201182842254639e-01 1.1733078956604004e-01</leafValues></_>
        <_>
          <internalNodes>
            0 -1 271 5.5380892008543015e-03</internalNodes>
          <leafValues>
            -2.2552914917469025e-01 4.2928510904312134e-01</leafValues></_>
        <_>
          <internalNodes>
            0 -1 17 6.2722317874431610e-02</internalNodes>
          <leafValues>
            1.3503226637840271e-01 -7.2514206171035767e-01</leafValues></_>
        <_>
          <internalNodes>
            0 -1 156 1.4218690339475870e-03</internalNodes>
          <leafValues>
            7.0135757327079773e-02 -8.4092366695404053e-01</leafValues></_>
        <_>
          <internalNodes>
            0 -1 139 -1.2350358068943024e-02</internalNodes>
          <leafValues>
            -9.5886671543121338e-01 7.8059546649456024e-02</leafValues></_>
        <_>
          <internalNodes>
            0 -1 292 2.6616586837917566e-03</internalNodes>
          <leafValues>
            1.1612965911626816e-01 -7.3077034950256348e-01</leafValues></_>
        <_>
          <internalNodes>
            0 -1 50 -2.6688940823078156e-02</internalNodes>
          <leafValues>
            4.5856389403343201e-01 -2.1507945656776428e-01</leafValues></_>
        <_>
          <internalNodes>
            0 -1 82 4.9955151975154877e-02</internalNodes>
          <leafValues>
            -2.7366340160369873e-01 3.4430935978889465e-01</leafValues></_></weakClassifiers></_>
    <!-- stage 7 -->
    <_>
      <maxWeakCount>14</maxWeakCount>
      <stageThreshold>-1.5491176843643188e+00</stageThreshold>
      <weakClassifiers>
        <_>
          <internalNodes>
            0 -1 276 -4.2306251823902130e-02</internalNodes>
          <leafValues>
            5.1598173379898071e-01 -4.7853240370750427e-01</leafValues></_>
        <_>
          <internalNodes>
            0 -1 208 -1.0194559395313263e-01</internalNodes>
          <leafValues>
            6.2601166963577271e-01 -1.9777151942253113e-01</leafValues></_>
        <_>
          <internalNodes>
            0 -1 227 9.4184651970863342e-03</internalNodes>
          <leafValues>
            1.3394694030284882e-01 -8.4578061103820801e-01</leafValues></_>
        <_>
          <internalNodes>
            0 -1 265 6.0656396672129631e-03</internalNodes>
          <leafValues>
            1.3372710347175598e-01 -8.4362781047821045e-01</leafValues></_>
        <_>
          <internalNodes>
            0 -1 119 -2.1367868408560753e-02</internalNodes>
          <leafValues>
            -7.5713372230529785e-01 8.9523263275623322e-02</leafValues></_>
        <_>
          <internalNodes>
            0 -1 114 -5.9364675544202328e-03</internalNodes>
          <leafValues>
            -6.6994005441665649e-01 1.1789257079362869e-01</leafValues></_>
        <_>
          <internalNodes>
            0 -1 319 1.4000721275806427e-02</internalNodes>
          <leafValues>
            1.0743470489978790e-01 -6.2076884508132935e-01</leafValues></_>
        <_>
          <internalNodes>
            0 -1 268 2.6583746075630188e-02</internalNodes>
          <leafValues>
            9.7492352128028870e-02 -8.9811491966247559e-01</leafValues></_>
        <_>
          <internalNodes>
            0 -1 315 -1.1633327230811119e-02</internalNodes>
          <leafValues>
            -6.7520433664321899e-01 1.0901000350713730e-01</leafValues></_>
        <_>
          <internalNodes>
            0 -1 258 6.3687535002827644e-03</internalNodes>
          <leafValues>
            -2.3276712000370026e-01 4.1389808058738708e-01</leafValues></_>
        <_>
          <internalNodes>
            0 -1 261 3.9281666278839111e-02</internalNodes>
          <leafValues>
            -1.3305638730525970e-01 7.6185238361358643e-01</leafValues></_>
        <_>
          <internalNodes>
            0 -1 39 -8.8431090116500854e-03</internalNodes>
          <leafValues>
            -6.9362461566925049e-01 1.5415659546852112e-01</leafValues></_>
        <_>
          <internalNodes>
            0 -1 224 7.4249603785574436e-03</internalNodes>
          <leafValues>
            -1.6877153515815735e-01 5.9967887401580811e-01</leafValues></_>
        <_>
          <internalNodes>
            0 -1 4 -6.0841338708996773e-03</internalNodes>
          <leafValues>
            -4.9356961250305176e-01 1.8487359583377838e-01</leafValues></_></weakClassifiers></_>
    <!-- stage 8 -->
    <_>
      <maxWeakCount>16</maxWeakCount>
      <stageThreshold>-1.4191401004791260e+00</stageThreshold>
      <weakClassifiers>
        <_>
          <internalNodes>
            0 -1 196 5.0381675362586975e-02</internalNodes>
          <leafValues>
            -4.3940520286560059e-01 5.8709675073623657e-01</leafValues></_>
        <_>
          <internalNodes>
            0 -1 25 8.3868816494941711e-02</internalNodes>
          <leafValues>
            -5.1700854301452637e-01 2.3757515847682953e-01</leafValues></_>
        <_>
          <internalNodes>
            0 -1 186 -1.2401808053255081e-02</internalNodes>
          <leafValues>
            3.1638184189796448e-01 -2.8666353225708008e-01</leafValues></_>
        <_>
          <internalNodes>
            0 -1 20 -9.3581178225576878e-04</internalNodes>
          <leafValues>
            -6.8993699550628662e-01 1.3174231350421906e-01</leafValues></_>
        <_>
          <internalNodes>
            0 -1 228 -1.6516053583472967e-03</internalNodes>
          <leafValues>
            -7.6906234025955200e-01 1.0354947298765182e-01</leafValues></_>
        <_>
          <internalNodes>
            0 -1 272 -4.1680011898279190e-02</internalNodes>
          <leafValues>
            4.4599783420562744e-01 -2.0053988695144653e-01</leafValues></_>
        <_>
          <internalNodes>
            0 -1 228 1.9493307918310165e-03</internalNodes>
          <leafValues>
            1.4039531350135803e-01 -8.3530336618423462e-01</leafValues></_>
        <_>
          <internalNodes>
            0 -1 309 -3.4294603392481804e-04</internalNodes>
          <leafValues>
            3.3080047369003296e-01 -3.2624197006225586e-01</leafValues></_>
        <_>
          <internalNodes>
            0 -1 190 4.7107725404202938e-03</internalNodes>
          <leafValues>
            -1.2367191910743713e-01 6.9470626115798950e-01</leafValues></_>
        <_>
          <internalNodes>
            0 -1 38 5.6740185245871544e-03</internalNodes>
          <leafValues>
            -3.7817439436912537e-01 2.4107353389263153e-01</leafValues></_>
        <_>
          <internalNodes>
            0 -1 254 -2.9852479696273804e-02</internalNodes>
          <leafValues>
            3.5255223512649536e-01 -2.2523123025894165e-01</leafValues></_>
        <_>
          <internalNodes>
            0 -1 238 4.2562883347272873e-02</internalNodes>
          <leafValues>
            -2.1975213289260864e-01 4.4412463903427124e-01</leafValues></_>
        <_>
          <internalNodes>
            0 -1 98 -3.2639764249324799e-02</internalNodes>
          <leafValues>
            6.3420367240905762e-01 -1.5997020900249481e-01</leafValues></_>
        <_>
          <internalNodes>
            0 -1 199 -9.4200149178504944e-03</internalNodes>
          <leafValues>
            -6.4474737644195557e-01 1.7447341978549957e-01</leafValues></_>
        <_>
          <internalNodes>
            0 -1 164 -4.6844750642776489e-02</internalNodes>
          <leafValues>
            -8.9346045255661011e-01 7.7381648123264313e-02</leafValues></_>
        <_>
          <internalNodes>
            0 -1 22 2.4005131796002388e-02</internalNodes>
          <leafValues>
            -1.9437167048454285e-01 4.8794633150100708e-01</leafValues></_></weakClassifiers></_>
    <!-- stage 9 -->
    <_>
      <maxWeakCount>19</maxWeakCount>
      <stageThreshold>-1.5229144096374512e+00</stageThreshold>
      <weakClassifiers>
        <_>
          <internalNodes>
            0 -1 11 4.2661631107330322e-01</internalNodes>
          <leafValues>
            -5.4973822832107544e-01 4.5871559530496597e-02</leafValues></_>
        <_>
          <internalNodes>
            0 -1 282 -7.0982296019792557e-03</internalNodes>
          <leafValues>
            2.1614870429039001e-01 -4.6022406220436096e-01</leafValues></_>
        <_>
          <internalNodes>
            0 -1 198 6.7596966400742531e-03</internalNodes>
          <leafValues>
            9.8076418042182922e-02 -9.2497897148132324e-01</leafValues></_>
        <_>
          <internalNodes>
            0 -1 305 -3.1648888252675533e-03</internalNodes>
          <leafValues>
            -8.1749492883682251e-01 1.1374071985483170e-01</leafValues></_>
        <_>
          <internalNodes>
            0 -1 313 -1.7985491082072258e-02</internalNodes>
          <leafValues>
            -7.0786303281784058e-01 1.2043136358261108e-01</leafValues></_>
        <_>
          <internalNodes>
            0 -1 23 3.3421283587813377e-03</internalNodes>
          <leafValues>
            9.4932384788990021e-02 -6.9121450185775757e-01</leafValues></_>
        <_>
          <internalNodes>
            0 -1 104 2.2653508931398392e-02</internalNodes>
          <leafValues>
            -1.5647266805171967e-01 6.3266879320144653e-01</leafValues></_>
        <_>
          <internalNodes>
            0 -1 87 1.8908476829528809e-01</internalNodes>
          <leafValues>
            1.2621182203292847e-01 -7.7939003705978394e-01</leafValues></_>
        <_>
          <internalNodes>
            0 -1 92 -4.6693071722984314e-02</internalNodes>
          <leafValues>
            4.9583274126052856e-01 -1.8341360986232758e-01</leafValues></_>
        <_>
          <internalNodes>
            0 -1 180 -4.0368153713643551e-03</internalNodes>
          <leafValues>
            3.3743911981582642e-01 -2.4373908340930939e-01</leafValues></_>
        <_>
          <internalNodes>
            0 -1 300 -3.2411187421530485e-03</internalNodes>
          <leafValues>
            -7.7201932668685913e-01 9.3742795288562775e-02</leafValues></_>
        <_>
          <internalNodes>
            0 -1 184 5.9186443686485291e-03</internalNodes>
          <leafValues>
            -1.8047827482223511e-01 4.5411160588264465e-01</leafValues></_>
        <_>
          <internalNodes>
            0 -1 10 -4.8594158887863159e-01</internalNodes>
          <leafValues>
            6.3285928964614868e-01 -1.3117696344852448e-01</leafValues></_>
        <_>
          <internalNodes>
            0 -1 61 6.1557345092296600e-02</internalNodes>
          <leafValues>
            -2.6640412211418152e-01 3.1941553950309753e-01</leafValues></_>
        <_>
          <internalNodes>
            0 -1 120 1.7152372002601624e-01</internalNodes>
          <leafValues>
            -1.1330378800630569e-01 8.2672941684722900e-01</leafValues></_>
        <_>
          <internalNodes>
            0 -1 185 -2.0852265879511833e-03</internalNodes>
          <leafValues>
            -9.4221603870391846e-01 1.1174718290567398e-01</leafValues></_>
        <_>
          <internalNodes>
            0 -1 12 4.1027762927114964e-03</internalNodes>
          <leafValues>
            1.3469259440898895e-01 -5.5898779630661011e-01</leafValues></_>
        <_>
          <internalNodes>
            0 -1 146 -2.0490929484367371e-02</internalNodes>
          <leafValues>
            -5.5695432424545288e-01 1.5032501518726349e-01</leafValues></_>
        <_>
          <internalNodes>
            0 -1 59 1.1433486361056566e-03</internalNodes>
          <leafValues>
            -3.4398424625396729e-01 2.4288693070411682e-01</leafValues></_></weakClassifiers></_>
    <!-- stage 10 -->
    <_>
      <maxWeakCount>16</maxWeakCount>
      <stageThreshold>-1.3762161731719971e+00</stageThreshold>
      <weakClassifiers>
        <_>
          <internalNodes>
            0 -1 202 -2.1193902939558029e-02</internalNodes>
          <leafValues>
            3.3333334326744080e-01 -4.6221160888671875e-01</leafValues></_>
        <_>
          <internalNodes>
            0 -1 203 -5.6838649325072765e-03</internalNodes>
          <leafValues>
            -6.8779921531677246e-01 1.1473527550697327e-01</leafValues></_>
        <_>
          <internalNodes>
            0 -1 320 -5.8984523639082909e-03</internalNodes>
          <leafValues>
            -8.5381501913070679e-01 7.5158491730690002e-02</leafValues></_>
        <_>
          <internalNodes>
            0 -1 223 2.5995332747697830e-02</internalNodes>
          <leafValues>
            1.2541155517101288e-01 -7.0857447385787964e-01</leafValues></_>
        <_>
          <internalNodes>
            0 -1 63 1.3923591468483210e-03</internalNodes>
          <leafValues>
            1.0421725362539291e-01 -7.4538397789001465e-01</leafValues></_>
        <_>
          <internalNodes>
            0 -1 3 3.7109977565705776e-03</internalNodes>
          <leafValues>
            6.2064722180366516e-02 -8.5495823621749878e-01</leafValues></_>
        <_>
          <internalNodes>
            0 -1 273 -4.2729534208774567e-02</internalNodes>
          <leafValues>
            4.0805822610855103e-01 -2.0097750425338745e-01</leafValues></_>
        <_>
          <internalNodes>
            0 -1 110 1.3327731192111969e-01</internalNodes>
          <leafValues>
            -8.8968619704246521e-02 8.5978937149047852e-01</leafValues></_>
        <_>
          <internalNodes>
            0 -1 8 -8.6515396833419800e-02</internalNodes>
          <leafValues>
            -9.1101801395416260e-01 1.0384444892406464e-01</leafValues></_>
        <_>
          <internalNodes>
            0 -1 135 -1.0278298519551754e-02</internalNodes>
          <leafValues>
            5.4042488336563110e-01 -1.6683085262775421e-01</leafValues></_>
        <_>
          <internalNodes>
            0 -1 158 4.9047030508518219e-02</internalNodes>
          <leafValues>
            9.3106932938098907e-02 -8.7606662511825562e-01</leafValues></_>
        <_>
          <internalNodes>
            0 -1 145 -4.7055166214704514e-03</internalNodes>
          <leafValues>
            5.0420176982879639e-01 -1.6359873116016388e-01</leafValues></_>
        <_>
          <internalNodes>
            0 -1 259 -1.0304589755833149e-02</internalNodes>
          <leafValues>
            -7.3756009340286255e-01 1.0576573759317398e-01</leafValues></_>
        <_>
          <internalNodes>
            0 -1 253 3.2860718667507172e-02</internalNodes>
          <leafValues>
            -1.3612392544746399e-01 6.3660871982574463e-01</leafValues></_>
        <_>
          <internalNodes>
            0 -1 163 6.3165738247334957e-03</internalNodes>
          <leafValues>
            -1.2489742785692215e-01 6.4140659570693970e-01</leafValues></_>
        <_>
          <internalNodes>
            0 -1 77 1.7931991815567017e-01</internalNodes>
          <leafValues>
            1.0011103749275208e-01 -8.7104898691177368e-01</leafValues></_></weakClassifiers></_>
    <!-- stage 11 -->
    <_>
      <maxWeakCount>19</maxWeakCount>
      <stageThreshold>-1.1476396322250366e+00</stageThreshold>
      <weakClassifiers>
        <_>
          <internalNodes>
            0 -1 233 -2.9191575944423676e-02</internalNodes>
          <leafValues>
            2.5797101855278015e-01 -5.0995671749114990e-01</leafValues></_>
        <_>
          <internalNodes>
            0 -1 7 1.2462440133094788e-01</internalNodes>
          <leafValues>
            -4.0359675884246826e-01 2.9501518607139587e-01</leafValues></_>
        <_>
          <internalNodes>
            0 -1 155 -6.4421347342431545e-03</internalNodes>
          <leafValues>
            3.7433207035064697e-01 -2.1738810837268829e-01</leafValues></_>
        <_>
          <internalNodes>
            0 -1 21 1.7513966187834740e-02</internalNodes>
          <leafValues>
            1.3917596638202667e-01 -6.2112897634506226e-01</leafValues></_>
        <_>
          <internalNodes>
            0 -1 100 -1.6027979552745819e-01</internalNodes>
          <leafValues>
            4.1136220097541809e-01 -1.9749295711517334e-01</leafValues></_>
        <_>
          <internalNodes>
            0 -1 137 1.9578527659177780e-02</internalNodes>
          <leafValues>
            -2.5266686081886292e-01 3.8428875803947449e-01</leafValues></_>
        <_>
          <internalNodes>
            0 -1 111 7.1677905507385731e-03</internalNodes>
          <leafValues>
            -1.9240690767765045e-01 4.0464529395103455e-01</leafValues></_>
        <_>
          <internalNodes>
            0 -1 150 1.2064702808856964e-01</internalNodes>
          <leafValues>
            -5.8551963418722153e-02 9.1740179061889648e-01</leafValues></_>
        <_>
          <internalNodes>
            0 -1 28 8.5239494219422340e-03</internalNodes>
          <leafValues>
            -2.3677586019039154e-01 3.3755379915237427e-01</leafValues></_>
        <_>
          <internalNodes>
            0 -1 85 -4.0223579853773117e-02</internalNodes>
          <leafValues>
            5.8061248064041138e-01 -1.5994057059288025e-01</leafValues></_>
        <_>
          <internalNodes>
            0 -1 143 -2.2343363612890244e-02</internalNodes>
          <leafValues>
            4.6583253145217896e-01 -1.5409390628337860e-01</leafValues></_>
        <_>
          <internalNodes>
            0 -1 268 -6.8137221038341522e-02</internalNodes>
          <leafValues>
            -7.1459788084030151e-01 1.1663155257701874e-01</leafValues></_>
        <_>
          <internalNodes>
            0 -1 264 -8.6155198514461517e-03</internalNodes>
          <leafValues>
            4.7581350803375244e-01 -1.8186590075492859e-01</leafValues></_>
        <_>
          <internalNodes>
            0 -1 157 -1.9464825745671988e-03</internalNodes>
          <leafValues>
            -8.2263869047164917e-01 1.0822647064924240e-01</leafValues></_>
        <_>
          <internalNodes>
            0 -1 128 -5.1176575943827629e-03</internalNodes>
          <leafValues>
            3.2657593488693237e-01 -2.3603284358978271e-01</leafValues></_>
        <_>
          <internalNodes>
            0 -1 166 9.0726912021636963e-03</internalNodes>
          <leafValues>
            -1.6687914729118347e-01 4.3319037556648254e-01</leafValues></_>
        <_>
          <internalNodes>
            0 -1 242 1.7790313810110092e-02</internalNodes>
          <leafValues>
            -1.5741588175296783e-01 5.3865373134613037e-01</leafValues></_>
        <_>
          <internalNodes>
            0 -1 105 -3.9800233207643032e-03</internalNodes>
          <leafValues>
            2.3040266335010529e-01 -3.3102598786354065e-01</leafValues></_>
        <_>
          <internalNodes>
            0 -1 107 7.9347729682922363e-02</internalNodes>
          <leafValues>
            -1.2722583115100861e-01 6.4573526382446289e-01</leafValues></_></weakClassifiers></_>
    <!-- stage 12 -->
    <_>
      <maxWeakCount>18</maxWeakCount>
      <stageThreshold>-1.2328139543533325e+00</stageThreshold>
      <weakClassifiers>
        <_>
          <internalNodes>
            0 -1 277 2.3535627871751785e-02</internalNodes>
          <leafValues>
            -4.5816734433174133e-01 3.0612245202064514e-01</leafValues></_>
        <_>
          <internalNodes>
            0 -1 49 2.5158800184726715e-02</internalNodes>
          <leafValues>
            -4.3249306082725525e-01 1.5163205564022064e-01</leafValues></_>
        <_>
          <internalNodes>
            0 -1 206 -2.2131480276584625e-02</internalNodes>
          <leafValues>
            3.1773117184638977e-01 -2.5155985355377197e-01</leafValues></_>
        <_>
          <internalNodes>
            0 -1 108 1.1949717998504639e-01</internalNodes>
          <leafValues>
            -9.9002972245216370e-02 7.2730821371078491e-01</leafValues></_>
        <_>
          <internalNodes>
            0 -1 229 -4.0439763106405735e-03</internalNodes>
          <leafValues>
            -7.0577770471572876e-01 1.6090644896030426e-01</leafValues></_>
        <_>
          <internalNodes>
            0 -1 182 -4.4132858514785767e-02</internalNodes>
          <leafValues>
            -9.5083737373352051e-01 2.5062702596187592e-02</leafValues></_>
        <_>
          <internalNodes>
            0 -1 200 -5.9174895286560059e-03</internalNodes>
          <leafValues>
            -9.4260132312774658e-01 6.2224406749010086e-02</leafValues></_>
        <_>
          <internalNodes>
            0 -1 0 2.6666356716305017e-03</internalNodes>
          <leafValues>
            1.3778586685657501e-01 -4.3360784649848938e-01</leafValues></_>
        <_>
          <internalNodes>
            0 -1 97 3.5114225465804338e-04</internalNodes>
          <leafValues>
            -2.7282905578613281e-01 2.4488480389118195e-01</leafValues></_>
        <_>
          <internalNodes>
            0 -1 1 -3.1108986586332321e-03</internalNodes>
          <leafValues>
            -7.7073329687118530e-01 8.8782921433448792e-02</leafValues></_>
        <_>
          <internalNodes>
            0 -1 44 -1.1005569249391556e-02</internalNodes>
          <leafValues>
            3.0463463068008423e-01 -2.2137884795665741e-01</leafValues></_>
        <_>
          <internalNodes>
            0 -1 121 -6.3741073012351990e-02</internalNodes>
          <leafValues>
            5.2281332015991211e-01 -1.2449225783348083e-01</leafValues></_>
        <_>
          <internalNodes>
            0 -1 131 1.5510708093643188e-02</internalNodes>
          <leafValues>
            -1.8238732218742371e-01 3.3805018663406372e-01</leafValues></_>
        <_>
          <internalNodes>
            0 -1 169 -6.5105990506708622e-03</internalNodes>
          <leafValues>
            -8.5575377941131592e-01 8.4693603217601776e-02</leafValues></_>
        <_>
          <internalNodes>
            0 -1 67 -1.3285580277442932e-01</internalNodes>
          <leafValues>
            -8.8870257139205933e-01 4.9764808267354965e-02</leafValues></_>
        <_>
          <internalNodes>
            0 -1 18 2.3058652877807617e-03</internalNodes>
          <leafValues>
            9.1127961874008179e-02 -5.4641151428222656e-01</leafValues></_>
        <_>
          <internalNodes>
            0 -1 287 4.3221535161137581e-03</internalNodes>
          <leafValues>
            -1.6670885682106018e-01 4.3199408054351807e-01</leafValues></_>
        <_>
          <internalNodes>
            0 -1 260 1.9449858227744699e-03</internalNodes>
          <leafValues>
            -2.0921736955642700e-01 3.8646057248115540e-01</leafValues></_></weakClassifiers></_>
    <!-- stage 13 -->
    <_>
      <maxWeakCount>22</maxWeakCount>
      <stageThreshold>-1.3243447542190552e+00</stageThreshold>
      <weakClassifiers>
        <_>
          <internalNodes>
            0 -1 220 -2.3369099944829941e-02</internalNodes>
          <leafValues>
            4.1111111640930176e-01 -4.3484848737716675e-01</leafValues></_>
        <_>
          <internalNodes>
            0 -1 187 1.1020261049270630e-01</internalNodes>
          <leafValues>
            7.1808874607086182e-02 -8.2857269048690796e-01</leafValues></_>
        <_>
          <internalNodes>
            0 -1 215 -2.4112865328788757e-02</internalNodes>
          <leafValues>
            4.3423011898994446e-01 -1.4736361801624298e-01</leafValues></_>
        <_>
          <internalNodes>
            0 -1 248 1.0610252618789673e-02</internalNodes>
          <leafValues>
            -1.3237224519252777e-01 6.1265170574188232e-01</leafValues></_>
        <_>
          <internalNodes>
            0 -1 243 -1.4331253245472908e-02</internalNodes>
          <leafValues>
            3.3801764249801636e-01 -1.8077398836612701e-01</leafValues></_>
        <_>
          <internalNodes>
            0 -1 74 1.3056580722332001e-01</internalNodes>
          <leafValues>
            -9.9175684154033661e-02 7.7034884691238403e-01</leafValues></_>
        <_>
          <internalNodes>
            0 -1 322 9.8187420517206192e-03</internalNodes>
          <leafValues>
            1.1231479048728943e-01 -6.9377058744430542e-01</leafValues></_>
        <_>
          <internalNodes>
            0 -1 134 -1.2030558288097382e-01</internalNodes>
          <leafValues>
            -7.6905524730682373e-01 9.4181917607784271e-02</leafValues></_>
        <_>
          <internalNodes>
            0 -1 91 1.8131546676158905e-03</internalNodes>
          <leafValues>
            -2.3719990253448486e-01 2.8485500812530518e-01</leafValues></_>
        <_>
          <internalNodes>
            0 -1 132 1.3469377532601357e-02</internalNodes>
          <leafValues>
            -8.6959771811962128e-02 8.0281901359558105e-01</leafValues></_>
        <_>
          <internalNodes>
            0 -1 181 2.1099889650940895e-02</internalNodes>
          <leafValues>
            8.8277190923690796e-02 -8.5770940780639648e-01</leafValues></_>
        <_>
          <internalNodes>
            0 -1 204 1.7574779689311981e-02</internalNodes>
          <leafValues>
            -1.2822286784648895e-01 5.8195436000823975e-01</leafValues></_>
        <_>
          <internalNodes>
            0 -1 125 1.4641327783465385e-02</internalNodes>
          <leafValues>
            -1.7981514334678650e-01 3.6246755719184875e-01</leafValues></_>
        <_>
          <internalNodes>
            0 -1 133 -1.4356037601828575e-02</internalNodes>
          <leafValues>
            5.0622844696044922e-01 -1.3443309068679810e-01</leafValues></_>
        <_>
          <internalNodes>
            0 -1 209 -1.7946768552064896e-02</internalNodes>
          <leafValues>
            -6.8386781215667725e-01 1.0706990957260132e-01</leafValues></_>
        <_>
          <internalNodes>
            0 -1 281 -5.2470108494162560e-03</internalNodes>
          <leafValues>
            -9.4705784320831299e-01 4.5260462909936905e-02</leafValues></_>
        <_>
          <internalNodes>
            0 -1 126 -9.2792898416519165e-02</internalNodes>
          <leafValues>
            2.9143589735031128e-01 -2.1666659414768219e-01</leafValues></_>
        <_>
          <internalNodes>
            0 -1 71 -2.1691292524337769e-01</internalNodes>
          <leafValues>
            -6.9905507564544678e-01 1.1217938363552094e-01</leafValues></_>
        <_>
          <internalNodes>
            0 -1 109 -4.4656306505203247e-02</internalNodes>
          <leafValues>
            5.4028642177581787e-01 -1.7623353004455566e-01</leafValues></_>
        <_>
          <internalNodes>
            0 -1 197 4.7279344871640205e-03</internalNodes>
          <leafValues>
            -2.8086644411087036e-01 2.3806338012218475e-01</leafValues></_>
        <_>
          <internalNodes>
            0 -1 321 3.4956025774590671e-04</internalNodes>
          <leafValues>
            -2.8359451889991760e-01 2.4417069554328918e-01</leafValues></_>
        <_>
          <internalNodes>
            0 -1 188 3.4091091947630048e-04</internalNodes>
          <leafValues>
            -2.8461346030235291e-01 2.4415878951549530e-01</leafValues></_></weakClassifiers></_>
    <!-- stage 14 -->
    <_>
      <maxWeakCount>19</maxWeakCount>
      <stageThreshold>-1.2564116716384888e+00</stageThreshold>
      <weakClassifiers>
        <_>
          <internalNodes>
            0 -1 214 -1.7965514212846756e-02</internalNodes>
          <leafValues>
            1.8367347121238708e-01 -4.5936980843544006e-01</leafValues></_>
        <_>
          <internalNodes>
            0 -1 64 9.2236883938312531e-04</internalNodes>
          <leafValues>
            7.7480562031269073e-02 -6.5896868705749512e-01</leafValues></_>
        <_>
          <internalNodes>
            0 -1 302 4.5238137245178223e-03</internalNodes>
          <leafValues>
            -1.8871149420738220e-01 3.5364937782287598e-01</leafValues></_>
        <_>
          <internalNodes>
            0 -1 46 -1.8312070518732071e-02</internalNodes>
          <leafValues>
            1.7717589437961578e-01 -3.7516632676124573e-01</leafValues></_>
        <_>
          <internalNodes>
            0 -1 194 5.2868138300254941e-04</internalNodes>
          <leafValues>
            1.6198281943798065e-01 -3.8319030404090881e-01</leafValues></_>
        <_>
          <internalNodes>
            0 -1 256 -1.1474447324872017e-02</internalNodes>
          <leafValues>
            4.6668285131454468e-01 -1.3474553823471069e-01</leafValues></_>
        <_>
          <internalNodes>
            0 -1 301 -5.2818562835454941e-03</internalNodes>
          <leafValues>
            -7.9365068674087524e-01 9.2341102659702301e-02</leafValues></_>
        <_>
          <internalNodes>
            0 -1 176 5.6495130993425846e-03</internalNodes>
          <leafValues>
            -1.3904318213462830e-01 5.2889418601989746e-01</leafValues></_>
        <_>
          <internalNodes>
            0 -1 90 7.5778439640998840e-02</internalNodes>
          <leafValues>
            1.1409527808427811e-01 -5.9056305885314941e-01</leafValues></_>
        <_>
          <internalNodes>
            0 -1 86 2.5676345825195312e-01</internalNodes>
          <leafValues>
            -2.5588101148605347e-01 3.3353748917579651e-01</leafValues></_>
        <_>
          <internalNodes>
            0 -1 84 -1.9638914614915848e-02</internalNodes>
          <leafValues>
            5.8866888284683228e-01 -1.6673156619071960e-01</leafValues></_>
        <_>
          <internalNodes>
            0 -1 159 -1.0033820569515228e-01</internalNodes>
          <leafValues>
            -7.5946235656738281e-01 1.0311145335435867e-01</leafValues></_>
        <_>
          <internalNodes>
            0 -1 117 -9.9049892742186785e-04</internalNodes>
          <leafValues>
            -6.1432063579559326e-01 8.8229686021804810e-02</leafValues></_>
        <_>
          <internalNodes>
            0 -1 32 4.8100154846906662e-02</internalNodes>
          <leafValues>
            -2.8149896860122681e-01 2.0660866796970367e-01</leafValues></_>
        <_>
          <internalNodes>
            0 -1 123 -9.1558694839477539e-02</internalNodes>
          <leafValues>
            5.5422598123550415e-01 -1.2254904210567474e-01</leafValues></_>
        <_>
          <internalNodes>
            0 -1 140 -2.2012546658515930e-02</internalNodes>
          <leafValues>
            -7.5874900817871094e-01 9.0648278594017029e-02</leafValues></_>
        <_>
          <internalNodes>
            0 -1 237 6.9784075021743774e-02</internalNodes>
          <leafValues>
            -1.0281085968017578e-01 6.6117948293685913e-01</leafValues></_>
        <_>
          <internalNodes>
            0 -1 70 4.0275651961565018e-02</internalNodes>
          <leafValues>
            -2.1821179986000061e-01 3.2640671730041504e-01</leafValues></_>
        <_>
          <internalNodes>
            0 -1 263 -8.2125281915068626e-03</internalNodes>
          <leafValues>
            4.2489191889762878e-01 -1.5045316517353058e-01</leafValues></_></weakClassifiers></_>
    <!-- stage 15 -->
    <_>
      <maxWeakCount>24</maxWeakCount>
      <stageThreshold>-1.2430011034011841e+00</stageThreshold>
      <weakClassifiers>
        <_>
          <internalNodes>
            0 -1 257 2.2481504827737808e-02</internalNodes>
          <leafValues>
            -4.7749337553977966e-01 1.1171662062406540e-01</leafValues></_>
        <_>
          <internalNodes>
            0 -1 312 7.1313348598778248e-04</internalNodes>
          <leafValues>
            -2.8534811735153198e-01 2.1822871267795563e-01</leafValues></_>
        <_>
          <internalNodes>
            0 -1 317 1.2626000680029392e-03</internalNodes>
          <leafValues>
            1.0073988139629364e-01 -7.1183025836944580e-01</leafValues></_>
        <_>
          <internalNodes>
            0 -1 19 -3.1414856202900410e-03</internalNodes>
          <leafValues>
            -6.0223495960235596e-01 1.2797144055366516e-01</leafValues></_>
        <_>
          <internalNodes>
            0 -1 274 3.3968929201364517e-03</internalNodes>
          <leafValues>
            -2.0391626656055450e-01 2.9648363590240479e-01</leafValues></_>
        <_>
          <internalNodes>
            0 -1 96 2.7587704826146364e-03</internalNodes>
          <leafValues>
            8.8090077042579651e-02 -7.3668372631072998e-01</leafValues></_>
        <_>
          <internalNodes>
            0 -1 251 5.7931607589125633e-03</internalNodes>
          <leafValues>
            1.0066723823547363e-01 -5.4788225889205933e-01</leafValues></_>
        <_>
          <internalNodes>
            0 -1 201 7.8044072724878788e-03</internalNodes>
          <leafValues>
            7.6762616634368896e-02 -6.7823249101638794e-01</leafValues></_>
        <_>
          <internalNodes>
            0 -1 222 -1.4926731586456299e-02</internalNodes>
          <leafValues>
            -6.1554884910583496e-01 7.5896359980106354e-02</leafValues></_>
        <_>
          <internalNodes>
            0 -1 306 8.0644723493605852e-04</internalNodes>
          <leafValues>
            -2.0304819941520691e-01 2.9854232072830200e-01</leafValues></_>
        <_>
          <internalNodes>
            0 -1 106 7.5057074427604675e-02</internalNodes>
          <leafValues>
            -1.1566662043333054e-01 7.2100734710693359e-01</leafValues></_>
        <_>
          <internalNodes>
            0 -1 240 -3.6340076476335526e-03</internalNodes>
          <leafValues>
            -6.7298835515975952e-01 1.3360272347927094e-01</leafValues></_>
        <_>
          <internalNodes>
            0 -1 288 1.0050432756543159e-02</internalNodes>
          <leafValues>
            -1.9290527701377869e-01 3.7703043222427368e-01</leafValues></_>
        <_>
          <internalNodes>
            0 -1 6 -2.0264662802219391e-02</internalNodes>
          <leafValues>
            3.8636821508407593e-01 -1.4925879240036011e-01</leafValues></_>
        <_>
          <internalNodes>
            0 -1 103 -2.0339537411928177e-02</internalNodes>
          <leafValues>
            2.4496155977249146e-01 -2.6637676358222961e-01</leafValues></_>
        <_>
          <internalNodes>
            0 -1 266 -3.9817072451114655e-02</internalNodes>
          <leafValues>
            -9.5680332183837891e-01 6.7437052726745605e-02</leafValues></_>
        <_>
          <internalNodes>
            0 -1 218 1.4745265245437622e-02</internalNodes>
          <leafValues>
            -1.5619392693042755e-01 4.2425400018692017e-01</leafValues></_>
        <_>
          <internalNodes>
            0 -1 310 -9.2000426957383752e-04</internalNodes>
          <leafValues>
            -4.8708719015121460e-01 1.2955488264560699e-01</leafValues></_>
        <_>
          <internalNodes>
            0 -1 286 3.3962755696848035e-04</internalNodes>
          <leafValues>
            -1.9681119918823242e-01 3.2132145762443542e-01</leafValues></_>
        <_>
          <internalNodes>
            0 -1 69 -7.6274480670690536e-04</internalNodes>
          <leafValues>
            1.7805625498294830e-01 -3.3302590250968933e-01</leafValues></_>
        <_>
          <internalNodes>
            0 -1 47 1.5437444671988487e-03</internalNodes>
          <leafValues>
            8.3385929465293884e-02 -7.3799240589141846e-01</leafValues></_>
        <_>
          <internalNodes>
            0 -1 16 -1.2757945060729980e-01</internalNodes>
          <leafValues>
            -5.7398664951324463e-01 8.9616522192955017e-02</leafValues></_>
        <_>
          <internalNodes>
            0 -1 148 -5.5669859051704407e-02</internalNodes>
          <leafValues>
            4.4117131829261780e-01 -1.3915273547172546e-01</leafValues></_>
        <_>
          <internalNodes>
            0 -1 130 -2.0011290907859802e-03</internalNodes>
          <leafValues>
            3.1999567151069641e-01 -1.8659712374210358e-01</leafValues></_></weakClassifiers></_>
    <!-- stage 16 -->
    <_>
      <maxWeakCount>24</maxWeakCount>
      <stageThreshold>-1.3036128282546997e+00</stageThreshold>
      <weakClassifiers>
        <_>
          <internalNodes>
            0 -1 232 2.5019818916916847e-02</internalNodes>
          <leafValues>
            -4.4899597764015198e-01 2.3137255012989044e-01</leafValues></_>
        <_>
          <internalNodes>
            0 -1 27 3.3575564157217741e-04</internalNodes>
          <leafValues>
            -3.1160682439804077e-01 1.7205946147441864e-01</leafValues></_>
        <_>
          <internalNodes>
            0 -1 138 -1.3886323431506753e-03</internalNodes>
          <leafValues>
            -7.0106744766235352e-01 8.3329640328884125e-02</leafValues></_>
        <_>
          <internalNodes>
            0 -1 95 3.3895036904141307e-04</internalNodes>
          <leafValues>
            -2.1585242450237274e-01 2.8205603361129761e-01</leafValues></_>
        <_>
          <internalNodes>
            0 -1 45 -4.7989121079444885e-01</internalNodes>
          <leafValues>
            4.5162117481231689e-01 -1.3641805946826935e-01</leafValues></_>
        <_>
          <internalNodes>
            0 -1 99 3.4085009247064590e-03</internalNodes>
          <leafValues>
            -2.8968709707260132e-01 3.1043633818626404e-01</leafValues></_>
        <_>
          <internalNodes>
            0 -1 5 -9.1931317001581192e-03</internalNodes>
          <leafValues>
            -4.8131027817726135e-01 1.7087149620056152e-01</leafValues></_>
        <_>
          <internalNodes>
            0 -1 225 -2.1275294944643974e-02</internalNodes>
          <leafValues>
            3.2283213734626770e-01 -1.9419947266578674e-01</leafValues></_>
        <_>
          <internalNodes>
            0 -1 112 -1.0467202961444855e-01</internalNodes>
          <leafValues>
            4.2474350333213806e-01 -1.4704772830009460e-01</leafValues></_>
        <_>
          <internalNodes>
            0 -1 167 -3.4801601432263851e-03</internalNodes>
          <leafValues>
            3.4373447299003601e-01 -1.9191178679466248e-01</leafValues></_>
        <_>
          <internalNodes>
            0 -1 57 -4.9227131530642509e-03</internalNodes>
          <leafValues>
            2.5517803430557251e-01 -2.0638842880725861e-01</leafValues></_>
        <_>
          <internalNodes>
            0 -1 127 -7.0521928369998932e-02</internalNodes>
          <leafValues>
            -8.3937990665435791e-01 6.8075083196163177e-02</leafValues></_>
        <_>
          <internalNodes>
            0 -1 78 -1.5512170270085335e-02</internalNodes>
          <leafValues>
            4.7921219468116760e-01 -1.4746418595314026e-01</leafValues></_>
        <_>
          <internalNodes>
            0 -1 48 -5.4482663981616497e-03</internalNodes>
          <leafValues>
            -6.7802864313125610e-01 1.0864974558353424e-01</leafValues></_>
        <_>
          <internalNodes>
            0 -1 124 1.4850912988185883e-01</internalNodes>
          <leafValues>
            -1.2929455935955048e-01 5.4620534181594849e-01</leafValues></_>
        <_>
          <internalNodes>
            0 -1 35 -7.1981307119131088e-03</internalNodes>
          <leafValues>
            3.4731152653694153e-01 -1.6545790433883667e-01</leafValues></_>
        <_>
          <internalNodes>
            0 -1 175 -3.2543987035751343e-01</internalNodes>
          <leafValues>
            -9.0137416124343872e-01 5.3749788552522659e-02</leafValues></_>
        <_>
          <internalNodes>
            0 -1 255 -7.5774504803121090e-03</internalNodes>
          <leafValues>
            -6.5576177835464478e-01 6.2543250620365143e-02</leafValues></_>
        <_>
          <internalNodes>
            0 -1 36 -2.4195208679884672e-03</internalNodes>
          <leafValues>
            -5.1292401552200317e-01 9.6599526703357697e-02</leafValues></_>
        <_>
          <internalNodes>
            0 -1 304 2.9249244835227728e-03</internalNodes>
          <leafValues>
            -2.2012186050415039e-01 2.2757926583290100e-01</leafValues></_>
        <_>
          <internalNodes>
            0 -1 89 -3.1087368261069059e-03</internalNodes>
          <leafValues>
            2.7267518639564514e-01 -2.1258158981800079e-01</leafValues></_>
        <_>
          <internalNodes>
            0 -1 51 1.4743897318840027e-01</internalNodes>
          <leafValues>
            -1.1286067217588425e-01 6.2283807992935181e-01</leafValues></_>
        <_>
          <internalNodes>
            0 -1 192 1.5673350542783737e-02</internalNodes>
          <leafValues>
            7.7831409871578217e-02 -8.3043515682220459e-01</leafValues></_>
        <_>
          <internalNodes>
            0 -1 269 -1.3258015736937523e-02</internalNodes>
          <leafValues>
            3.8705906271934509e-01 -1.5355093777179718e-01</leafValues></_></weakClassifiers></_>
    <!-- stage 17 -->
    <_>
      <maxWeakCount>27</maxWeakCount>
      <stageThreshold>-1.4066009521484375e+00</stageThreshold>
      <weakClassifiers>
        <_>
          <internalNodes>
            0 -1 116 5.9514462947845459e-02</internalNodes>
          <leafValues>
            -5.1552796363830566e-01 -3.7453183904290199e-03</leafValues></_>
        <_>
          <internalNodes>
            0 -1 316 2.3823499679565430e-02</internalNodes>
          <leafValues>
            4.3721210211515427e-02 -8.6642605066299438e-01</leafValues></_>
        <_>
          <internalNodes>
            0 -1 230 -1.2053640093654394e-03</internalNodes>
          <leafValues>
            2.6228544116020203e-01 -2.5282648205757141e-01</leafValues></_>
        <_>
          <internalNodes>
            0 -1 265 -4.8882975243031979e-03</internalNodes>
          <leafValues>
            -7.3203104734420776e-01 7.8048646450042725e-02</leafValues></_>
        <_>
          <internalNodes>
            0 -1 83 3.5411820863373578e-04</internalNodes>
          <leafValues>
            -2.7014306187629700e-01 1.9606943428516388e-01</leafValues></_>
        <_>
          <internalNodes>
            0 -1 147 -3.3294758759438992e-04</internalNodes>
          <leafValues>
            2.0783834159374237e-01 -2.7726250886917114e-01</leafValues></_>
        <_>
          <internalNodes>
            0 -1 250 -1.6658036038279533e-02</internalNodes>
          <leafValues>
            1.9950635731220245e-01 -3.2161661982536316e-01</leafValues></_>
        <_>
          <internalNodes>
            0 -1 162 -1.1240633577108383e-01</internalNodes>
          <leafValues>
            -7.1383237838745117e-01 6.6617168486118317e-02</leafValues></_>
        <_>
          <internalNodes>
            0 -1 52 1.3582467800006270e-03</internalNodes>
          <leafValues>
            -3.2660230994224548e-01 1.5840019285678864e-01</leafValues></_>
        <_>
          <internalNodes>
            0 -1 53 1.5050047636032104e-01</internalNodes>
          <leafValues>
            1.0486925393342972e-01 -5.1826256513595581e-01</leafValues></_>
        <_>
          <internalNodes>
            0 -1 285 -3.7943408824503422e-03</internalNodes>
          <leafValues>
            2.9921969771385193e-01 -2.1029525995254517e-01</leafValues></_>
        <_>
          <internalNodes>
            0 -1 297 8.1466964911669493e-04</internalNodes>
          <leafValues>
            -2.3126119375228882e-01 3.3104860782623291e-01</leafValues></_>
        <_>
          <internalNodes>
            0 -1 154 1.0403599590063095e-02</internalNodes>
          <leafValues>
            -1.7388696968555450e-01 3.3438122272491455e-01</leafValues></_>
        <_>
          <internalNodes>
            0 -1 211 -3.5910729784518480e-03</internalNodes>
          <leafValues>
            -8.6415457725524902e-01 7.5129583477973938e-02</leafValues></_>
        <_>
          <internalNodes>
            0 -1 152 -4.5657390728592873e-03</internalNodes>
          <leafValues>
            4.4639477133750916e-01 -1.3529781997203827e-01</leafValues></_>
        <_>
          <internalNodes>
            0 -1 174 1.0231378674507141e-01</internalNodes>
          <leafValues>
            8.9799471199512482e-02 -6.3263785839080811e-01</leafValues></_>
        <_>
          <internalNodes>
            0 -1 43 -3.5595023073256016e-03</internalNodes>
          <leafValues>
            -5.1577955484390259e-01 8.8718205690383911e-02</leafValues></_>
        <_>
          <internalNodes>
            0 -1 293 -5.6041553616523743e-03</internalNodes>
          <leafValues>
            4.2311426997184753e-01 -1.2665131688117981e-01</leafValues></_>
        <_>
          <internalNodes>
            0 -1 212 -1.9078091718256474e-03</internalNodes>
          <leafValues>
            -7.7954548597335815e-01 6.6753514111042023e-02</leafValues></_>
        <_>
          <internalNodes>
            0 -1 217 -5.1114596426486969e-03</internalNodes>
          <leafValues>
            -9.3207800388336182e-01 3.8757648319005966e-02</leafValues></_>
        <_>
          <internalNodes>
            0 -1 177 5.8325114659965038e-03</internalNodes>
          <leafValues>
            -1.4605502784252167e-01 3.8077697157859802e-01</leafValues></_>
        <_>
          <internalNodes>
            0 -1 189 2.8373799286782742e-03</internalNodes>
          <leafValues>
            -1.5841953456401825e-01 4.1639548540115356e-01</leafValues></_>
        <_>
          <internalNodes>
            0 -1 168 3.7440381944179535e-02</internalNodes>
          <leafValues>
            6.9047719240188599e-02 -9.2172574996948242e-01</leafValues></_>
        <_>
          <internalNodes>
            0 -1 219 4.6839853748679161e-03</internalNodes>
          <leafValues>
            -1.8245416879653931e-01 2.9599079489707947e-01</leafValues></_>
        <_>
          <internalNodes>
            0 -1 205 6.1521783471107483e-02</internalNodes>
          <leafValues>
            5.8330606669187546e-02 -8.2704228162765503e-01</leafValues></_>
        <_>
          <internalNodes>
            0 -1 210 -1.0550745762884617e-02</internalNodes>
          <leafValues>
            -7.2773665189743042e-01 5.4121531546115875e-02</leafValues></_>
        <_>
          <internalNodes>
            0 -1 307 -1.3780330773442984e-03</internalNodes>
          <leafValues>
            -6.9658297300338745e-01 6.3179239630699158e-02</leafValues></_></weakClassifiers></_>
    <!-- stage 18 -->
    <_>
      <maxWeakCount>24</maxWeakCount>
      <stageThreshold>-1.2699356079101562e+00</stageThreshold>
      <weakClassifiers>
        <_>
          <internalNodes>
            0 -1 289 -3.4207526594400406e-02</internalNodes>
          <leafValues>
            3.7414965033531189e-01 -4.1019955277442932e-01</leafValues></_>
        <_>
          <internalNodes>
            0 -1 303 3.4805422183126211e-04</internalNodes>
          <leafValues>
            -2.8044843673706055e-01 1.9965706765651703e-01</leafValues></_>
        <_>
          <internalNodes>
            0 -1 102 -1.4364922046661377e-01</internalNodes>
          <leafValues>
            -9.6464639902114868e-01 5.1289290189743042e-02</leafValues></_>
        <_>
          <internalNodes>
            0 -1 142 -1.8828850239515305e-02</internalNodes>
          <leafValues>
            2.3063360154628754e-01 -2.6495841145515442e-01</leafValues></_>
        <_>
          <internalNodes>
            0 -1 311 -3.5513876355253160e-04</internalNodes>
          <leafValues>
            2.4164092540740967e-01 -2.5258615612983704e-01</leafValues></_>
        <_>
          <internalNodes>
            0 -1 294 -1.5081200748682022e-02</internalNodes>
          <leafValues>
            -6.1542356014251709e-01 7.7726498246192932e-02</leafValues></_>
        <_>
          <internalNodes>
            0 -1 72 -4.6971684694290161e-01</internalNodes>
          <leafValues>
            -9.6699345111846924e-01 6.1010804027318954e-02</leafValues></_>
        <_>
          <internalNodes>
            0 -1 93 -1.2452104687690735e-01</internalNodes>
          <leafValues>
            4.4959515333175659e-01 -1.5870794653892517e-01</leafValues></_>
        <_>
          <internalNodes>
            0 -1 141 1.7145271413028240e-03</internalNodes>
          <leafValues>
            -2.8977429866790771e-01 3.1533974409103394e-01</leafValues></_>
        <_>
          <internalNodes>
            0 -1 170 4.5557301491498947e-03</internalNodes>
          <leafValues>
            7.9667612910270691e-02 -6.3967519998550415e-01</leafValues></_>
        <_>
          <internalNodes>
            0 -1 129 3.7442576140165329e-02</internalNodes>
          <leafValues>
            -6.5574601292610168e-02 9.7541505098342896e-01</leafValues></_>
        <_>
          <internalNodes>
            0 -1 193 3.9854727219790220e-04</internalNodes>
          <leafValues>
            -2.3970948159694672e-01 2.4139378964900970e-01</leafValues></_>
        <_>
          <internalNodes>
            0 -1 283 -7.1374792605638504e-03</internalNodes>
          <leafValues>
            3.3887359499931335e-01 -1.7122992873191833e-01</leafValues></_>
        <_>
          <internalNodes>
            0 -1 291 -4.8420913517475128e-03</internalNodes>
          <leafValues>
            -7.0019459724426270e-01 7.6061181724071503e-02</leafValues></_>
        <_>
          <internalNodes>
            0 -1 284 3.5827330430038273e-04</internalNodes>
          <leafValues>
            -1.7710644006729126e-01 2.9747235774993896e-01</leafValues></_>
        <_>
          <internalNodes>
            0 -1 115 4.1624784469604492e-02</internalNodes>
          <leafValues>
            -1.8759499490261078e-01 2.9183945059776306e-01</leafValues></_>
        <_>
          <internalNodes>
            0 -1 113 -5.8268874883651733e-02</internalNodes>
          <leafValues>
            4.0729615092277527e-01 -1.8241935968399048e-01</leafValues></_>
        <_>
          <internalNodes>
            0 -1 34 -2.8266406059265137e-01</internalNodes>
          <leafValues>
            -1. 7.1704536676406860e-02</leafValues></_>
        <_>
          <internalNodes>
            0 -1 296 3.9763897657394409e-03</internalNodes>
          <leafValues>
            4.1007127612829208e-02 -8.0127692222595215e-01</leafValues></_>
        <_>
          <internalNodes>
            0 -1 65 5.2165365219116211e-01</internalNodes>
          <leafValues>
            4.5132268220186234e-02 -9.1497707366943359e-01</leafValues></_>
        <_>
          <internalNodes>
            0 -1 101 3.5135540366172791e-01</internalNodes>
          <leafValues>
            -1.8988859653472900e-01 3.0582755804061890e-01</leafValues></_>
        <_>
          <internalNodes>
            0 -1 207 -5.4606191813945770e-02</internalNodes>
          <leafValues>
            3.2253441214561462e-01 -2.0319145917892456e-01</leafValues></_>
        <_>
          <internalNodes>
            0 -1 239 -4.1393905878067017e-02</internalNodes>
          <leafValues>
            4.8467263579368591e-01 -1.1087314039468765e-01</leafValues></_>
        <_>
          <internalNodes>
            0 -1 40 1.2947070412337780e-02</internalNodes>
          <leafValues>
            9.4387032091617584e-02 -7.7490466833114624e-01</leafValues></_></weakClassifiers></_>
    <!-- stage 19 -->
    <_>
      <maxWeakCount>20</maxWeakCount>
      <stageThreshold>-1.1007076501846313e+00</stageThreshold>
      <weakClassifiers>
        <_>
          <internalNodes>
            0 -1 290 1.2641370296478271e-01</internalNodes>
          <leafValues>
            -3.9093485474586487e-01 5.9090906381607056e-01</leafValues></_>
        <_>
          <internalNodes>
            0 -1 40 9.6690189093351364e-04</internalNodes>
          <leafValues>
            -3.8849017024040222e-01 1.4031144976615906e-01</leafValues></_>
        <_>
          <internalNodes>
            0 -1 308 -3.3164373598992825e-03</internalNodes>
          <leafValues>
            -8.4671753644943237e-01 8.0563373863697052e-02</leafValues></_>
        <_>
          <internalNodes>
            0 -1 42 -3.6888752132654190e-02</internalNodes>
          <leafValues>
            4.7068116068840027e-01 -1.0855520516633987e-01</leafValues></_>
        <_>
          <internalNodes>
            0 -1 81 2.4711593985557556e-02</internalNodes>
          <leafValues>
            -3.0476436018943787e-01 2.6954475045204163e-01</leafValues></_>
        <_>
          <internalNodes>
            0 -1 9 -4.6164453029632568e-01</internalNodes>
          <leafValues>
            4.4558164477348328e-01 -1.1921057105064392e-01</leafValues></_>
        <_>
          <internalNodes>
            0 -1 29 1.4674017205834389e-02</internalNodes>
          <leafValues>
            -2.3251344263553619e-01 2.4651454389095306e-01</leafValues></_>
        <_>
          <internalNodes>
            0 -1 241 -2.1378328092396259e-03</internalNodes>
          <leafValues>
            2.8886672854423523e-01 -2.0933683216571808e-01</leafValues></_>
        <_>
          <internalNodes>
            0 -1 179 -1.8197925388813019e-01</internalNodes>
          <leafValues>
            7.2823083400726318e-01 -9.8267726600170135e-02</leafValues></_>
        <_>
          <internalNodes>
            0 -1 136 5.3456604480743408e-02</internalNodes>
          <leafValues>
            7.0216476917266846e-02 -9.1345459222793579e-01</leafValues></_>
        <_>
          <internalNodes>
            0 -1 275 2.6825167238712311e-02</internalNodes>
          <leafValues>
            -1.2907445430755615e-01 4.3803825974464417e-01</leafValues></_>
        <_>
          <internalNodes>
            0 -1 278 -1.5871629118919373e-02</internalNodes>
          <leafValues>
            4.8013761639595032e-01 -1.0066263377666473e-01</leafValues></_>
        <_>
          <internalNodes>
            0 -1 58 3.3160038292407990e-03</internalNodes>
          <leafValues>
            7.5281336903572083e-02 -6.6483724117279053e-01</leafValues></_>
        <_>
          <internalNodes>
            0 -1 60 -2.3737620562314987e-02</internalNodes>
          <leafValues>
            2.4418966472148895e-01 -1.9521151483058929e-01</leafValues></_>
        <_>
          <internalNodes>
            0 -1 94 -9.9813021719455719e-02</internalNodes>
          <leafValues>
            -8.2972723245620728e-01 7.4434921145439148e-02</leafValues></_>
        <_>
          <internalNodes>
            0 -1 30 -2.2632727399468422e-02</internalNodes>
          <leafValues>
            2.8608536720275879e-01 -1.7600883543491364e-01</leafValues></_>
        <_>
          <internalNodes>
            0 -1 76 8.4680952131748199e-03</internalNodes>
          <leafValues>
            -1.3482823967933655e-01 3.6054047942161560e-01</leafValues></_>
        <_>
          <internalNodes>
            0 -1 216 -9.1091413050889969e-03</internalNodes>
          <leafValues>
            -8.1444132328033447e-01 5.5497765541076660e-02</leafValues></_>
        <_>
          <internalNodes>
            0 -1 195 -4.2750932276248932e-02</internalNodes>
          <leafValues>
            -8.0890756845474243e-01 4.2064126580953598e-02</leafValues></_>
        <_>
          <internalNodes>
            0 -1 226 -3.1820319592952728e-02</internalNodes>
          <leafValues>
            -8.9459955692291260e-01 4.1606552898883820e-02</leafValues></_></weakClassifiers></_></stages>
  <features>
    <_>
      <rects>
        <_>
          0 0 1 16 -1.</_>
        <_>
          0 8 1 8 2.</_></rects>
      <tilted>0</tilted></_>
    <_>
      <rects>
        <_>
          0 0 4 2 -1.</_>
        <_>
          0 0 2 1 2.</_>
        <_>
          2 1 2 1 2.</_></rects>
      <tilted>0</tilted></_>
    <_>
      <rects>
        <_>
          0 0 2 16 -1.</_>
        <_>
          0 8 2 8 2.</_></rects>
      <tilted>0</tilted></_>
    <_>
      <rects>
        <_>
          0 0 6 2 -1.</_>
        <_>
          0 0 3 1 2.</_>
        <_>
          3 1 3 1 2.</_></rects>
      <tilted>0</tilted></_>
    <_>
      <rects>
        <_>
          0 0 9 2 -1.</_>
        <_>
          3 0 3 2 3.</_></rects>
      <tilted>0</tilted></_>
    <_>
      <rects>
        <_>
          0 0 12 1 -1.</_>
        <_>
          4 0 4 1 3.</_></rects>
      <tilted>0</tilted></_>
    <_>
      <rects>
        <_>
          0 0 8 12 -1.</_>
        <_>
          0 0 4 6 2.</_>
        <_>
          4 6 4 6 2.</_></rects>
      <tilted>0</tilted></_>
    <_>
      <rects>
        <_>
          0 0 16 20 -1.</_>
        <_>
          8 0 8 20 2.</_></rects>
      <tilted>0</tilted></_>
    <_>
      <rects>
        <_>
          0 0 9 8 -1.</_>
        <_>
          0 4 9 4 2.</_></rects>
      <tilted>0</tilted></_>
    <_>
      <rects>
        <_>
          0 0 18 19 -1.</_>
        <_>
          9 0 9 19 2.</_></rects>
      <tilted>0</tilted></_>
    <_>
      <rects>
        <_>
          0 0 18 20 -1.</_>
        <_>
          9 0 9 20 2.</_></rects>
      <tilted>0</tilted></_>
    <_>
      <rects>
        <_>
          0 0 20 20 -1.</_>
        <_>
          10 0 10 20 2.</_></rects>
      <tilted>0</tilted></_>
    <_>
      <rects>
        <_>
          0 0 18 10 -1.</_>
        <_>
          0 5 18 5 2.</_></rects>
      <tilted>0</tilted></_>
    <_>
      <rects>
        <_>
          0 0 19 8 -1.</_>
        <_>
          0 4 19 4 2.</_></rects>
      <tilted>0</tilted></_>
    <_>
      <rects>
        <_>
          0 0 19 10 -1.</_>
        <_>
          0 5 19 5 2.</_></rects>
      <tilted>0</tilted></_>
    <_>
      <rects>
        <_>
          0 0 19 14 -1.</_>
        <_>
          0 7 19 7 2.</_></rects>
      <tilted>0</tilted></_>
    <_>
      <rects>
        <_>
          0 0 20 10 -1.</_>
        <_>
          0 5 20 5 2.</_></rects>
      <tilted>0</tilted></_>
    <_>
      <rects>
        <_>
          0 0 20 14 -1.</_>
        <_>
          0 7 20 7 2.</_></rects>
      <tilted>0</tilted></_>
    <_>
      <rects>
        <_>
          0 1 1 4 -1.</_>
        <_>
          0 3 1 2 2.</_></rects>
      <tilted>0</tilted></_>
    <_>
      <rects>
        <_>
          0 1 3 4 -1.</_>
        <_>
          1 1 1 4 3.</_></rects>
      <tilted>0</tilted></_>
    <_>
      <rects>
        <_>
          0 2 1 2 -1.</_>
        <_>
          0 3 1 1 2.</_></rects>
      <tilted>0</tilted></_>
    <_>
      <rects>
        <_>
          0 2 4 14 -1.</_>
        <_>
          2 2 2 14 2.</_></rects>
      <tilted>0</tilted></_>
    <_>
      <rects>
        <_>
          0 2 8 6 -1.</_>
        <_>
          0 2 4 3 2.</_>
        <_>
          4 5 4 3 2.</_></rects>
      <tilted>0</tilted></_>
    <_>
      <rects>
        <_>
          0 2 5 2 -1.</_>
        <_>
          0 3 5 1 2.</_></rects>
      <tilted>0</tilted></_>
    <_>
      <rects>
        <_>
          0 2 16 18 -1.</_>
        <_>
          8 2 8 18 2.</_></rects>
      <tilted>0</tilted></_>
    <_>
      <rects>
        <_>
          0 2 18 18 -1.</_>
        <_>
          0 11 18 9 2.</_></rects>
      <tilted>0</tilted></_>
    <_>
      <rects>
        <_>
          0 2 19 8 -1.</_>
        <_>
          0 6 19 4 2.</_></rects>
      <tilted>0</tilted></_>
    <_>
      <rects>
        <_>
          0 5 2 10 -1.</_>
        <_>
          0 5 1 5 2.</_>
        <_>
          1 10 1 5 2.</_></rects>
      <tilted>0</tilted></_>
    <_>
      <rects>
        <_>
          0 5 4 12 -1.</_>
        <_>
          0 5 2 6 2.</_>
        <_>
          2 11 2 6 2.</_></rects>
      <tilted>0</tilted></_>
    <_>
      <rects>
        <_>
          0 5 20 1 -1.</_>
        <_>
          10 5 10 1 2.</_></rects>
      <tilted>0</tilted></_>
    <_>
      <rects>
        <_>
          0 6 6 8 -1.</_>
        <_>
          2 6 2 8 3.</_></rects>
      <tilted>0</tilted></_>
    <_>
      <rects>
        <_>
          0 10 8 8 -1.</_>
        <_>
          0 10 4 4 2.</_>
        <_>
          4 14 4 4 2.</_></rects>
      <tilted>0</tilted></_>
    <_>
      <rects>
        <_>
          0 10 12 9 -1.</_>
        <_>
          6 10 6 9 2.</_></rects>
      <tilted>0</tilted></_>
    <_>
      <rects>
        <_>
          0 11 16 7 -1.</_>
        <_>
          8 11 8 7 2.</_></rects>
      <tilted>0</tilted></_>
    <_>
      <rects>
        <_>
          0 11 20 7 -1.</_>
        <_>
          10 11 10 7 2.</_></rects>
      <tilted>0</tilted></_>
    <_>
      <rects>
        <_>
          0 13 16 3 -1.</_>
        <_>
          0 14 16 1 3.</_></rects>
      <tilted>0</tilted></_>
    <_>
      <rects>
        <_>
          0 14 2 6 -1.</_>
        <_>
          1 14 1 6 2.</_></rects>
      <tilted>0</tilted></_>
    <_>
      <rects>
        <_>
          0 14 20 6 -1.</_>
        <_>
          0 17 20 3 2.</_></rects>
      <tilted>0</tilted></_>
    <_>
      <rects>
        <_>
          0 16 20 4 -1.</_>
        <_>
          0 18 20 2 2.</_></rects>
      <tilted>0</tilted></_>
    <_>
      <rects>
        <_>
          0 18 6 2 -1.</_>
        <_>
          2 18 2 2 3.</_></rects>
      <tilted>0</tilted></_>
    <_>
      <rects>
        <_>
          0 19 6 1 -1.</_>
        <_>
          3 19 3 1 2.</_></rects>
      <tilted>0</tilted></_>
    <_>
      <rects>
        <_>
          0 19 8 1 -1.</_>
        <_>
          4 19 4 1 2.</_></rects>
      <tilted>0</tilted></_>
    <_>
      <rects>
        <_>
          0 19 20 1 -1.</_>
        <_>
          10 19 10 1 2.</_></rects>
      <tilted>0</tilted></_>
    <_>
      <rects>
        <_>
          1 0 3 5 -1.</_>
        <_>
          2 0 1 5 3.</_></rects>
      <tilted>0</tilted></_>
    <_>
      <rects>
        <_>
          1 0 8 6 -1.</_>
        <_>
          1 0 4 3 2.</_>
        <_>
          5 3 4 3 2.</_></rects>
      <tilted>0</tilted></_>
    <_>
      <rects>
        <_>
          1 0 18 20 -1.</_>
        <_>
          10 0 9 20 2.</_></rects>
      <tilted>0</tilted></_>
    <_>
      <rects>
        <_>
          1 0 19 8 -1.</_>
        <_>
          1 4 19 4 2.</_></rects>
      <tilted>0</tilted></_>
    <_>
      <rects>
        <_>
          1 1 1 3 -1.</_>
        <_>
          1 2 1 1 3.</_></rects>
      <tilted>0</tilted></_>
    <_>
      <rects>
        <_>
          1 2 4 3 -1.</_>
        <_>
          1 3 4 1 3.</_></rects>
      <tilted>0</tilted></_>
    <_>
      <rects>
        <_>
          1 2 8 18 -1.</_>
        <_>
          1 11 8 9 2.</_></rects>
      <tilted>0</tilted></_>
    <_>
      <rects>
        <_>
          1 3 6 12 -1.</_>
        <_>
          3 3 2 12 3.</_></rects>
      <tilted>0</tilted></_>
    <_>
      <rects>
        <_>
          1 5 12 7 -1.</_>
        <_>
          5 5 4 7 3.</_></rects>
      <tilted>0</tilted></_>
    <_>
      <rects>
        <_>
          1 8 3 10 -1.</_>
        <_>
          1 13 3 5 2.</_></rects>
      <tilted>0</tilted></_>
    <_>
      <rects>
        <_>
          1 9 14 9 -1.</_>
        <_>
          8 9 7 9 2.</_></rects>
      <tilted>0</tilted></_>
    <_>
      <rects>
        <_>
          1 10 2 2 -1.</_>
        <_>
          2 10 1 2 2.</_></rects>
      <tilted>0</tilted></_>
    <_>
      <rects>
        <_>
          1 10 4 6 -1.</_>
        <_>
          1 10 2 3 2.</_>
        <_>
          3 13 2 3 2.</_></rects>
      <tilted>0</tilted></_>
    <_>
      <rects>
        <_>
          1 10 10 6 -1.</_>
        <_>
          1 10 5 3 2.</_>
        <_>
          6 13 5 3 2.</_></rects>
      <tilted>0</tilted></_>
    <_>
      <rects>
        <_>
          1 12 15 3 -1.</_>
        <_>
          1 13 15 1 3.</_></rects>
      <tilted>0</tilted></_>
    <_>
      <rects>
        <_>
          1 13 2 2 -1.</_>
        <_>
          2 13 1 2 2.</_></rects>
      <tilted>0</tilted></_>
    <_>
      <rects>
        <_>
          1 15 9 4 -1.</_>
        <_>
          4 15 3 4 3.</_></rects>
      <tilted>0</tilted></_>
    <_>
      <rects>
        <_>
          1 15 18 5 -1.</_>
        <_>
          7 15 6 5 3.</_></rects>
      <tilted>0</tilted></_>
    <_>
      <rects>
        <_>
          1 16 16 4 -1.</_>
        <_>
          9 16 8 4 2.</_></rects>
      <tilted>0</tilted></_>
    <_>
      <rects>
        <_>
          1 17 2 3 -1.</_>
        <_>
          2 17 1 3 2.</_></rects>
      <tilted>0</tilted></_>
    <_>
      <rects>
        <_>
          1 19 3 1 -1.</_>
        <_>
          2 19 1 1 3.</_></rects>
      <tilted>0</tilted></_>
    <_>
      <rects>
        <_>
          2 0 1 2 -1.</_>
        <_>
          2 1 1 1 2.</_></rects>
      <tilted>0</tilted></_>
    <_>
      <rects>
        <_>
          2 0 16 20 -1.</_>
        <_>
          10 0 8 20 2.</_></rects>
      <tilted>0</tilted></_>
    <_>
      <rects>
        <_>
          2 0 18 20 -1.</_>
        <_>
          11 0 9 20 2.</_></rects>
      <tilted>0</tilted></_>
    <_>
      <rects>
        <_>
          2 0 15 6 -1.</_>
        <_>
          2 3 15 3 2.</_></rects>
      <tilted>0</tilted></_>
    <_>
      <rects>
        <_>
          2 1 1 10 -1.</_>
        <_>
          2 6 1 5 2.</_></rects>
      <tilted>0</tilted></_>
    <_>
      <rects>
        <_>
          2 1 1 12 -1.</_>
        <_>
          2 7 1 6 2.</_></rects>
      <tilted>0</tilted></_>
    <_>
      <rects>
        <_>
          2 1 12 12 -1.</_>
        <_>
          2 1 6 6 2.</_>
        <_>
          8 7 6 6 2.</_></rects>
      <tilted>0</tilted></_>
    <_>
      <rects>
        <_>
          2 1 18 9 -1.</_>
        <_>
          8 1 6 9 3.</_></rects>
      <tilted>0</tilted></_>
    <_>
      <rects>
        <_>
          2 3 18 15 -1.</_>
        <_>
          11 3 9 15 2.</_></rects>
      <tilted>0</tilted></_>
    <_>
      <rects>
        <_>
          2 3 18 17 -1.</_>
        <_>
          11 3 9 17 2.</_></rects>
      <tilted>0</tilted></_>
    <_>
      <rects>
        <_>
          2 5 9 7 -1.</_>
        <_>
          5 5 3 7 3.</_></rects>
      <tilted>0</tilted></_>
    <_>
      <rects>
        <_>
          2 6 6 6 -1.</_>
        <_>
          5 6 3 6 2.</_></rects>
      <tilted>0</tilted></_>
    <_>
      <rects>
        <_>
          2 10 4 6 -1.</_>
        <_>
          2 10 2 3 2.</_>
        <_>
          4 13 2 3 2.</_></rects>
      <tilted>0</tilted></_>
    <_>
      <rects>
        <_>
          2 11 14 8 -1.</_>
        <_>
          9 11 7 8 2.</_></rects>
      <tilted>0</tilted></_>
    <_>
      <rects>
        <_>
          2 11 11 3 -1.</_>
        <_>
          2 12 11 1 3.</_></rects>
      <tilted>0</tilted></_>
    <_>
      <rects>
        <_>
          2 16 2 2 -1.</_>
        <_>
          3 16 1 2 2.</_></rects>
      <tilted>0</tilted></_>
    <_>
      <rects>
        <_>
          2 16 3 4 -1.</_>
        <_>
          3 16 1 4 3.</_></rects>
      <tilted>0</tilted></_>
    <_>
      <rects>
        <_>
          2 16 12 4 -1.</_>
        <_>
          8 16 6 4 2.</_></rects>
      <tilted>0</tilted></_>
    <_>
      <rects>
        <_>
          2 16 14 4 -1.</_>
        <_>
          9 16 7 4 2.</_></rects>
      <tilted>0</tilted></_>
    <_>
      <rects>
        <_>
          2 17 2 2 -1.</_>
        <_>
          3 17 1 2 2.</_></rects>
      <tilted>0</tilted></_>
    <_>
      <rects>
        <_>
          2 19 14 1 -1.</_>
        <_>
          9 19 7 1 2.</_></rects>
      <tilted>0</tilted></_>
    <_>
      <rects>
        <_>
          2 19 18 1 -1.</_>
        <_>
          11 19 9 1 2.</_></rects>
      <tilted>0</tilted></_>
    <_>
      <rects>
        <_>
          3 0 16 20 -1.</_>
        <_>
          11 0 8 20 2.</_></rects>
      <tilted>0</tilted></_>
    <_>
      <rects>
        <_>
          3 0 11 18 -1.</_>
        <_>
          3 9 11 9 2.</_></rects>
      <tilted>0</tilted></_>
    <_>
      <rects>
        <_>
          3 0 13 4 -1.</_>
        <_>
          3 2 13 2 2.</_></rects>
      <tilted>0</tilted></_>
    <_>
      <rects>
        <_>
          3 2 4 7 -1.</_>
        <_>
          5 2 2 7 2.</_></rects>
      <tilted>0</tilted></_>
    <_>
      <rects>
        <_>
          3 8 14 5 -1.</_>
        <_>
          10 8 7 5 2.</_></rects>
      <tilted>0</tilted></_>
    <_>
      <rects>
        <_>
          3 9 2 8 -1.</_>
        <_>
          3 9 1 4 2.</_>
        <_>
          4 13 1 4 2.</_></rects>
      <tilted>0</tilted></_>
    <_>
      <rects>
        <_>
          3 10 11 6 -1.</_>
        <_>
          3 12 11 2 3.</_></rects>
      <tilted>0</tilted></_>
    <_>
      <rects>
        <_>
          3 11 16 9 -1.</_>
        <_>
          11 11 8 9 2.</_></rects>
      <tilted>0</tilted></_>
    <_>
      <rects>
        <_>
          3 13 15 5 -1.</_>
        <_>
          8 13 5 5 3.</_></rects>
      <tilted>0</tilted></_>
    <_>
      <rects>
        <_>
          3 16 2 1 -1.</_>
        <_>
          4 16 1 1 2.</_></rects>
      <tilted>0</tilted></_>
    <_>
      <rects>
        <_>
          3 18 4 2 -1.</_>
        <_>
          3 18 2 1 2.</_>
        <_>
          5 19 2 1 2.</_></rects>
      <tilted>0</tilted></_>
    <_>
      <rects>
        <_>
          3 19 2 1 -1.</_>
        <_>
          4 19 1 1 2.</_></rects>
      <tilted>0</tilted></_>
    <_>
      <rects>
        <_>
          3 19 16 1 -1.</_>
        <_>
          11 19 8 1 2.</_></rects>
      <tilted>0</tilted></_>
    <_>
      <rects>
        <_>
          4 0 10 1 -1.</_>
        <_>
          9 0 5 1 2.</_></rects>
      <tilted>0</tilted></_>
    <_>
      <rects>
        <_>
          4 0 16 11 -1.</_>
        <_>
          12 0 8 11 2.</_></rects>
      <tilted>0</tilted></_>
    <_>
      <rects>
        <_>
          4 0 16 20 -1.</_>
        <_>
          12 0 8 20 2.</_></rects>
      <tilted>0</tilted></_>
    <_>
      <rects>
        <_>
          4 2 15 5 -1.</_>
        <_>
          9 2 5 5 3.</_></rects>
      <tilted>0</tilted></_>
    <_>
      <rects>
        <_>
          4 2 14 10 -1.</_>
        <_>
          4 2 7 5 2.</_>
        <_>
          11 7 7 5 2.</_></rects>
      <tilted>0</tilted></_>
    <_>
      <rects>
        <_>
          4 3 8 4 -1.</_>
        <_>
          4 3 4 2 2.</_>
        <_>
          8 5 4 2 2.</_></rects>
      <tilted>0</tilted></_>
    <_>
      <rects>
        <_>
          4 3 12 4 -1.</_>
        <_>
          8 3 4 4 3.</_></rects>
      <tilted>0</tilted></_>
    <_>
      <rects>
        <_>
          4 5 3 15 -1.</_>
        <_>
          4 10 3 5 3.</_></rects>
      <tilted>0</tilted></_>
    <_>
      <rects>
        <_>
          4 5 6 11 -1.</_>
        <_>
          7 5 3 11 2.</_></rects>
      <tilted>0</tilted></_>
    <_>
      <rects>
        <_>
          4 5 6 15 -1.</_>
        <_>
          4 10 6 5 3.</_></rects>
      <tilted>0</tilted></_>
    <_>
      <rects>
        <_>
          4 6 9 6 -1.</_>
        <_>
          7 6 3 6 3.</_></rects>
      <tilted>0</tilted></_>
    <_>
      <rects>
        <_>
          4 8 12 4 -1.</_>
        <_>
          8 8 4 4 3.</_></rects>
      <tilted>0</tilted></_>
    <_>
      <rects>
        <_>
          4 10 6 4 -1.</_>
        <_>
          4 10 3 2 2.</_>
        <_>
          7 12 3 2 2.</_></rects>
      <tilted>0</tilted></_>
    <_>
      <rects>
        <_>
          4 11 16 9 -1.</_>
        <_>
          4 14 16 3 3.</_></rects>
      <tilted>0</tilted></_>
    <_>
      <rects>
        <_>
          4 12 12 8 -1.</_>
        <_>
          10 12 6 8 2.</_></rects>
      <tilted>0</tilted></_>
    <_>
      <rects>
        <_>
          4 16 4 4 -1.</_>
        <_>
          4 18 4 2 2.</_></rects>
      <tilted>0</tilted></_>
    <_>
      <rects>
        <_>
          4 16 12 4 -1.</_>
        <_>
          10 16 6 4 2.</_></rects>
      <tilted>0</tilted></_>
    <_>
      <rects>
        <_>
          4 16 14 4 -1.</_>
        <_>
          11 16 7 4 2.</_></rects>
      <tilted>0</tilted></_>
    <_>
      <rects>
        <_>
          4 19 3 1 -1.</_>
        <_>
          5 19 1 1 3.</_></rects>
      <tilted>0</tilted></_>
    <_>
      <rects>
        <_>
          5 0 12 20 -1.</_>
        <_>
          11 0 6 20 2.</_></rects>
      <tilted>0</tilted></_>
    <_>
      <rects>
        <_>
          5 0 8 20 -1.</_>
        <_>
          5 10 8 10 2.</_></rects>
      <tilted>0</tilted></_>
    <_>
      <rects>
        <_>
          5 3 9 11 -1.</_>
        <_>
          8 3 3 11 3.</_></rects>
      <tilted>0</tilted></_>
    <_>
      <rects>
        <_>
          5 4 9 6 -1.</_>
        <_>
          8 4 3 6 3.</_></rects>
      <tilted>0</tilted></_>
    <_>
      <rects>
        <_>
          5 4 9 8 -1.</_>
        <_>
          8 4 3 8 3.</_></rects>
      <tilted>0</tilted></_>
    <_>
      <rects>
        <_>
          5 4 9 9 -1.</_>
        <_>
          8 4 3 9 3.</_></rects>
      <tilted>0</tilted></_>
    <_>
      <rects>
        <_>
          5 4 9 10 -1.</_>
        <_>
          8 4 3 10 3.</_></rects>
      <tilted>0</tilted></_>
    <_>
      <rects>
        <_>
          5 4 8 6 -1.</_>
        <_>
          5 6 8 2 3.</_></rects>
      <tilted>0</tilted></_>
    <_>
      <rects>
        <_>
          5 5 15 13 -1.</_>
        <_>
          10 5 5 13 3.</_></rects>
      <tilted>0</tilted></_>
    <_>
      <rects>
        <_>
          5 7 13 8 -1.</_>
        <_>
          5 11 13 4 2.</_></rects>
      <tilted>0</tilted></_>
    <_>
      <rects>
        <_>
          5 8 2 6 -1.</_>
        <_>
          5 10 2 2 3.</_></rects>
      <tilted>0</tilted></_>
    <_>
      <rects>
        <_>
          5 8 3 4 -1.</_>
        <_>
          5 10 3 2 2.</_></rects>
      <tilted>0</tilted></_>
    <_>
      <rects>
        <_>
          5 9 3 4 -1.</_>
        <_>
          6 9 1 4 3.</_></rects>
      <tilted>0</tilted></_>
    <_>
      <rects>
        <_>
          5 11 9 2 -1.</_>
        <_>
          8 11 3 2 3.</_></rects>
      <tilted>0</tilted></_>
    <_>
      <rects>
        <_>
          5 11 4 3 -1.</_>
        <_>
          5 12 4 1 3.</_></rects>
      <tilted>0</tilted></_>
    <_>
      <rects>
        <_>
          5 11 15 3 -1.</_>
        <_>
          5 12 15 1 3.</_></rects>
      <tilted>0</tilted></_>
    <_>
      <rects>
        <_>
          5 12 15 7 -1.</_>
        <_>
          10 12 5 7 3.</_></rects>
      <tilted>0</tilted></_>
    <_>
      <rects>
        <_>
          5 12 6 3 -1.</_>
        <_>
          5 13 6 1 3.</_></rects>
      <tilted>0</tilted></_>
    <_>
      <rects>
        <_>
          5 16 8 4 -1.</_>
        <_>
          9 16 4 4 2.</_></rects>
      <tilted>0</tilted></_>
    <_>
      <rects>
        <_>
          5 17 12 3 -1.</_>
        <_>
          11 17 6 3 2.</_></rects>
      <tilted>0</tilted></_>
    <_>
      <rects>
        <_>
          5 19 3 1 -1.</_>
        <_>
          6 19 1 1 3.</_></rects>
      <tilted>0</tilted></_>
    <_>
      <rects>
        <_>
          5 19 9 1 -1.</_>
        <_>
          8 19 3 1 3.</_></rects>
      <tilted>0</tilted></_>
    <_>
      <rects>
        <_>
          6 0 6 4 -1.</_>
        <_>
          8 0 2 4 3.</_></rects>
      <tilted>0</tilted></_>
    <_>
      <rects>
        <_>
          6 0 6 1 -1.</_>
        <_>
          9 0 3 1 2.</_></rects>
      <tilted>0</tilted></_>
    <_>
      <rects>
        <_>
          6 0 12 7 -1.</_>
        <_>
          10 0 4 7 3.</_></rects>
      <tilted>0</tilted></_>
    <_>
      <rects>
        <_>
          6 0 5 6 -1.</_>
        <_>
          6 2 5 2 3.</_></rects>
      <tilted>0</tilted></_>
    <_>
      <rects>
        <_>
          6 0 5 20 -1.</_>
        <_>
          6 10 5 10 2.</_></rects>
      <tilted>0</tilted></_>
    <_>
      <rects>
        <_>
          6 2 6 2 -1.</_>
        <_>
          6 2 3 1 2.</_>
        <_>
          9 3 3 1 2.</_></rects>
      <tilted>0</tilted></_>
    <_>
      <rects>
        <_>
          6 3 12 6 -1.</_>
        <_>
          6 6 12 3 2.</_></rects>
      <tilted>0</tilted></_>
    <_>
      <rects>
        <_>
          6 6 1 4 -1.</_>
        <_>
          6 8 1 2 2.</_></rects>
      <tilted>0</tilted></_>
    <_>
      <rects>
        <_>
          6 6 9 9 -1.</_>
        <_>
          9 6 3 9 3.</_></rects>
      <tilted>0</tilted></_>
    <_>
      <rects>
        <_>
          6 7 2 2 -1.</_>
        <_>
          6 8 2 1 2.</_></rects>
      <tilted>0</tilted></_>
    <_>
      <rects>
        <_>
          6 7 9 5 -1.</_>
        <_>
          9 7 3 5 3.</_></rects>
      <tilted>0</tilted></_>
    <_>
      <rects>
        <_>
          6 8 2 1 -1.</_>
        <_>
          7 8 1 1 2.</_></rects>
      <tilted>0</tilted></_>
    <_>
      <rects>
        <_>
          6 9 2 5 -1.</_>
        <_>
          7 9 1 5 2.</_></rects>
      <tilted>0</tilted></_>
    <_>
      <rects>
        <_>
          6 9 4 6 -1.</_>
        <_>
          6 9 2 3 2.</_>
        <_>
          8 12 2 3 2.</_></rects>
      <tilted>0</tilted></_>
    <_>
      <rects>
        <_>
          6 12 4 7 -1.</_>
        <_>
          8 12 2 7 2.</_></rects>
      <tilted>0</tilted></_>
    <_>
      <rects>
        <_>
          6 12 9 3 -1.</_>
        <_>
          6 13 9 1 3.</_></rects>
      <tilted>0</tilted></_>
    <_>
      <rects>
        <_>
          6 18 2 1 -1.</_>
        <_>
          7 18 1 1 2.</_></rects>
      <tilted>0</tilted></_>
    <_>
      <rects>
        <_>
          6 19 3 1 -1.</_>
        <_>
          7 19 1 1 3.</_></rects>
      <tilted>0</tilted></_>
    <_>
      <rects>
        <_>
          7 0 12 3 -1.</_>
        <_>
          11 0 4 3 3.</_></rects>
      <tilted>0</tilted></_>
    <_>
      <rects>
        <_>
          7 0 8 20 -1.</_>
        <_>
          7 0 4 10 2.</_>
        <_>
          11 10 4 10 2.</_></rects>
      <tilted>0</tilted></_>
    <_>
      <rects>
        <_>
          7 0 5 6 -1.</_>
        <_>
          7 3 5 3 2.</_></rects>
      <tilted>0</tilted></_>
    <_>
      <rects>
        <_>
          7 0 8 20 -1.</_>
        <_>
          7 10 8 10 2.</_></rects>
      <tilted>0</tilted></_>
    <_>
      <rects>
        <_>
          7 0 13 14 -1.</_>
        <_>
          7 7 13 7 2.</_></rects>
      <tilted>0</tilted></_>
    <_>
      <rects>
        <_>
          7 2 6 2 -1.</_>
        <_>
          7 2 3 1 2.</_>
        <_>
          10 3 3 1 2.</_></rects>
      <tilted>0</tilted></_>
    <_>
      <rects>
        <_>
          7 3 9 10 -1.</_>
        <_>
          7 8 9 5 2.</_></rects>
      <tilted>0</tilted></_>
    <_>
      <rects>
        <_>
          7 3 13 8 -1.</_>
        <_>
          7 7 13 4 2.</_></rects>
      <tilted>0</tilted></_>
    <_>
      <rects>
        <_>
          7 9 6 6 -1.</_>
        <_>
          7 9 3 3 2.</_>
        <_>
          10 12 3 3 2.</_></rects>
      <tilted>0</tilted></_>
    <_>
      <rects>
        <_>
          7 10 9 3 -1.</_>
        <_>
          7 11 9 1 3.</_></rects>
      <tilted>0</tilted></_>
    <_>
      <rects>
        <_>
          7 16 12 2 -1.</_>
        <_>
          11 16 4 2 3.</_></rects>
      <tilted>0</tilted></_>
    <_>
      <rects>
        <_>
          7 19 6 1 -1.</_>
        <_>
          9 19 2 1 3.</_></rects>
      <tilted>0</tilted></_>
    <_>
      <rects>
        <_>
          8 0 4 1 -1.</_>
        <_>
          10 0 2 1 2.</_></rects>
      <tilted>0</tilted></_>
    <_>
      <rects>
        <_>
          8 0 4 6 -1.</_>
        <_>
          8 2 4 2 3.</_></rects>
      <tilted>0</tilted></_>
    <_>
      <rects>
        <_>
          8 0 6 4 -1.</_>
        <_>
          8 2 6 2 2.</_></rects>
      <tilted>0</tilted></_>
    <_>
      <rects>
        <_>
          8 0 7 20 -1.</_>
        <_>
          8 10 7 10 2.</_></rects>
      <tilted>0</tilted></_>
    <_>
      <rects>
        <_>
          8 1 4 18 -1.</_>
        <_>
          8 10 4 9 2.</_></rects>
      <tilted>0</tilted></_>
    <_>
      <rects>
        <_>
          8 1 12 19 -1.</_>
        <_>
          12 1 4 19 3.</_></rects>
      <tilted>0</tilted></_>
    <_>
      <rects>
        <_>
          8 2 8 2 -1.</_>
        <_>
          8 3 8 1 2.</_></rects>
      <tilted>0</tilted></_>
    <_>
      <rects>
        <_>
          8 3 7 3 -1.</_>
        <_>
          8 4 7 1 3.</_></rects>
      <tilted>0</tilted></_>
    <_>
      <rects>
        <_>
          8 3 12 10 -1.</_>
        <_>
          8 8 12 5 2.</_></rects>
      <tilted>0</tilted></_>
    <_>
      <rects>
        <_>
          8 4 9 12 -1.</_>
        <_>
          11 4 3 12 3.</_></rects>
      <tilted>0</tilted></_>
    <_>
      <rects>
        <_>
          8 5 1 9 -1.</_>
        <_>
          8 8 1 3 3.</_></rects>
      <tilted>0</tilted></_>
    <_>
      <rects>
        <_>
          8 6 12 4 -1.</_>
        <_>
          8 6 6 2 2.</_>
        <_>
          14 8 6 2 2.</_></rects>
      <tilted>0</tilted></_>
    <_>
      <rects>
        <_>
          8 6 12 6 -1.</_>
        <_>
          8 9 12 3 2.</_></rects>
      <tilted>0</tilted></_>
    <_>
      <rects>
        <_>
          8 7 2 2 -1.</_>
        <_>
          9 7 1 2 2.</_></rects>
      <tilted>0</tilted></_>
    <_>
      <rects>
        <_>
          8 11 4 4 -1.</_>
        <_>
          8 11 2 2 2.</_>
        <_>
          10 13 2 2 2.</_></rects>
      <tilted>0</tilted></_>
    <_>
      <rects>
        <_>
          9 0 3 1 -1.</_>
        <_>
          10 0 1 1 3.</_></rects>
      <tilted>0</tilted></_>
    <_>
      <rects>
        <_>
          9 0 3 6 -1.</_>
        <_>
          9 3 3 3 2.</_></rects>
      <tilted>0</tilted></_>
    <_>
      <rects>
        <_>
          9 0 5 18 -1.</_>
        <_>
          9 9 5 9 2.</_></rects>
      <tilted>0</tilted></_>
    <_>
      <rects>
        <_>
          9 1 4 1 -1.</_>
        <_>
          11 1 2 1 2.</_></rects>
      <tilted>0</tilted></_>
    <_>
      <rects>
        <_>
          9 1 4 3 -1.</_>
        <_>
          9 2 4 1 3.</_></rects>
      <tilted>0</tilted></_>
    <_>
      <rects>
        <_>
          9 2 3 2 -1.</_>
        <_>
          9 3 3 1 2.</_></rects>
      <tilted>0</tilted></_>
    <_>
      <rects>
        <_>
          9 3 2 2 -1.</_>
        <_>
          9 3 1 1 2.</_>
        <_>
          10 4 1 1 2.</_></rects>
      <tilted>0</tilted></_>
    <_>
      <rects>
        <_>
          9 5 11 3 -1.</_>
        <_>
          9 6 11 1 3.</_></rects>
      <tilted>0</tilted></_>
    <_>
      <rects>
        <_>
          9 6 6 1 -1.</_>
        <_>
          11 6 2 1 3.</_></rects>
      <tilted>0</tilted></_>
    <_>
      <rects>
        <_>
          9 7 2 2 -1.</_>
        <_>
          9 8 2 1 2.</_></rects>
      <tilted>0</tilted></_>
    <_>
      <rects>
        <_>
          9 7 10 6 -1.</_>
        <_>
          9 10 10 3 2.</_></rects>
      <tilted>0</tilted></_>
    <_>
      <rects>
        <_>
          9 11 8 6 -1.</_>
        <_>
          9 11 4 3 2.</_>
        <_>
          13 14 4 3 2.</_></rects>
      <tilted>0</tilted></_>
    <_>
      <rects>
        <_>
          9 16 6 4 -1.</_>
        <_>
          9 18 6 2 2.</_></rects>
      <tilted>0</tilted></_>
    <_>
      <rects>
        <_>
          9 18 6 1 -1.</_>
        <_>
          11 18 2 1 3.</_></rects>
      <tilted>0</tilted></_>
    <_>
      <rects>
        <_>
          9 18 9 2 -1.</_>
        <_>
          12 18 3 2 3.</_></rects>
      <tilted>0</tilted></_>
    <_>
      <rects>
        <_>
          10 0 3 3 -1.</_>
        <_>
          11 0 1 3 3.</_></rects>
      <tilted>0</tilted></_>
    <_>
      <rects>
        <_>
          10 0 4 2 -1.</_>
        <_>
          12 0 2 2 2.</_></rects>
      <tilted>0</tilted></_>
    <_>
      <rects>
        <_>
          10 0 2 6 -1.</_>
        <_>
          10 2 2 2 3.</_></rects>
      <tilted>0</tilted></_>
    <_>
      <rects>
        <_>
          10 0 9 1 -1.</_>
        <_>
          13 0 3 1 3.</_></rects>
      <tilted>0</tilted></_>
    <_>
      <rects>
        <_>
          10 1 4 6 -1.</_>
        <_>
          10 3 4 2 3.</_></rects>
      <tilted>0</tilted></_>
    <_>
      <rects>
        <_>
          10 2 10 9 -1.</_>
        <_>
          10 5 10 3 3.</_></rects>
      <tilted>0</tilted></_>
    <_>
      <rects>
        <_>
          10 3 9 5 -1.</_>
        <_>
          13 3 3 5 3.</_></rects>
      <tilted>0</tilted></_>
    <_>
      <rects>
        <_>
          10 3 6 17 -1.</_>
        <_>
          13 3 3 17 2.</_></rects>
      <tilted>0</tilted></_>
    <_>
      <rects>
        <_>
          10 5 9 8 -1.</_>
        <_>
          13 5 3 8 3.</_></rects>
      <tilted>0</tilted></_>
    <_>
      <rects>
        <_>
          10 6 10 4 -1.</_>
        <_>
          10 8 10 2 2.</_></rects>
      <tilted>0</tilted></_>
    <_>
      <rects>
        <_>
          10 17 6 2 -1.</_>
        <_>
