<?xml version="1.0"?>
<opencv_storage>
<cascade>
  <stageType>BOOST</stageType>
  <featureType>HAAR</featureType>
  <height>20</height>
  <width>50</width>
  <stageParams>
    <boostType>GAB</boostType>
    <minHitRate>9.9900001287460327e-01</minHitRate>
    <maxFalseAlarm>5.0000000000000000e-01</maxFalseAlarm>
    <weightTrimRate>9.4999999999999996e-01</weightTrimRate>
    <maxDepth>1</maxDepth>
    <maxWeakCount>100</maxWeakCount></stageParams>
  <featureParams>
    <maxCatCount>0</maxCatCount>
    <featSize>1</featSize>
    <mode>BASIC</mode></featureParams>
  <stageNum>18</stageNum>
  <stages>
    <!-- stage 0 -->
    <_>
      <maxWeakCount>3</maxWeakCount>
      <stageThreshold>-1.2127040624618530e+00</stageThreshold>
      <weakClassifiers>
        <_>
          <internalNodes>
            0 -1 11 2.3177957534790039e-01</internalNodes>
          <leafValues>
            -9.8359620571136475e-01 9.4482755661010742e-01</leafValues></_>
        <_>
          <internalNodes>
            0 -1 71 5.9912141412496567e-02</internalNodes>
          <leafValues>
            -9.3824970722198486e-01 8.6069244146347046e-01</leafValues></_>
        <_>
          <internalNodes>
            0 -1 6 3.4178307652473450e-01</internalNodes>
          <leafValues>
            -9.8263734579086304e-01 7.0914179086685181e-01</leafValues></_></weakClassifiers></_>
    <!-- stage 1 -->
    <_>
      <maxWeakCount>6</maxWeakCount>
      <stageThreshold>-1.8479856252670288e+00</stageThreshold>
      <weakClassifiers>
        <_>
          <internalNodes>
            0 -1 35 8.1079870462417603e-02</internalNodes>
          <leafValues>
            -8.5454547405242920e-01 8.5263156890869141e-01</leafValues></_>
        <_>
          <internalNodes>
            0 -1 55 1.0391809046268463e-01</internalNodes>
          <leafValues>
            -8.2817989587783813e-01 6.7218720912933350e-01</leafValues></_>
        <_>
          <internalNodes>
            0 -1 73 -1.6345962882041931e-01</internalNodes>
          <leafValues>
            5.8373546600341797e-01 -7.6487636566162109e-01</leafValues></_>
        <_>
          <internalNodes>
            0 -1 17 3.3499515848234296e-04</internalNodes>
          <leafValues>
            6.0858857631683350e-01 -7.1519505977630615e-01</leafValues></_>
        <_>
          <internalNodes>
            0 -1 23 -2.9911190271377563e-02</internalNodes>
          <leafValues>
            7.1730780601501465e-01 -5.5672109127044678e-01</leafValues></_>
        <_>
          <internalNodes>
            0 -1 95 -1.2134119868278503e-02</internalNodes>
          <leafValues>
            5.4774862527847290e-01 -7.7818393707275391e-01</leafValues></_></weakClassifiers></_>
    <!-- stage 2 -->
    <_>
      <maxWeakCount>3</maxWeakCount>
      <stageThreshold>-1.1536592245101929e+00</stageThreshold>
      <weakClassifiers>
        <_>
          <internalNodes>
            0 -1 0 7.1092516183853149e-02</internalNodes>
          <leafValues>
            -9.7088605165481567e-01 9.1568624973297119e-01</leafValues></_>
        <_>
          <internalNodes>
            0 -1 65 -2.1814879029989243e-02</internalNodes>
          <leafValues>
            9.7500693798065186e-01 -8.7833988666534424e-01</leafValues></_>
        <_>
          <internalNodes>
            0 -1 15 -1.4081792905926704e-03</internalNodes>
          <leafValues>
            -9.2859315872192383e-01 6.9556677341461182e-01</leafValues></_></weakClassifiers></_>
    <!-- stage 3 -->
    <_>
      <maxWeakCount>6</maxWeakCount>
      <stageThreshold>-2.3266355991363525e+00</stageThreshold>
      <weakClassifiers>
        <_>
          <internalNodes>
            0 -1 7 8.1637091934680939e-02</internalNodes>
          <leafValues>
            -9.5981246232986450e-01 7.5248420238494873e-01</leafValues></_>
        <_>
          <internalNodes>
            0 -1 85 2.9238607734441757e-02</internalNodes>
          <leafValues>
            -7.4405354261398315e-01 8.9048933982849121e-01</leafValues></_>
        <_>
          <internalNodes>
            0 -1 92 -1.6356389969587326e-02</internalNodes>
          <leafValues>
            5.9650915861129761e-01 -8.0964404344558716e-01</leafValues></_>
        <_>
          <internalNodes>
            0 -1 12 2.7568737044930458e-02</internalNodes>
          <leafValues>
            -9.4309687614440918e-01 4.8209372162818909e-01</leafValues></_>
        <_>
          <internalNodes>
            0 -1 9 4.4852685183286667e-02</internalNodes>
          <leafValues>
            -7.8500306606292725e-01 7.3190581798553467e-01</leafValues></_>
        <_>
          <internalNodes>
            0 -1 48 1.7881510779261589e-02</internalNodes>
          <leafValues>
            -9.3697851896286011e-01 4.8978370428085327e-01</leafValues></_></weakClassifiers></_>
    <!-- stage 4 -->
    <_>
      <maxWeakCount>5</maxWeakCount>
      <stageThreshold>-1.6676560640335083e+00</stageThreshold>
      <weakClassifiers>
        <_>
          <internalNodes>
            0 -1 84 -3.6158144474029541e-02</internalNodes>
          <leafValues>
            8.0886697769165039e-01 -8.9652997255325317e-01</leafValues></_>
        <_>
          <internalNodes>
            0 -1 29 -3.9588984102010727e-02</internalNodes>
          <leafValues>
            8.8075107336044312e-01 -7.4989861249923706e-01</leafValues></_>
        <_>
          <internalNodes>
            0 -1 21 9.4001218676567078e-03</internalNodes>
          <leafValues>
            5.0679057836532593e-01 -9.1084706783294678e-01</leafValues></_>
        <_>
          <internalNodes>
            0 -1 46 3.4906856715679169e-02</internalNodes>
          <leafValues>
            -7.9869157075881958e-01 5.1721805334091187e-01</leafValues></_>
        <_>
          <internalNodes>
            0 -1 32 -6.3323248177766800e-03</internalNodes>
          <leafValues>
            3.7240147590637207e-01 -9.0470081567764282e-01</leafValues></_></weakClassifiers></_>
    <!-- stage 5 -->
    <_>
      <maxWeakCount>4</maxWeakCount>
      <stageThreshold>-1.7837054729461670e+00</stageThreshold>
      <weakClassifiers>
        <_>
          <internalNodes>
            0 -1 45 4.9005892127752304e-02</internalNodes>
          <leafValues>
            -8.0618798732757568e-01 8.8049602508544922e-01</leafValues></_>
        <_>
          <internalNodes>
            0 -1 8 2.3174671456217766e-02</internalNodes>
          <leafValues>
            -8.7851268053054810e-01 6.5774297714233398e-01</leafValues></_>
        <_>
          <internalNodes>
            0 -1 87 -2.8099436312913895e-02</internalNodes>
          <leafValues>
            8.5682284832000732e-01 -6.4619821310043335e-01</leafValues></_>
        <_>
          <internalNodes>
            0 -1 80 -4.5611675828695297e-02</internalNodes>
          <leafValues>
            5.4719334840774536e-01 -8.8752484321594238e-01</leafValues></_></weakClassifiers></_>
    <!-- stage 6 -->
    <_>
      <maxWeakCount>5</maxWeakCount>
      <stageThreshold>-2.4839708805084229e+00</stageThreshold>
      <weakClassifiers>
        <_>
          <internalNodes>
            0 -1 36 2.2351955994963646e-03</internalNodes>
          <leafValues>
            -8.8888889551162720e-01 7.3764258623123169e-01</leafValues></_>
        <_>
          <internalNodes>
            0 -1 52 4.8835662892088294e-04</internalNodes>
          <leafValues>
            -8.1904584169387817e-01 7.7462679147720337e-01</leafValues></_>
        <_>
          <internalNodes>
            0 -1 69 -2.2717349231243134e-02</internalNodes>
          <leafValues>
            6.1433112621307373e-01 -9.4006544351577759e-01</leafValues></_>
        <_>
          <internalNodes>
            0 -1 13 -7.9412870109081268e-03</internalNodes>
          <leafValues>
            -8.5785382986068726e-01 4.9537119269371033e-01</leafValues></_>
        <_>
          <internalNodes>
            0 -1 56 4.0269824676215649e-03</internalNodes>
          <leafValues>
            -5.3251338005065918e-01 9.4039738178253174e-01</leafValues></_></weakClassifiers></_>
    <!-- stage 7 -->
    <_>
      <maxWeakCount>4</maxWeakCount>
      <stageThreshold>-1.7767462730407715e+00</stageThreshold>
      <weakClassifiers>
        <_>
          <internalNodes>
            0 -1 14 1.0080360807478428e-03</internalNodes>
          <leafValues>
            -9.6795338392257690e-01 5.9413200616836548e-01</leafValues></_>
        <_>
          <internalNodes>
            0 -1 75 4.8190884292125702e-02</internalNodes>
          <leafValues>
            -8.5543489456176758e-01 7.2286880016326904e-01</leafValues></_>
        <_>
          <internalNodes>
            0 -1 39 5.2158236503601074e-02</internalNodes>
          <leafValues>
            -5.8164864778518677e-01 9.4837737083435059e-01</leafValues></_>
        <_>
          <internalNodes>
            0 -1 18 1.7974704504013062e-02</internalNodes>
          <leafValues>
            -8.5409271717071533e-01 6.2829071283340454e-01</leafValues></_></weakClassifiers></_>
    <!-- stage 8 -->
    <_>
      <maxWeakCount>6</maxWeakCount>
      <stageThreshold>-1.7823010683059692e+00</stageThreshold>
      <weakClassifiers>
        <_>
          <internalNodes>
            0 -1 68 8.0512464046478271e-02</internalNodes>
          <leafValues>
            -7.7790766954421997e-01 8.2227224111557007e-01</leafValues></_>
        <_>
          <internalNodes>
            0 -1 60 9.6483752131462097e-02</internalNodes>
          <leafValues>
            -8.7427192926406860e-01 5.6526058912277222e-01</leafValues></_>
        <_>
          <internalNodes>
            0 -1 10 1.0684119537472725e-02</internalNodes>
          <leafValues>
            -7.4772572517395020e-01 5.7433223724365234e-01</leafValues></_>
        <_>
          <internalNodes>
            0 -1 3 1.9435808062553406e-02</internalNodes>
          <leafValues>
            -7.0082366466522217e-01 5.9379154443740845e-01</leafValues></_>
        <_>
          <internalNodes>
            0 -1 58 -2.6947832666337490e-03</internalNodes>
          <leafValues>
            -9.4478636980056763e-01 4.2997935414314270e-01</leafValues></_>
        <_>
          <internalNodes>
            0 -1 20 -6.8905949592590332e-03</internalNodes>
          <leafValues>
            8.8844847679138184e-01 -5.0810593366622925e-01</leafValues></_></weakClassifiers></_>
    <!-- stage 9 -->
    <_>
      <maxWeakCount>4</maxWeakCount>
      <stageThreshold>-1.2828984260559082e+00</stageThreshold>
      <weakClassifiers>
        <_>
          <internalNodes>
            0 -1 33 3.5346172749996185e-02</internalNodes>
          <leafValues>
            -7.3244148492813110e-01 8.8585609197616577e-01</leafValues></_>
        <_>
          <internalNodes>
            0 -1 74 -7.5903885066509247e-02</internalNodes>
          <leafValues>
            6.5934658050537109e-01 -8.3568364381790161e-01</leafValues></_>
        <_>
          <internalNodes>
            0 -1 44 7.0029161870479584e-03</internalNodes>
          <leafValues>
            -4.8262730240821838e-01 9.1399586200714111e-01</leafValues></_>
        <_>
          <internalNodes>
            0 -1 40 3.5723624023376033e-05</internalNodes>
          <leafValues>
            -5.7451474666595459e-01 7.6785397529602051e-01</leafValues></_></weakClassifiers></_>
    <!-- stage 10 -->
    <_>
      <maxWeakCount>5</maxWeakCount>
      <stageThreshold>-1.3935968875885010e+00</stageThreshold>
      <weakClassifiers>
        <_>
          <internalNodes>
            0 -1 97 3.3945130417123437e-04</internalNodes>
          <leafValues>
            -8.4666669368743896e-01 6.0909092426300049e-01</leafValues></_>
        <_>
          <internalNodes>
            0 -1 54 -4.1403598152101040e-03</internalNodes>
          <leafValues>
            7.2135668992996216e-01 -6.4936739206314087e-01</leafValues></_>
        <_>
          <internalNodes>
            0 -1 30 2.3951590061187744e-02</internalNodes>
          <leafValues>
            -6.9292271137237549e-01 6.5334630012512207e-01</leafValues></_>
        <_>
          <internalNodes>
            0 -1 2 -2.8291963040828705e-02</internalNodes>
          <leafValues>
            -8.6686313152313232e-01 4.3038937449455261e-01</leafValues></_>
        <_>
          <internalNodes>
            0 -1 67 1.0540643706917763e-02</internalNodes>
          <leafValues>
            3.6497056484222412e-01 -9.1321003437042236e-01</leafValues></_></weakClassifiers></_>
    <!-- stage 11 -->
    <_>
      <maxWeakCount>7</maxWeakCount>
      <stageThreshold>-1.5361096858978271e+00</stageThreshold>
      <weakClassifiers>
        <_>
          <internalNodes>
            0 -1 72 2.4285662919282913e-02</internalNodes>
          <leafValues>
            -6.5699207782745361e-01 9.1489362716674805e-01</leafValues></_>
        <_>
          <internalNodes>
            0 -1 57 1.8568288534879684e-02</internalNodes>
          <leafValues>
            -8.5052108764648438e-01 5.4399496316909790e-01</leafValues></_>
        <_>
          <internalNodes>
            0 -1 25 1.5113350003957748e-02</internalNodes>
          <leafValues>
            -5.6421470642089844e-01 7.3178988695144653e-01</leafValues></_>
        <_>
          <internalNodes>
            0 -1 90 -2.7748230844736099e-02</internalNodes>
          <leafValues>
            4.9246233701705933e-01 -7.4237388372421265e-01</leafValues></_>
        <_>
          <internalNodes>
            0 -1 27 3.4447453916072845e-02</internalNodes>
          <leafValues>
            -4.2473313212394714e-01 8.5553699731826782e-01</leafValues></_>
        <_>
          <internalNodes>
            0 -1 37 7.4581089429557323e-03</internalNodes>
          <leafValues>
            -3.9726272225379944e-01 8.6874115467071533e-01</leafValues></_>
        <_>
          <internalNodes>
            0 -1 43 5.7433247566223145e-03</internalNodes>
          <leafValues>
            -3.7086048722267151e-01 8.6515164375305176e-01</leafValues></_></weakClassifiers></_>
    <!-- stage 12 -->
    <_>
      <maxWeakCount>6</maxWeakCount>
      <stageThreshold>-1.8360394239425659e+00</stageThreshold>
      <weakClassifiers>
        <_>
          <internalNodes>
            0 -1 89 -8.2229897379875183e-03</internalNodes>
          <leafValues>
            7.5684559345245361e-01 -7.6526379585266113e-01</leafValues></_>
        <_>
          <internalNodes>
            0 -1 78 -9.7798891365528107e-03</internalNodes>
          <leafValues>
            5.0074034929275513e-01 -8.7239891290664673e-01</leafValues></_>
        <_>
          <internalNodes>
            0 -1 76 5.3995110094547272e-02</internalNodes>
          <leafValues>
            -4.9830991029739380e-01 7.8469765186309814e-01</leafValues></_>
        <_>
          <internalNodes>
            0 -1 94 1.7485215794295073e-03</internalNodes>
          <leafValues>
            -7.6814502477645874e-01 4.6643725037574768e-01</leafValues></_>
        <_>
          <internalNodes>
            0 -1 62 6.7342460155487061e-02</internalNodes>
          <leafValues>
            -8.6393773555755615e-01 5.7766938209533691e-01</leafValues></_>
        <_>
          <internalNodes>
            0 -1 47 4.8221005126833916e-03</internalNodes>
          <leafValues>
            -5.8557391166687012e-01 7.1095162630081177e-01</leafValues></_></weakClassifiers></_>
    <!-- stage 13 -->
    <_>
      <maxWeakCount>5</maxWeakCount>
      <stageThreshold>-1.4723635911941528e+00</stageThreshold>
      <weakClassifiers>
        <_>
          <internalNodes>
            0 -1 19 1.0123387724161148e-01</internalNodes>
          <leafValues>
            -7.6023393869400024e-01 7.8651684522628784e-01</leafValues></_>
        <_>
          <internalNodes>
            0 -1 26 1.1412637308239937e-02</internalNodes>
          <leafValues>
            -8.4312319755554199e-01 5.3464990854263306e-01</leafValues></_>
        <_>
          <internalNodes>
            0 -1 91 1.8660135101526976e-03</internalNodes>
          <leafValues>
            -6.0717600584030151e-01 7.3900300264358521e-01</leafValues></_>
        <_>
          <internalNodes>
            0 -1 98 -2.4558795848861337e-04</internalNodes>
          <leafValues>
            -8.7339395284652710e-01 4.3330028653144836e-01</leafValues></_>
        <_>
          <internalNodes>
            0 -1 59 1.0290712118148804e-02</internalNodes>
          <leafValues>
            3.0486929416656494e-01 -9.9657779932022095e-01</leafValues></_></weakClassifiers></_>
    <!-- stage 14 -->
    <_>
      <maxWeakCount>7</maxWeakCount>
      <stageThreshold>-1.5001604557037354e+00</stageThreshold>
      <weakClassifiers>
        <_>
          <internalNodes>
            0 -1 53 -5.7309225201606750e-02</internalNodes>
          <leafValues>
            7.0537632703781128e-01 -7.5209581851959229e-01</leafValues></_>
        <_>
          <internalNodes>
            0 -1 83 -8.7278904393315315e-03</internalNodes>
          <leafValues>
            5.7069557905197144e-01 -7.1377265453338623e-01</leafValues></_>
        <_>
          <internalNodes>
            0 -1 22 2.2696096450090408e-02</internalNodes>
          <leafValues>
            -6.0985511541366577e-01 5.5880284309387207e-01</leafValues></_>
        <_>
          <internalNodes>
            0 -1 82 7.5081898830831051e-04</internalNodes>
          <leafValues>
            3.6510044336318970e-01 -9.1590529680252075e-01</leafValues></_>
        <_>
          <internalNodes>
            0 -1 51 7.2426768019795418e-03</internalNodes>
          <leafValues>
            -4.1213694214820862e-01 8.2764548063278198e-01</leafValues></_>
        <_>
          <internalNodes>
            0 -1 38 1.7941514030098915e-02</internalNodes>
          <leafValues>
            3.9485618472099304e-01 -9.7344434261322021e-01</leafValues></_>
        <_>
          <internalNodes>
            0 -1 1 -1.1931611225008965e-02</internalNodes>
          <leafValues>
            -7.7979362010955811e-01 3.4009116888046265e-01</leafValues></_></weakClassifiers></_>
    <!-- stage 15 -->
    <_>
      <maxWeakCount>8</maxWeakCount>
      <stageThreshold>-2.0650298595428467e+00</stageThreshold>
      <weakClassifiers>
        <_>
          <internalNodes>
            0 -1 42 -2.5089883711189032e-03</internalNodes>
          <leafValues>
            7.7291381359100342e-01 -6.2332797050476074e-01</leafValues></_>
        <_>
          <internalNodes>
            0 -1 34 2.7004829607903957e-03</internalNodes>
          <leafValues>
            -5.9671908617019653e-01 6.8678754568099976e-01</leafValues></_>
        <_>
          <internalNodes>
            0 -1 81 -6.6026732325553894e-02</internalNodes>
          <leafValues>
            6.2724947929382324e-01 -6.3629680871963501e-01</leafValues></_>
        <_>
          <internalNodes>
            0 -1 64 -1.5927004814147949e-01</internalNodes>
          <leafValues>
            3.5219836235046387e-01 -8.5298490524291992e-01</leafValues></_>
        <_>
          <internalNodes>
            0 -1 31 -4.1119297966361046e-03</internalNodes>
          <leafValues>
            -8.2432043552398682e-01 4.0752992033958435e-01</leafValues></_>
        <_>
          <internalNodes>
            0 -1 61 8.7786257266998291e-02</internalNodes>
          <leafValues>
            -7.8278851509094238e-01 3.6339315772056580e-01</leafValues></_>
        <_>
          <internalNodes>
            0 -1 5 -3.9072491228580475e-02</internalNodes>
          <leafValues>
            -9.1326820850372314e-01 3.1606906652450562e-01</leafValues></_>
        <_>
          <internalNodes>
            0 -1 63 4.4731134548783302e-03</internalNodes>
          <leafValues>
            -4.1853925585746765e-01 7.3461228609085083e-01</leafValues></_></weakClassifiers></_>
    <!-- stage 16 -->
    <_>
      <maxWeakCount>8</maxWeakCount>
      <stageThreshold>-1.5925351381301880e+00</stageThreshold>
      <weakClassifiers>
        <_>
          <internalNodes>
            0 -1 88 6.3469456508755684e-03</internalNodes>
          <leafValues>
            -7.1096926927566528e-01 7.1265679597854614e-01</leafValues></_>
        <_>
          <internalNodes>
            0 -1 4 -2.5228928774595261e-02</internalNodes>
          <leafValues>
            6.5190869569778442e-01 -6.5479248762130737e-01</leafValues></_>
        <_>
          <internalNodes>
            0 -1 49 2.4703815579414368e-03</internalNodes>
          <leafValues>
            -5.6559997797012329e-01 6.6214728355407715e-01</leafValues></_>
        <_>
          <internalNodes>
            0 -1 77 -4.0961612015962601e-02</internalNodes>
          <leafValues>
            4.0066552162170410e-01 -8.0629616975784302e-01</leafValues></_>
        <_>
          <internalNodes>
            0 -1 79 8.7127555161714554e-04</internalNodes>
          <leafValues>
            3.3202517032623291e-01 -9.0674591064453125e-01</leafValues></_>
        <_>
          <internalNodes>
            0 -1 41 9.6797589212656021e-03</internalNodes>
          <leafValues>
            -4.8423013091087341e-01 7.5721538066864014e-01</leafValues></_>
        <_>
          <internalNodes>
            0 -1 70 1.6746646724641323e-03</internalNodes>
          <leafValues>
            -3.6575862765312195e-01 8.6034339666366577e-01</leafValues></_>
        <_>
          <internalNodes>
            0 -1 96 -4.7820885665714741e-03</internalNodes>
          <leafValues>
            -8.9999890327453613e-01 4.5612466335296631e-01</leafValues></_></weakClassifiers></_>
    <!-- stage 17 -->
    <_>
      <maxWeakCount>7</maxWeakCount>
      <stageThreshold>-1.6962379217147827e+00</stageThreshold>
      <weakClassifiers>
        <_>
          <internalNodes>
            0 -1 16 5.8218268677592278e-03</internalNodes>
          <leafValues>
            -7.3654067516326904e-01 8.0327868461608887e-01</leafValues></_>
        <_>
          <internalNodes>
            0 -1 86 3.2438402995467186e-03</internalNodes>
          <leafValues>
            -5.6745046377182007e-01 7.5480139255523682e-01</leafValues></_>
        <_>
          <internalNodes>
            0 -1 28 9.9912052974104881e-04</internalNodes>
          <leafValues>
            5.8513087034225464e-01 -6.3015013933181763e-01</leafValues></_>
        <_>
          <internalNodes>
            0 -1 24 -3.3525608479976654e-02</internalNodes>
          <leafValues>
            7.7900046110153198e-01 -5.1112836599349976e-01</leafValues></_>
        <_>
          <internalNodes>
            0 -1 93 -5.7308301329612732e-03</internalNodes>
          <leafValues>
            4.0666803717613220e-01 -9.0728497505187988e-01</leafValues></_>
        <_>
          <internalNodes>
            0 -1 50 -8.9978519827127457e-03</internalNodes>
          <leafValues>
            7.7068179845809937e-01 -4.6602746844291687e-01</leafValues></_>
        <_>
          <internalNodes>
            0 -1 66 1.5910724177956581e-03</internalNodes>
          <leafValues>
            -4.2831817269325256e-01 8.7564420700073242e-01</leafValues></_></weakClassifiers></_></stages>
  <features>
    <_>
      <rects>
        <_>
          0 0 28 12 -1.</_>
        <_>
          0 0 14 6 2.</_>
        <_>
          14 6 14 6 2.</_></rects>
      <tilted>0</tilted></_>
    <_>
      <rects>
        <_>
          0 1 50 2 -1.</_>
        <_>
          25 1 25 2 2.</_></rects>
      <tilted>0</tilted></_>
    <_>
      <rects>
        <_>
          0 1 50 5 -1.</_>
        <_>
          25 1 25 5 2.</_></rects>
      <tilted>0</tilted></_>
    <_>
      <rects>
        <_>
          0 2 18 8 -1.</_>
        <_>
          0 2 9 4 2.</_>
        <_>
          9 6 9 4 2.</_></rects>
      <tilted>0</tilted></_>
    <_>
      <rects>
        <_>
          0 3 15 9 -1.</_>
        <_>
          5 3 5 9 3.</_></rects>
      <tilted>0</tilted></_>
    <_>
      <rects>
        <_>
          0 5 46 10 -1.</_>
        <_>
          0 5 23 5 2.</_>
        <_>
          23 10 23 5 2.</_></rects>
      <tilted>0</tilted></_>
    <_>
      <rects>
        <_>
          0 6 48 9 -1.</_>
        <_>
          16 6 16 9 3.</_></rects>
      <tilted>0</tilted></_>
    <_>
      <rects>
        <_>
          0 9 24 6 -1.</_>
        <_>
          12 9 12 6 2.</_></rects>
      <tilted>0</tilted></_>
    <_>
      <rects>
        <_>
          0 10 28 1 -1.</_>
        <_>
          14 10 14 1 2.</_></rects>
      <tilted>0</tilted></_>
    <_>
      <rects>
        <_>
          0 11 30 2 -1.</_>
        <_>
          15 11 15 2 2.</_></rects>
      <tilted>0</tilted></_>
    <_>
      <rects>
        <_>
          1 8 14 8 -1.</_>
        <_>
          1 12 14 4 2.</_></rects>
      <tilted>0</tilted></_>
    <_>
      <rects>
        <_>
          1 9 48 5 -1.</_>
        <_>
          17 9 16 5 3.</_></rects>
      <tilted>0</tilted></_>
    <_>
      <rects>
        <_>
          2 0 20 12 -1.</_>
        <_>
          2 0 10 6 2.</_>
        <_>
          12 6 10 6 2.</_></rects>
      <tilted>0</tilted></_>
    <_>
      <rects>
        <_>
          2 1 13 18 -1.</_>
        <_>
          2 10 13 9 2.</_></rects>
      <tilted>0</tilted></_>
    <_>
      <rects>
        <_>
          3 2 9 18 -1.</_>
        <_>
          3 11 9 9 2.</_></rects>
      <tilted>0</tilted></_>
    <_>
      <rects>
        <_>
          3 5 5 14 -1.</_>
        <_>
          3 12 5 7 2.</_></rects>
      <tilted>0</tilted></_>
    <_>
      <rects>
        <_>
          3 12 41 2 -1.</_>
        <_>
          3 13 41 1 2.</_></rects>
      <tilted>0</tilted></_>
    <_>
      <rects>
        <_>
          3 19 18 1 -1.</_>
        <_>
          12 19 9 1 2.</_></rects>
      <tilted>0</tilted></_>
    <_>
      <rects>
        <_>
          4 6 14 4 -1.</_>
        <_>
          11 6 7 4 2.</_></rects>
      <tilted>0</tilted></_>
    <_>
      <rects>
        <_>
          4 8 28 12 -1.</_>
        <_>
          4 12 28 4 3.</_></rects>
      <tilted>0</tilted></_>
    <_>
      <rects>
        <_>
          4 18 23 2 -1.</_>
        <_>
          4 19 23 1 2.</_></rects>
      <tilted>0</tilted></_>
    <_>
      <rects>
        <_>
          5 0 30 1 -1.</_>
        <_>
          20 0 15 1 2.</_></rects>
      <tilted>0</tilted></_>
    <_>
      <rects>
        <_>
          5 1 12 10 -1.</_>
        <_>
          5 1 6 5 2.</_>
        <_>
          11 6 6 5 2.</_></rects>
      <tilted>0</tilted></_>
    <_>
      <rects>
        <_>
          5 6 36 9 -1.</_>
        <_>
          5 9 36 3 3.</_></rects>
      <tilted>0</tilted></_>
    <_>
      <rects>
        <_>
          5 7 37 9 -1.</_>
        <_>
          5 10 37 3 3.</_></rects>
      <tilted>0</tilted></_>
    <_>
      <rects>
        <_>
          5 8 9 8 -1.</_>
        <_>
          5 12 9 4 2.</_></rects>
      <tilted>0</tilted></_>
    <_>
      <rects>
        <_>
          5 10 18 1 -1.</_>
        <_>
          14 10 9 1 2.</_></rects>
      <tilted>0</tilted></_>
    <_>
      <rects>
        <_>
          5 13 25 6 -1.</_>
        <_>
          5 15 25 2 3.</_></rects>
      <tilted>0</tilted></_>
    <_>
      <rects>
        <_>
          5 18 12 2 -1.</_>
        <_>
          11 18 6 2 2.</_></rects>
      <tilted>0</tilted></_>
    <_>
      <rects>
        <_>
          6 6 36 9 -1.</_>
        <_>
          6 9 36 3 3.</_></rects>
      <tilted>0</tilted></_>
    <_>
      <rects>
        <_>
          6 7 12 4 -1.</_>
        <_>
          12 7 6 4 2.</_></rects>
      <tilted>0</tilted></_>
    <_>
      <rects>
        <_>
          7 9 24 6 -1.</_>
        <_>
          7 12 24 3 2.</_></rects>
      <tilted>0</tilted></_>
    <_>
      <rects>
        <_>
          7 10 14 10 -1.</_>
        <_>
          7 10 7 5 2.</_>
        <_>
          14 15 7 5 2.</_></rects>
      <tilted>0</tilted></_>
    <_>
      <rects>
        <_>
          9 12 21 6 -1.</_>
        <_>
          9 14 21 2 3.</_></rects>
      <tilted>0</tilted></_>
    <_>
      <rects>
        <_>
          10 3 10 2 -1.</_>
        <_>
          10 4 10 1 2.</_></rects>
      <tilted>0</tilted></_>
    <_>
      <rects>
        <_>
          10 8 27 12 -1.</_>
        <_>
          10 12 27 4 3.</_></rects>
      <tilted>0</tilted></_>
    <_>
      <rects>
        <_>
          10 11 19 4 -1.</_>
        <_>
          10 13 19 2 2.</_></rects>
      <tilted>0</tilted></_>
    <_>
      <rects>
        <_>
          10 17 33 3 -1.</_>
        <_>
          10 18 33 1 3.</_></rects>
      <tilted>0</tilted></_>
    <_>
      <rects>
        <_>
          11 0 24 3 -1.</_>
        <_>
          23 0 12 3 2.</_></rects>
      <tilted>0</tilted></_>
    <_>
      <rects>
        <_>
          11 11 21 9 -1.</_>
        <_>
          11 14 21 3 3.</_></rects>
      <tilted>0</tilted></_>
    <_>
      <rects>
        <_>
          11 13 21 2 -1.</_>
        <_>
          11 14 21 1 2.</_></rects>
      <tilted>0</tilted></_>
    <_>
      <rects>
        <_>
          11 15 22 3 -1.</_>
        <_>
          11 16 22 1 3.</_></rects>
      <tilted>0</tilted></_>
    <_>
      <rects>
        <_>
          11 16 5 3 -1.</_>
        <_>
          11 17 5 1 3.</_></rects>
      <tilted>0</tilted></_>
    <_>
      <rects>
        <_>
          11 16 13 3 -1.</_>
        <_>
          11 17 13 1 3.</_></rects>
      <tilted>0</tilted></_>
    <_>
      <rects>
        <_>
          11 16 20 3 -1.</_>
        <_>
          11 17 20 1 3.</_></rects>
      <tilted>0</tilted></_>
    <_>
      <rects>
        <_>
          12 10 18 9 -1.</_>
        <_>
          12 13 18 3 3.</_></rects>
      <tilted>0</tilted></_>
    <_>
      <rects>
        <_>
          12 13 30 2 -1.</_>
        <_>
          22 13 10 2 3.</_></rects>
      <tilted>0</tilted></_>
    <_>
      <rects>
        <_>
          12 16 10 3 -1.</_>
        <_>
          12 17 10 1 3.</_></rects>
      <tilted>0</tilted></_>
    <_>
      <rects>
        <_>
          13 5 37 15 -1.</_>
        <_>
          13 10 37 5 3.</_></rects>
      <tilted>0</tilted></_>
    <_>
      <rects>
        <_>
          13 10 1 9 -1.</_>
        <_>
          13 13 1 3 3.</_></rects>
      <tilted>0</tilted></_>
    <_>
      <rects>
        <_>
          13 11 4 8 -1.</_>
        <_>
          13 15 4 4 2.</_></rects>
      <tilted>0</tilted></_>
    <_>
      <rects>
        <_>
          13 16 16 3 -1.</_>
        <_>
          13 17 16 1 3.</_></rects>
      <tilted>0</tilted></_>
    <_>
      <rects>
        <_>
          14 3 1 4 -1.</_>
        <_>
          14 5 1 2 2.</_></rects>
      <tilted>0</tilted></_>
    <_>
      <rects>
        <_>
          14 13 18 6 -1.</_>
        <_>
          14 16 18 3 2.</_></rects>
      <tilted>0</tilted></_>
    <_>
      <rects>
        <_>
          14 14 2 6 -1.</_>
        <_>
          14 17 2 3 2.</_></rects>
      <tilted>0</tilted></_>
    <_>
      <rects>
        <_>
          15 0 21 10 -1.</_>
        <_>
          15 5 21 5 2.</_></rects>
      <tilted>0</tilted></_>
    <_>
      <rects>
        <_>
          15 15 12 3 -1.</_>
        <_>
          15 16 12 1 3.</_></rects>
      <tilted>0</tilted></_>
    <_>
      <rects>
        <_>
          16 0 4 12 -1.</_>
        <_>
          16 6 4 6 2.</_></rects>
      <tilted>0</tilted></_>
    <_>
      <rects>
        <_>
          16 1 15 6 -1.</_>
        <_>
          21 1 5 6 3.</_></rects>
      <tilted>0</tilted></_>
    <_>
      <rects>
        <_>
          16 1 24 3 -1.</_>
        <_>
          28 1 12 3 2.</_></rects>
      <tilted>0</tilted></_>
    <_>
      <rects>
        <_>
          16 5 24 10 -1.</_>
        <_>
          24 5 8 10 3.</_></rects>
      <tilted>0</tilted></_>
    <_>
      <rects>
        <_>
          17 0 18 18 -1.</_>
        <_>
          17 6 18 6 3.</_></rects>
      <tilted>0</tilted></_>
    <_>
      <rects>
        <_>
          17 0 27 12 -1.</_>
        <_>
          17 6 27 6 2.</_></rects>
      <tilted>0</tilted></_>
    <_>
      <rects>
        <_>
          17 15 12 3 -1.</_>
        <_>
          17 16 12 1 3.</_></rects>
      <tilted>0</tilted></_>
    <_>
      <rects>
        <_>
          18 6 32 7 -1.</_>
        <_>
          34 6 16 7 2.</_></rects>
      <tilted>0</tilted></_>
    <_>
      <rects>
        <_>
          19 12 6 8 -1.</_>
        <_>
          19 16 6 4 2.</_></rects>
      <tilted>0</tilted></_>
    <_>
      <rects>
        <_>
          20 14 21 2 -1.</_>
        <_>
          20 15 21 1 2.</_></rects>
      <tilted>0</tilted></_>
    <_>
      <rects>
        <_>
          21 0 27 4 -1.</_>
        <_>
          30 0 9 4 3.</_></rects>
      <tilted>0</tilted></_>
    <_>
      <rects>
        <_>
          21 8 19 12 -1.</_>
        <_>
          21 12 19 4 3.</_></rects>
      <tilted>0</tilted></_>
    <_>
      <rects>
        <_>
          21 10 28 1 -1.</_>
        <_>
          35 10 14 1 2.</_></rects>
      <tilted>0</tilted></_>
    <_>
      <rects>
        <_>
          21 17 5 3 -1.</_>
        <_>
          21 18 5 1 3.</_></rects>
      <tilted>0</tilted></_>
    <_>
      <rects>
        <_>
          22 0 10 12 -1.</_>
        <_>
          22 6 10 6 2.</_></rects>
      <tilted>0</tilted></_>
    <_>
      <rects>
        <_>
          22 12 8 6 -1.</_>
        <_>
          22 14 8 2 3.</_></rects>
      <tilted>0</tilted></_>
    <_>
      <rects>
        <_>
          23 7 26 7 -1.</_>
        <_>
          36 7 13 7 2.</_></rects>
      <tilted>0</tilted></_>
    <_>
      <rects>
        <_>
          24 0 26 10 -1.</_>
        <_>
          24 0 13 5 2.</_>
        <_>
          37 5 13 5 2.</_></rects>
      <tilted>0</tilted></_>
    <_>
      <rects>
        <_>
          24 10 26 10 -1.</_>
        <_>
          24 10 13 5 2.</_>
        <_>
          37 15 13 5 2.</_></rects>
      <tilted>0</tilted></_>
    <_>
      <rects>
        <_>
          24 10 15 9 -1.</_>
        <_>
          24 13 15 3 3.</_></rects>
      <tilted>0</tilted></_>
    <_>
      <rects>
        <_>
          26 0 18 14 -1.</_>
        <_>
          26 0 9 7 2.</_>
        <_>
          35 7 9 7 2.</_></rects>
      <tilted>0</tilted></_>
    <_>
      <rects>
        <_>
          26 10 8 7 -1.</_>
        <_>
          30 10 4 7 2.</_></rects>
      <tilted>0</tilted></_>
    <_>
      <rects>
        <_>
          27 2 6 4 -1.</_>
        <_>
          30 2 3 4 2.</_></rects>
      <tilted>0</tilted></_>
    <_>
      <rects>
        <_>
          27 9 14 6 -1.</_>
        <_>
          34 9 7 6 2.</_></rects>
      <tilted>0</tilted></_>
    <_>
      <rects>
        <_>
          28 0 22 14 -1.</_>
        <_>
          28 0 11 7 2.</_>
        <_>
          39 7 11 7 2.</_></rects>
      <tilted>0</tilted></_>
    <_>
      <rects>
        <_>
          29 1 10 4 -1.</_>
        <_>
          34 1 5 4 2.</_></rects>
      <tilted>0</tilted></_>
    <_>
      <rects>
        <_>
          29 7 13 6 -1.</_>
        <_>
          29 9 13 2 3.</_></rects>
      <tilted>0</tilted></_>
    <_>
      <rects>
        <_>
          30 0 20 10 -1.</_>
        <_>
          30 0 10 5 2.</_>
        <_>
          40 5 10 5 2.</_></rects>
      <tilted>0</tilted></_>
    <_>
      <rects>
        <_>
          31 2 9 9 -1.</_>
        <_>
          31 5 9 3 3.</_></rects>
      <tilted>0</tilted></_>
    <_>
      <rects>
        <_>
          32 3 7 2 -1.</_>
        <_>
          32 4 7 1 2.</_></rects>
      <tilted>0</tilted></_>
    <_>
      <rects>
        <_>
          34 0 16 10 -1.</_>
        <_>
          34 0 8 5 2.</_>
        <_>
          42 5 8 5 2.</_></rects>
      <tilted>0</tilted></_>
    <_>
      <rects>
        <_>
          34 3 4 4 -1.</_>
        <_>
          34 5 4 2 2.</_></rects>
      <tilted>0</tilted></_>
    <_>
      <rects>
        <_>
          34 7 6 6 -1.</_>
        <_>
          34 9 6 2 3.</_></rects>
      <tilted>0</tilted></_>
    <_>
      <rects>
        <_>
          35 3 15 16 -1.</_>
        <_>
          40 3 5 16 3.</_></rects>
      <tilted>0</tilted></_>
    <_>
      <rects>
        <_>
          35 4 5 2 -1.</_>
        <_>
          35 5 5 1 2.</_></rects>
      <tilted>0</tilted></_>
    <_>
      <rects>
        <_>
          35 9 15 9 -1.</_>
        <_>
          40 9 5 9 3.</_></rects>
      <tilted>0</tilted></_>
    <_>
      <rects>
        <_>
          38 1 12 18 -1.</_>
        <_>
          38 7 12 6 3.</_></rects>
      <tilted>0</tilted></_>
    <_>
      <rects>
        <_>
          38 8 12 10 -1.</_>
        <_>
          38 13 12 5 2.</_></rects>
      <tilted>0</tilted></_>
    <_>
      <rects>
        <_>
          41 0 9 18 -1.</_>
        <_>
          41 6 9 6 3.</_></rects>
      <tilted>0</tilted></_>
    <_>
      <rects>
        <_>
          44 0 6 8 -1.</_>
        <_>
          47 0 3 8 2.</_></rects>
      <tilted>0</tilted></_>
    <_>
      <rects>
        <_>
          44 14 6 2 -1.</_>
        <_>
          47 14 3 2 2.</_></rects>
      <tilted>0</tilted></_>
    <_>
      <rects>
        <_>
          48 12 2 7 -1.</_>
        <_>
          49 12 1 7 2.</_></rects>
      <tilted>0</tilted></_></features></cascade>
</opencv_storage>
