<?xml version="1.0"?>
<opencv_storage>
<cascade>
  <stageType>BOOST</stageType>
  <featureType>HAAR</featureType>
  <height>40</height>
  <width>20</width>
  <stageParams>
    <boostType>GAB</boostType>
    <minHitRate>9.9500000476837158e-01</minHitRate>
    <maxFalseAlarm>5.0000000000000000e-01</maxFalseAlarm>
    <weightTrimRate>9.4999999999999996e-01</weightTrimRate>
    <maxDepth>1</maxDepth>
    <maxWeakCount>100</maxWeakCount></stageParams>
  <featureParams>
    <maxCatCount>0</maxCatCount>
    <featSize>1</featSize>
    <mode>BASIC</mode></featureParams>
  <stageNum>7</stageNum>
  <stages>
    <!-- stage 0 -->
    <_>
      <maxWeakCount>1</maxWeakCount>
      <stageThreshold>9.9284619092941284e-01</stageThreshold>
      <weakClassifiers>
        <_>
          <internalNodes>
            0 -1 3 -5.5677413940429688e-01</internalNodes>
          <leafValues>
            9.9284619092941284e-01 -1.</leafValues></_></weakClassifiers></_>
    <!-- stage 1 -->
    <_>
      <maxWeakCount>2</maxWeakCount>
      <stageThreshold>-1.1531843245029449e-01</stageThreshold>
      <weakClassifiers>
        <_>
          <internalNodes>
            0 -1 14 1.3529865536838770e-03</internalNodes>
          <leafValues>
            -8.9632827043533325e-01 8.7944662570953369e-01</leafValues></_>
        <_>
          <internalNodes>
            0 -1 6 1.7880020663142204e-02</internalNodes>
          <leafValues>
            -8.7242257595062256e-01 7.8100985288619995e-01</leafValues></_></weakClassifiers></_>
    <!-- stage 2 -->
    <_>
      <maxWeakCount>4</maxWeakCount>
      <stageThreshold>-5.1002389192581177e-01</stageThreshold>
      <weakClassifiers>
        <_>
          <internalNodes>
            0 -1 19 7.7499994076788425e-03</internalNodes>
          <leafValues>
            -7.9417878389358521e-01 8.6217302083969116e-01</leafValues></_>
        <_>
          <internalNodes>
            0 -1 2 4.5153688639402390e-02</internalNodes>
          <leafValues>
            -8.7816101312637329e-01 7.1755367517471313e-01</leafValues></_>
        <_>
          <internalNodes>
            0 -1 10 -3.3720880746841431e-02</internalNodes>
          <leafValues>
            6.2046146392822266e-01 -7.9873025417327881e-01</leafValues></_>
        <_>
          <internalNodes>
            0 -1 1 3.8979561068117619e-03</internalNodes>
          <leafValues>
            -8.4674900770187378e-01 5.4185444116592407e-01</leafValues></_></weakClassifiers></_>
    <!-- stage 3 -->
    <_>
      <maxWeakCount>3</maxWeakCount>
      <stageThreshold>-6.7230230569839478e-01</stageThreshold>
      <weakClassifiers>
        <_>
          <internalNodes>
            0 -1 13 1.2757929041981697e-02</internalNodes>
          <leafValues>
            -6.1199623346328735e-01 8.5130113363265991e-01</leafValues></_>
        <_>
          <internalNodes>
            0 -1 4 -6.4710879325866699e-01</internalNodes>
          <leafValues>
            7.0339167118072510e-01 -8.0522823333740234e-01</leafValues></_>
        <_>
          <internalNodes>
            0 -1 12 -3.8095735944807529e-03</internalNodes>
          <leafValues>
            7.4492216110229492e-01 -6.4515149593353271e-01</leafValues></_></weakClassifiers></_>
    <!-- stage 4 -->
    <_>
      <maxWeakCount>3</maxWeakCount>
      <stageThreshold>-8.5366225242614746e-01</stageThreshold>
      <weakClassifiers>
        <_>
          <internalNodes>
            0 -1 20 -1.2795709073543549e-02</internalNodes>
          <leafValues>
            7.8105664253234863e-01 -8.1389868259429932e-01</leafValues></_>
        <_>
          <internalNodes>
            0 -1 15 2.4298926815390587e-02</internalNodes>
          <leafValues>
            -6.0990476608276367e-01 8.0244952440261841e-01</leafValues></_>
        <_>
          <internalNodes>
            0 -1 7 -6.9466447457671165e-03</internalNodes>
          <leafValues>
            5.7014119625091553e-01 -9.0352004766464233e-01</leafValues></_></weakClassifiers></_>
    <!-- stage 5 -->
    <_>
      <maxWeakCount>5</maxWeakCount>
      <stageThreshold>-6.9083911180496216e-01</stageThreshold>
      <weakClassifiers>
        <_>
          <internalNodes>
            0 -1 9 -4.5851767063140869e-02</internalNodes>
          <leafValues>
            8.4412956237792969e-01 -7.3716634511947632e-01</leafValues></_>
        <_>
          <internalNodes>
            0 -1 5 1.4549597399309278e-03</internalNodes>
          <leafValues>
            -6.2932455539703369e-01 7.2881305217742920e-01</leafValues></_>
        <_>
          <internalNodes>
            0 -1 0 1.0628551244735718e-02</internalNodes>
          <leafValues>
            -8.2812714576721191e-01 5.3273713588714600e-01</leafValues></_>
        <_>
          <internalNodes>
            0 -1 16 1.7371013760566711e-02</internalNodes>
          <leafValues>
            -5.4039162397384644e-01 7.7102798223495483e-01</leafValues></_>
        <_>
          <internalNodes>
            0 -1 18 1.3962317258119583e-02</internalNodes>
          <leafValues>
            -5.8688038587570190e-01 6.8330627679824829e-01</leafValues></_></weakClassifiers></_>
    <!-- stage 6 -->
    <_>
      <maxWeakCount>4</maxWeakCount>
      <stageThreshold>-2.7765968441963196e-01</stageThreshold>
      <weakClassifiers>
        <_>
          <internalNodes>
            0 -1 17 -1.7589883878827095e-02</internalNodes>
          <leafValues>
            7.7210015058517456e-01 -6.4793211221694946e-01</leafValues></_>
        <_>
          <internalNodes>
            0 -1 4 -6.6662204265594482e-01</internalNodes>
          <leafValues>
            6.9639128446578979e-01 -6.1186319589614868e-01</leafValues></_>
        <_>
          <internalNodes>
            0 -1 11 -1.4232199639081955e-02</internalNodes>
          <leafValues>
            -7.9993617534637451e-01 5.1519703865051270e-01</leafValues></_>
        <_>
          <internalNodes>
            0 -1 8 -7.2945673018693924e-03</internalNodes>
          <leafValues>
            4.7381737828254700e-01 -7.9998075962066650e-01</leafValues></_></weakClassifiers></_></stages>
  <features>
    <_>
      <rects>
        <_>
          0 0 1 16 -1.</_>
        <_>
          0 8 1 8 2.</_></rects>
      <tilted>0</tilted></_>
    <_>
      <rects>
        <_>
          0 0 2 8 -1.</_>
        <_>
          0 4 2 4 2.</_></rects>
      <tilted>0</tilted></_>
    <_>
      <rects>
        <_>
          0 3 14 27 -1.</_>
        <_>
          0 12 14 9 3.</_></rects>
      <tilted>0</tilted></_>
    <_>
      <rects>
        <_>
          0 12 18 27 -1.</_>
        <_>
          9 12 9 27 2.</_></rects>
      <tilted>0</tilted></_>
    <_>
      <rects>
        <_>
          0 12 18 28 -1.</_>
        <_>
          9 12 9 28 2.</_></rects>
      <tilted>0</tilted></_>
    <_>
      <rects>
        <_>
          0 15 18 8 -1.</_>
        <_>
          0 15 9 4 2.</_>
        <_>
          9 19 9 4 2.</_></rects>
      <tilted>0</tilted></_>
    <_>
      <rects>
        <_>
          0 24 8 16 -1.</_>
        <_>
          0 24 4 8 2.</_>
        <_>
          4 32 4 8 2.</_></rects>
      <tilted>0</tilted></_>
    <_>
      <rects>
        <_>
          0 26 3 14 -1.</_>
        <_>
          0 33 3 7 2.</_></rects>
      <tilted>0</tilted></_>
    <_>
      <rects>
        <_>
          3 2 4 8 -1.</_>
        <_>
          5 2 2 8 2.</_></rects>
      <tilted>0</tilted></_>
    <_>
      <rects>
        <_>
          5 4 9 16 -1.</_>
        <_>
          8 4 3 16 3.</_></rects>
      <tilted>0</tilted></_>
    <_>
      <rects>
        <_>
          5 19 10 20 -1.</_>
        <_>
          5 19 5 10 2.</_>
        <_>
          10 29 5 10 2.</_></rects>
      <tilted>0</tilted></_>
    <_>
      <rects>
        <_>
          5 22 15 3 -1.</_>
        <_>
          10 22 5 3 3.</_></rects>
      <tilted>0</tilted></_>
    <_>
      <rects>
        <_>
          6 36 14 4 -1.</_>
        <_>
          6 38 14 2 2.</_></rects>
      <tilted>0</tilted></_>
    <_>
      <rects>
        <_>
          8 0 12 8 -1.</_>
        <_>
          8 0 6 4 2.</_>
        <_>
          14 4 6 4 2.</_></rects>
      <tilted>0</tilted></_>
    <_>
      <rects>
        <_>
          8 3 8 7 -1.</_>
        <_>
          12 3 4 7 2.</_></rects>
      <tilted>0</tilted></_>
    <_>
      <rects>
        <_>
          9 0 9 26 -1.</_>
        <_>
          12 0 3 26 3.</_></rects>
      <tilted>0</tilted></_>
    <_>
      <rects>
        <_>
          9 13 9 12 -1.</_>
        <_>
          12 13 3 12 3.</_></rects>
      <tilted>0</tilted></_>
    <_>
      <rects>
        <_>
          9 14 4 26 -1.</_>
        <_>
          9 14 2 13 2.</_>
        <_>
          11 27 2 13 2.</_></rects>
      <tilted>0</tilted></_>
    <_>
      <rects>
        <_>
          10 1 10 8 -1.</_>
        <_>
          10 1 5 4 2.</_>
        <_>
          15 5 5 4 2.</_></rects>
      <tilted>0</tilted></_>
    <_>
      <rects>
        <_>
          14 0 6 12 -1.</_>
        <_>
          14 0 3 6 2.</_>
        <_>
          17 6 3 6 2.</_></rects>
      <tilted>0</tilted></_>
    <_>
      <rects>
        <_>
          16 10 4 27 -1.</_>
        <_>
          16 19 4 9 3.</_></rects>
      <tilted>0</tilted></_></features></cascade>
</opencv_storage>
