<?xml version="1.0"?>
<opencv_storage>
<cascade>
  <stageType>BOOST</stageType>
  <featureType>HAAR</featureType>
  <height>40</height>
  <width>40</width>
  <stageParams>
    <boostType>GAB</boostType>
    <minHitRate>9.9500000476837158e-01</minHitRate>
    <maxFalseAlarm>5.0000000000000000e-01</maxFalseAlarm>
    <weightTrimRate>9.4999999999999996e-01</weightTrimRate>
    <maxDepth>1</maxDepth>
    <maxWeakCount>100</maxWeakCount></stageParams>
  <featureParams>
    <maxCatCount>0</maxCatCount>
    <featSize>1</featSize>
    <mode>BASIC</mode></featureParams>
  <stageNum>10</stageNum>
  <stages>
    <!-- stage 0 -->
    <_>
      <maxWeakCount>1</maxWeakCount>
      <stageThreshold>9.2759227752685547e-01</stageThreshold>
      <weakClassifiers>
        <_>
          <internalNodes>
            0 -1 0 -2.6394262909889221e-01</internalNodes>
          <leafValues>
            9.2759227752685547e-01 -9.8232042789459229e-01</leafValues></_></weakClassifiers></_>
    <!-- stage 1 -->
    <_>
      <maxWeakCount>2</maxWeakCount>
      <stageThreshold>-2.3506967350840569e-02</stageThreshold>
      <weakClassifiers>
        <_>
          <internalNodes>
            0 -1 17 -9.8125487565994263e-03</internalNodes>
          <leafValues>
            9.0316283702850342e-01 -8.6581468582153320e-01</leafValues></_>
        <_>
          <internalNodes>
            0 -1 34 -1.2773629277944565e-02</internalNodes>
          <leafValues>
            8.4230774641036987e-01 -7.6457083225250244e-01</leafValues></_></weakClassifiers></_>
    <!-- stage 2 -->
    <_>
      <maxWeakCount>2</maxWeakCount>
      <stageThreshold>-2.3042309284210205e-01</stageThreshold>
      <weakClassifiers>
        <_>
          <internalNodes>
            0 -1 7 1.7132066190242767e-02</internalNodes>
          <leafValues>
            -8.9620250463485718e-01 8.1476014852523804e-01</leafValues></_>
        <_>
          <internalNodes>
            0 -1 13 8.0731958150863647e-03</internalNodes>
          <leafValues>
            -8.3038979768753052e-01 6.6577941179275513e-01</leafValues></_></weakClassifiers></_>
    <!-- stage 3 -->
    <_>
      <maxWeakCount>4</maxWeakCount>
      <stageThreshold>-3.0004560947418213e-01</stageThreshold>
      <weakClassifiers>
        <_>
          <internalNodes>
            0 -1 12 1.9256894011050463e-03</internalNodes>
          <leafValues>
            -5.9462255239486694e-01 8.1918674707412720e-01</leafValues></_>
        <_>
          <internalNodes>
            0 -1 5 -7.0561453700065613e-02</internalNodes>
          <leafValues>
            5.7333880662918091e-01 -8.0506134033203125e-01</leafValues></_>
        <_>
          <internalNodes>
            0 -1 1 -3.1180229783058167e-01</internalNodes>
          <leafValues>
            4.3513673543930054e-01 -9.2586886882781982e-01</leafValues></_>
        <_>
          <internalNodes>
            0 -1 31 2.8769843280315399e-02</internalNodes>
          <leafValues>
            -6.1090290546417236e-01 6.6450154781341553e-01</leafValues></_></weakClassifiers></_>
    <!-- stage 4 -->
    <_>
      <maxWeakCount>4</maxWeakCount>
      <stageThreshold>-1.2827944755554199e+00</stageThreshold>
      <weakClassifiers>
        <_>
          <internalNodes>
            0 -1 4 -1.6966089606285095e-02</internalNodes>
          <leafValues>
            7.1917569637298584e-01 -8.7755101919174194e-01</leafValues></_>
        <_>
          <internalNodes>
            0 -1 30 -4.9136555753648281e-03</internalNodes>
          <leafValues>
            6.8190354108810425e-01 -6.7613500356674194e-01</leafValues></_>
        <_>
          <internalNodes>
            0 -1 3 9.2658232897520065e-03</internalNodes>
          <leafValues>
            -7.7434200048446655e-01 5.3968763351440430e-01</leafValues></_>
        <_>
          <internalNodes>
            0 -1 20 -3.8764290511608124e-02</internalNodes>
          <leafValues>
            6.8081444501876831e-01 -5.5149322748184204e-01</leafValues></_></weakClassifiers></_>
    <!-- stage 5 -->
    <_>
      <maxWeakCount>5</maxWeakCount>
      <stageThreshold>-1.0658713579177856e+00</stageThreshold>
      <weakClassifiers>
        <_>
          <internalNodes>
            0 -1 36 -3.6055585369467735e-03</internalNodes>
          <leafValues>
            7.4732965230941772e-01 -6.7388534545898438e-01</leafValues></_>
        <_>
          <internalNodes>
            0 -1 2 7.5347814708948135e-03</internalNodes>
          <leafValues>
            -7.3943823575973511e-01 5.7426017522811890e-01</leafValues></_>
        <_>
          <internalNodes>
            0 -1 24 -6.6993795335292816e-03</internalNodes>
          <leafValues>
            4.2680123448371887e-01 -8.0391955375671387e-01</leafValues></_>
        <_>
          <internalNodes>
            0 -1 11 -1.6470972448587418e-02</internalNodes>
          <leafValues>
            4.4504213333129883e-01 -6.3705796003341675e-01</leafValues></_>
        <_>
          <internalNodes>
            0 -1 33 -1.7449609935283661e-02</internalNodes>
          <leafValues>
            3.6721473932266235e-01 -7.4626600742340088e-01</leafValues></_></weakClassifiers></_>
    <!-- stage 6 -->
    <_>
      <maxWeakCount>5</maxWeakCount>
      <stageThreshold>-1.0471804141998291e+00</stageThreshold>
      <weakClassifiers>
        <_>
          <internalNodes>
            0 -1 29 2.9882784001529217e-03</internalNodes>
          <leafValues>
            -6.1538463830947876e-01 7.5412291288375854e-01</leafValues></_>
        <_>
          <internalNodes>
            0 -1 9 -3.7834145128726959e-02</internalNodes>
          <leafValues>
            5.2990627288818359e-01 -7.3523604869842529e-01</leafValues></_>
        <_>
          <internalNodes>
            0 -1 8 3.0548211652785540e-03</internalNodes>
          <leafValues>
            -7.7928519248962402e-01 3.9973780512809753e-01</leafValues></_>
        <_>
          <internalNodes>
            0 -1 21 -6.6221226006746292e-03</internalNodes>
          <leafValues>
            3.3148664236068726e-01 -8.4350007772445679e-01</leafValues></_>
        <_>
          <internalNodes>
            0 -1 27 2.6965361088514328e-02</internalNodes>
          <leafValues>
            -5.1390349864959717e-01 5.6135255098342896e-01</leafValues></_></weakClassifiers></_>
    <!-- stage 7 -->
    <_>
      <maxWeakCount>5</maxWeakCount>
      <stageThreshold>-3.8437223434448242e-01</stageThreshold>
      <weakClassifiers>
        <_>
          <internalNodes>
            0 -1 30 -4.0894490666687489e-03</internalNodes>
          <leafValues>
            7.4321180582046509e-01 -4.5119306445121765e-01</leafValues></_>
        <_>
          <internalNodes>
            0 -1 6 -4.8951055854558945e-02</internalNodes>
          <leafValues>
            5.7189404964447021e-01 -6.2127071619033813e-01</leafValues></_>
        <_>
          <internalNodes>
            0 -1 18 -3.4856989979743958e-02</internalNodes>
          <leafValues>
            7.1830821037292480e-01 -4.4614735245704651e-01</leafValues></_>
        <_>
          <internalNodes>
            0 -1 19 -2.5319261476397514e-02</internalNodes>
          <leafValues>
            7.8538024425506592e-01 -3.3783417940139771e-01</leafValues></_>
        <_>
          <internalNodes>
            0 -1 25 -5.6254182709380984e-05</internalNodes>
          <leafValues>
            3.5129493474960327e-01 -8.1559687852859497e-01</leafValues></_></weakClassifiers></_>
    <!-- stage 8 -->
    <_>
      <maxWeakCount>4</maxWeakCount>
      <stageThreshold>-5.2173775434494019e-01</stageThreshold>
      <weakClassifiers>
        <_>
          <internalNodes>
            0 -1 16 -1.9331712275743484e-02</internalNodes>
          <leafValues>
            6.5229022502899170e-01 -8.8605105876922607e-01</leafValues></_>
        <_>
          <internalNodes>
            0 -1 28 5.3189993195701391e-05</internalNodes>
          <leafValues>
            -4.7630083560943604e-01 6.6767758131027222e-01</leafValues></_>
        <_>
          <internalNodes>
            0 -1 14 7.9279951751232147e-03</internalNodes>
          <leafValues>
            -8.2248836755752563e-01 4.2739462852478027e-01</leafValues></_>
        <_>
          <internalNodes>
            0 -1 10 2.8143327683210373e-02</internalNodes>
          <leafValues>
            -7.3752319812774658e-01 4.1321954131126404e-01</leafValues></_></weakClassifiers></_>
    <!-- stage 9 -->
    <_>
      <maxWeakCount>6</maxWeakCount>
      <stageThreshold>-9.6142578125000000e-01</stageThreshold>
      <weakClassifiers>
        <_>
          <internalNodes>
            0 -1 26 -1.2708963826298714e-02</internalNodes>
          <leafValues>
            -7.6470589637756348e-01 6.5634572505950928e-01</leafValues></_>
        <_>
          <internalNodes>
            0 -1 32 -3.5305344499647617e-03</internalNodes>
          <leafValues>
            4.2710044980049133e-01 -7.3847281932830811e-01</leafValues></_>
        <_>
          <internalNodes>
            0 -1 35 -5.5829412303864956e-05</internalNodes>
          <leafValues>
            4.1701874136924744e-01 -6.5340065956115723e-01</leafValues></_>
        <_>
          <internalNodes>
            0 -1 22 -2.7021865826100111e-03</internalNodes>
          <leafValues>
            2.8150379657745361e-01 -8.2520395517349243e-01</leafValues></_>
        <_>
          <internalNodes>
            0 -1 15 -2.1651562303304672e-02</internalNodes>
          <leafValues>
            3.3124762773513794e-01 -7.2317230701446533e-01</leafValues></_>
        <_>
          <internalNodes>
            0 -1 23 -2.4820953607559204e-02</internalNodes>
          <leafValues>
            2.5089395046234131e-01 -8.3864939212799072e-01</leafValues></_></weakClassifiers></_></stages>
  <features>
    <_>
      <rects>
        <_>
          0 2 24 38 -1.</_>
        <_>
          12 2 12 38 2.</_></rects>
      <tilted>0</tilted></_>
    <_>
      <rects>
        <_>
          0 13 40 27 -1.</_>
        <_>
          20 13 20 27 2.</_></rects>
      <tilted>0</tilted></_>
    <_>
      <rects>
        <_>
          0 18 8 22 -1.</_>
        <_>
          0 18 4 11 2.</_>
        <_>
          4 29 4 11 2.</_></rects>
      <tilted>0</tilted></_>
    <_>
      <rects>
        <_>
          0 20 10 20 -1.</_>
        <_>
          0 20 5 10 2.</_>
        <_>
          5 30 5 10 2.</_></rects>
      <tilted>0</tilted></_>
    <_>
      <rects>
        <_>
          1 0 16 27 -1.</_>
        <_>
          1 9 16 9 3.</_></rects>
      <tilted>0</tilted></_>
    <_>
      <rects>
        <_>
          1 3 22 7 -1.</_>
        <_>
          12 3 11 7 2.</_></rects>
      <tilted>0</tilted></_>
    <_>
      <rects>
        <_>
          1 11 10 22 -1.</_>
        <_>
          6 11 5 22 2.</_></rects>
      <tilted>0</tilted></_>
    <_>
      <rects>
        <_>
          2 4 20 18 -1.</_>
        <_>
          2 4 10 9 2.</_>
        <_>
          12 13 10 9 2.</_></rects>
      <tilted>0</tilted></_>
    <_>
      <rects>
        <_>
          2 37 21 3 -1.</_>
        <_>
          9 37 7 3 3.</_></rects>
      <tilted>0</tilted></_>
    <_>
      <rects>
        <_>
          4 1 6 39 -1.</_>
        <_>
          4 14 6 13 3.</_></rects>
      <tilted>0</tilted></_>
    <_>
      <rects>
        <_>
          5 2 12 24 -1.</_>
        <_>
          5 2 6 12 2.</_>
        <_>
          11 14 6 12 2.</_></rects>
      <tilted>0</tilted></_>
    <_>
      <rects>
        <_>
          6 2 34 12 -1.</_>
        <_>
          6 6 34 4 3.</_></rects>
      <tilted>0</tilted></_>
    <_>
      <rects>
        <_>
          6 16 18 13 -1.</_>
        <_>
          12 16 6 13 3.</_></rects>
      <tilted>0</tilted></_>
    <_>
      <rects>
        <_>
          7 30 12 10 -1.</_>
        <_>
          7 35 12 5 2.</_></rects>
      <tilted>0</tilted></_>
    <_>
      <rects>
        <_>
          8 28 9 12 -1.</_>
        <_>
          8 34 9 6 2.</_></rects>
      <tilted>0</tilted></_>
    <_>
      <rects>
        <_>
          10 0 15 10 -1.</_>
        <_>
          10 5 15 5 2.</_></rects>
      <tilted>0</tilted></_>
    <_>
      <rects>
        <_>
          10 14 30 16 -1.</_>
        <_>
          25 14 15 16 2.</_></rects>
      <tilted>0</tilted></_>
    <_>
      <rects>
        <_>
          11 0 13 8 -1.</_>
        <_>
          11 4 13 4 2.</_></rects>
      <tilted>0</tilted></_>
    <_>
      <rects>
        <_>
          11 1 18 12 -1.</_>
        <_>
          11 5 18 4 3.</_></rects>
      <tilted>0</tilted></_>
    <_>
      <rects>
        <_>
          11 28 17 12 -1.</_>
        <_>
          11 32 17 4 3.</_></rects>
      <tilted>0</tilted></_>
    <_>
      <rects>
        <_>
          12 0 15 15 -1.</_>
        <_>
          12 5 15 5 3.</_></rects>
      <tilted>0</tilted></_>
    <_>
      <rects>
        <_>
          12 1 15 5 -1.</_>
        <_>
          17 1 5 5 3.</_></rects>
      <tilted>0</tilted></_>
    <_>
      <rects>
        <_>
          12 33 6 5 -1.</_>
        <_>
          15 33 3 5 2.</_></rects>
      <tilted>0</tilted></_>
    <_>
      <rects>
        <_>
          13 14 14 16 -1.</_>
        <_>
          20 14 7 16 2.</_></rects>
      <tilted>0</tilted></_>
    <_>
      <rects>
        <_>
          13 34 15 6 -1.</_>
        <_>
          18 34 5 6 3.</_></rects>
      <tilted>0</tilted></_>
    <_>
      <rects>
        <_>
          15 0 4 1 -1.</_>
        <_>
          17 0 2 1 2.</_></rects>
      <tilted>0</tilted></_>
    <_>
      <rects>
        <_>
          19 0 10 38 -1.</_>
        <_>
          24 0 5 38 2.</_></rects>
      <tilted>0</tilted></_>
    <_>
      <rects>
        <_>
          21 28 19 12 -1.</_>
        <_>
          21 34 19 6 2.</_></rects>
      <tilted>0</tilted></_>
    <_>
      <rects>
        <_>
          22 19 2 1 -1.</_>
        <_>
          23 19 1 1 2.</_></rects>
      <tilted>0</tilted></_>
    <_>
      <rects>
        <_>
          24 16 12 7 -1.</_>
        <_>
          30 16 6 7 2.</_></rects>
      <tilted>0</tilted></_>
    <_>
      <rects>
        <_>
          24 17 9 7 -1.</_>
        <_>
          27 17 3 7 3.</_></rects>
      <tilted>0</tilted></_>
    <_>
      <rects>
        <_>
          25 14 15 12 -1.</_>
        <_>
          30 14 5 12 3.</_></rects>
      <tilted>0</tilted></_>
    <_>
      <rects>
        <_>
          26 0 11 18 -1.</_>
        <_>
          26 6 11 6 3.</_></rects>
      <tilted>0</tilted></_>
    <_>
      <rects>
        <_>
          32 0 8 40 -1.</_>
        <_>
          36 0 4 40 2.</_></rects>
      <tilted>0</tilted></_>
    <_>
      <rects>
        <_>
          32 2 8 24 -1.</_>
        <_>
          36 2 4 24 2.</_></rects>
      <tilted>0</tilted></_>
    <_>
      <rects>
        <_>
          34 12 2 3 -1.</_>
        <_>
          35 12 1 3 2.</_></rects>
      <tilted>0</tilted></_>
    <_>
      <rects>
        <_>
          39 0 1 39 -1.</_>
        <_>
          39 13 1 13 3.</_></rects>
      <tilted>0</tilted></_></features></cascade>
</opencv_storage>
