<?xml version="1.0"?>
<opencv_storage>
<cascade>
  <stageType>BOOST</stageType>
  <featureType>HAAR</featureType>
  <height>37</height>
  <width>8</width>
  <stageParams>
    <boostType>GAB</boostType>
    <minHitRate>9.9500000476837158e-01</minHitRate>
    <maxFalseAlarm>5.0000000000000000e-01</maxFalseAlarm>
    <weightTrimRate>9.4999999999999996e-01</weightTrimRate>
    <maxDepth>1</maxDepth>
    <maxWeakCount>100</maxWeakCount></stageParams>
  <featureParams>
    <maxCatCount>0</maxCatCount>
    <featSize>1</featSize>
    <mode>BASIC</mode></featureParams>
  <stageNum>10</stageNum>
  <stages>
    <!-- stage 0 -->
    <_>
      <maxWeakCount>3</maxWeakCount>
      <stageThreshold>-9.5681041479110718e-01</stageThreshold>
      <weakClassifiers>
        <_>
          <internalNodes>
            0 -1 14 -2.5018272921442986e-02</internalNodes>
          <leafValues>
            8.6948174238204956e-01 -7.8238344192504883e-01</leafValues></_>
        <_>
          <internalNodes>
            0 -1 15 -1.8666045740246773e-02</internalNodes>
          <leafValues>
            6.3829725980758667e-01 -8.4326016902923584e-01</leafValues></_>
        <_>
          <internalNodes>
            0 -1 7 -4.9524945206940174e-03</internalNodes>
          <leafValues>
            6.6883325576782227e-01 -7.4680489301681519e-01</leafValues></_></weakClassifiers></_>
    <!-- stage 1 -->
    <_>
      <maxWeakCount>3</maxWeakCount>
      <stageThreshold>-1.0340126752853394e+00</stageThreshold>
      <weakClassifiers>
        <_>
          <internalNodes>
            0 -1 6 -1.2373978272080421e-02</internalNodes>
          <leafValues>
            7.1972316503524780e-01 -7.9693484306335449e-01</leafValues></_>
        <_>
          <internalNodes>
            0 -1 2 2.5430642999708652e-03</internalNodes>
          <leafValues>
            -8.4523212909698486e-01 6.0295057296752930e-01</leafValues></_>
        <_>
          <internalNodes>
            0 -1 3 2.2768070921301842e-03</internalNodes>
          <leafValues>
            -8.3379018306732178e-01 6.0815429687500000e-01</leafValues></_></weakClassifiers></_>
    <!-- stage 2 -->
    <_>
      <maxWeakCount>4</maxWeakCount>
      <stageThreshold>-5.7031810283660889e-01</stageThreshold>
      <weakClassifiers>
        <_>
          <internalNodes>
            0 -1 4 -1.2460762634873390e-02</internalNodes>
          <leafValues>
            5.3276354074478149e-01 -9.3969851732254028e-01</leafValues></_>
        <_>
          <internalNodes>
            0 -1 13 3.2708518207073212e-02</internalNodes>
          <leafValues>
            -5.3706508874893188e-01 9.0826714038848877e-01</leafValues></_>
        <_>
          <internalNodes>
            0 -1 21 -7.9393468331545591e-04</internalNodes>
          <leafValues>
            5.2445626258850098e-01 -9.1518896818161011e-01</leafValues></_>
        <_>
          <internalNodes>
            0 -1 23 1.9768937490880489e-03</internalNodes>
          <leafValues>
            3.8198921084403992e-01 -9.3745052814483643e-01</leafValues></_></weakClassifiers></_>
    <!-- stage 3 -->
    <_>
      <maxWeakCount>3</maxWeakCount>
      <stageThreshold>-6.8881303071975708e-01</stageThreshold>
      <weakClassifiers>
        <_>
          <internalNodes>
            0 -1 10 1.1503176391124725e-01</internalNodes>
          <leafValues>
            -7.1075838804244995e-01 7.5609755516052246e-01</leafValues></_>
        <_>
          <internalNodes>
            0 -1 19 -6.0698524117469788e-02</internalNodes>
          <leafValues>
            9.0964353084564209e-01 -5.1466381549835205e-01</leafValues></_>
        <_>
          <internalNodes>
            0 -1 16 -2.2132433950901031e-03</internalNodes>
          <leafValues>
            -9.8809945583343506e-01 5.3660917282104492e-01</leafValues></_></weakClassifiers></_>
    <!-- stage 4 -->
    <_>
      <maxWeakCount>2</maxWeakCount>
      <stageThreshold>-1.5476122498512268e-01</stageThreshold>
      <weakClassifiers>
        <_>
          <internalNodes>
            0 -1 20 5.4688623640686274e-04</internalNodes>
          <leafValues>
            -9.8165136575698853e-01 6.4457833766937256e-01</leafValues></_>
        <_>
          <internalNodes>
            0 -1 12 5.2030336111783981e-02</internalNodes>
          <leafValues>
            -7.9007506370544434e-01 8.2689017057418823e-01</leafValues></_></weakClassifiers></_>
    <!-- stage 5 -->
    <_>
      <maxWeakCount>2</maxWeakCount>
      <stageThreshold>-4.9961885809898376e-01</stageThreshold>
      <weakClassifiers>
        <_>
          <internalNodes>
            0 -1 18 -9.0452667791396379e-04</internalNodes>
          <leafValues>
            6.4723926782608032e-01 -9.4196426868438721e-01</leafValues></_>
        <_>
          <internalNodes>
            0 -1 5 -1.3286282774060965e-04</internalNodes>
          <leafValues>
            4.4234544038772583e-01 -9.5859289169311523e-01</leafValues></_></weakClassifiers></_>
    <!-- stage 6 -->
    <_>
      <maxWeakCount>3</maxWeakCount>
      <stageThreshold>-7.3077017068862915e-01</stageThreshold>
      <weakClassifiers>
        <_>
          <internalNodes>
            0 -1 10 9.6748411655426025e-02</internalNodes>
          <leafValues>
            -7.4468082189559937e-01 7.8358209133148193e-01</leafValues></_>
        <_>
          <internalNodes>
            0 -1 22 6.0532707720994949e-03</internalNodes>
          <leafValues>
            -5.0946503877639771e-01 9.1620635986328125e-01</leafValues></_>
        <_>
          <internalNodes>
            0 -1 0 2.8029377572238445e-03</internalNodes>
          <leafValues>
            -9.0229570865631104e-01 5.7855927944183350e-01</leafValues></_></weakClassifiers></_>
    <!-- stage 7 -->
    <_>
      <maxWeakCount>2</maxWeakCount>
      <stageThreshold>-8.7823756039142609e-02</stageThreshold>
      <weakClassifiers>
        <_>
          <internalNodes>
            0 -1 8 -1.1121975257992744e-02</internalNodes>
          <leafValues>
            7.8461539745330811e-01 -5.5348837375640869e-01</leafValues></_>
        <_>
          <internalNodes>
            0 -1 17 4.3847355991601944e-03</internalNodes>
          <leafValues>
            5.2512538433074951e-01 -8.7243914604187012e-01</leafValues></_></weakClassifiers></_>
    <!-- stage 8 -->
    <_>
      <maxWeakCount>2</maxWeakCount>
      <stageThreshold>-1.4688769355416298e-02</stageThreshold>
      <weakClassifiers>
        <_>
          <internalNodes>
            0 -1 11 6.8020001053810120e-02</internalNodes>
          <leafValues>
            -5.1156067848205566e-01 8.6764705181121826e-01</leafValues></_>
        <_>
          <internalNodes>
            0 -1 1 3.7743651773780584e-03</internalNodes>
          <leafValues>
            -1. 4.9687191843986511e-01</leafValues></_></weakClassifiers></_>
    <!-- stage 9 -->
    <_>
      <maxWeakCount>1</maxWeakCount>
      <stageThreshold>4.4782033562660217e-01</stageThreshold>
      <weakClassifiers>
        <_>
          <internalNodes>
            0 -1 9 1.9310314208269119e-02</internalNodes>
          <leafValues>
            4.4782033562660217e-01 -9.8833817243576050e-01</leafValues></_></weakClassifiers></_></stages>
  <features>
    <_>
      <rects>
        <_>
          0 1 2 6 -1.</_>
        <_>
          0 3 2 2 3.</_></rects>
      <tilted>0</tilted></_>
    <_>
      <rects>
        <_>
          0 7 2 12 -1.</_>
        <_>
          0 11 2 4 3.</_></rects>
      <tilted>0</tilted></_>
    <_>
      <rects>
        <_>
          0 12 2 3 -1.</_>
        <_>
          0 13 2 1 3.</_></rects>
      <tilted>0</tilted></_>
    <_>
      <rects>
        <_>
          0 22 2 3 -1.</_>
        <_>
          0 23 2 1 3.</_></rects>
      <tilted>0</tilted></_>
    <_>
      <rects>
        <_>
          0 29 4 8 -1.</_>
        <_>
          0 29 2 4 2.</_>
        <_>
          2 33 2 4 2.</_></rects>
      <tilted>0</tilted></_>
    <_>
      <rects>
        <_>
          0 32 2 4 -1.</_>
        <_>
          0 34 2 2 2.</_></rects>
      <tilted>0</tilted></_>
    <_>
      <rects>
        <_>
          0 33 4 4 -1.</_>
        <_>
          0 33 2 2 2.</_>
        <_>
          2 35 2 2 2.</_></rects>
      <tilted>0</tilted></_>
    <_>
      <rects>
        <_>
          0 35 2 2 -1.</_>
        <_>
          1 35 1 2 2.</_></rects>
      <tilted>0</tilted></_>
    <_>
      <rects>
        <_>
          0 35 4 2 -1.</_>
        <_>
          0 35 2 1 2.</_>
        <_>
          2 36 2 1 2.</_></rects>
      <tilted>0</tilted></_>
    <_>
      <rects>
        <_>
          1 7 2 12 -1.</_>
        <_>
          1 11 2 4 3.</_></rects>
      <tilted>0</tilted></_>
    <_>
      <rects>
        <_>
          1 12 6 24 -1.</_>
        <_>
          3 12 2 24 3.</_></rects>
      <tilted>0</tilted></_>
    <_>
      <rects>
        <_>
          1 18 3 17 -1.</_>
        <_>
          2 18 1 17 3.</_></rects>
      <tilted>0</tilted></_>
    <_>
      <rects>
        <_>
          1 18 6 13 -1.</_>
        <_>
          3 18 2 13 3.</_></rects>
      <tilted>0</tilted></_>
    <_>
      <rects>
        <_>
          1 29 2 7 -1.</_>
        <_>
          2 29 1 7 2.</_></rects>
      <tilted>0</tilted></_>
    <_>
      <rects>
        <_>
          2 33 4 4 -1.</_>
        <_>
          2 35 4 2 2.</_></rects>
      <tilted>0</tilted></_>
    <_>
      <rects>
        <_>
          4 0 4 12 -1.</_>
        <_>
          4 0 2 6 2.</_>
        <_>
          6 6 2 6 2.</_></rects>
      <tilted>0</tilted></_>
    <_>
      <rects>
        <_>
          4 17 2 18 -1.</_>
        <_>
          5 17 1 18 2.</_></rects>
      <tilted>0</tilted></_>
    <_>
      <rects>
        <_>
          4 17 2 20 -1.</_>
        <_>
          5 17 1 20 2.</_></rects>
      <tilted>0</tilted></_>
    <_>
      <rects>
        <_>
          4 18 4 1 -1.</_>
        <_>
          6 18 2 1 2.</_></rects>
      <tilted>0</tilted></_>
    <_>
      <rects>
        <_>
          6 0 2 30 -1.</_>
        <_>
          6 0 1 15 2.</_>
        <_>
          7 15 1 15 2.</_></rects>
      <tilted>0</tilted></_>
    <_>
      <rects>
        <_>
          6 12 2 2 -1.</_>
        <_>
          6 13 2 1 2.</_></rects>
      <tilted>0</tilted></_>
    <_>
      <rects>
        <_>
          6 23 2 2 -1.</_>
        <_>
          6 24 2 1 2.</_></rects>
      <tilted>0</tilted></_>
    <_>
      <rects>
        <_>
          6 35 2 2 -1.</_>
        <_>
          6 35 1 1 2.</_>
        <_>
          7 36 1 1 2.</_></rects>
      <tilted>0</tilted></_>
    <_>
      <rects>
        <_>
          7 25 1 12 -1.</_>
        <_>
          7 29 1 4 3.</_></rects>
      <tilted>0</tilted></_></features></cascade>
</opencv_storage>
