<?xml version="1.0"?>
<opencv_storage>
<cascade>
  <stageType>BOOST</stageType>
  <featureType>HAAR</featureType>
  <height>25</height>
  <width>40</width>
  <stageParams>
    <boostType>GAB</boostType>
    <minHitRate>9.9900001287460327e-01</minHitRate>
    <maxFalseAlarm>5.0000000000000000e-01</maxFalseAlarm>
    <weightTrimRate>9.4999999999999996e-01</weightTrimRate>
    <maxDepth>1</maxDepth>
    <maxWeakCount>100</maxWeakCount></stageParams>
  <featureParams>
    <maxCatCount>0</maxCatCount>
    <featSize>1</featSize>
    <mode>BASIC</mode></featureParams>
  <stageNum>11</stageNum>
  <stages>
    <!-- stage 0 -->
    <_>
      <maxWeakCount>1</maxWeakCount>
      <stageThreshold>9.8806917667388916e-01</stageThreshold>
      <weakClassifiers>
        <_>
          <internalNodes>
            0 -1 20 3.8735252618789673e-01</internalNodes>
          <leafValues>
            -9.9930340051651001e-01 9.8806917667388916e-01</leafValues></_></weakClassifiers></_>
    <!-- stage 1 -->
    <_>
      <maxWeakCount>5</maxWeakCount>
      <stageThreshold>-1.2467267513275146e+00</stageThreshold>
      <weakClassifiers>
        <_>
          <internalNodes>
            0 -1 48 -4.0929965674877167e-02</internalNodes>
          <leafValues>
            8.6455720663070679e-01 -8.7633419036865234e-01</leafValues></_>
        <_>
          <internalNodes>
            0 -1 24 -2.3538556415587664e-03</internalNodes>
          <leafValues>
            6.5426158905029297e-01 -9.2061746120452881e-01</leafValues></_>
        <_>
          <internalNodes>
            0 -1 32 6.7420884966850281e-02</internalNodes>
          <leafValues>
            -6.0227787494659424e-01 8.4201127290725708e-01</leafValues></_>
        <_>
          <internalNodes>
            0 -1 22 5.0595575571060181e-01</internalNodes>
          <leafValues>
            -8.1876492500305176e-01 6.7415821552276611e-01</leafValues></_>
        <_>
          <internalNodes>
            0 -1 10 1.2732460163533688e-03</internalNodes>
          <leafValues>
            -8.1855028867721558e-01 4.7834452986717224e-01</leafValues></_></weakClassifiers></_>
    <!-- stage 2 -->
    <_>
      <maxWeakCount>5</maxWeakCount>
      <stageThreshold>-1.2036801576614380e+00</stageThreshold>
      <weakClassifiers>
        <_>
          <internalNodes>
            0 -1 33 5.4458291269838810e-03</internalNodes>
          <leafValues>
            -8.9403975009918213e-01 8.2411402463912964e-01</leafValues></_>
        <_>
          <internalNodes>
            0 -1 34 9.2698723077774048e-02</internalNodes>
          <leafValues>
            -7.3652034997940063e-01 7.6395964622497559e-01</leafValues></_>
        <_>
          <internalNodes>
            0 -1 7 6.5109527111053467e-01</internalNodes>
          <leafValues>
            -7.6217943429946899e-01 5.8718234300613403e-01</leafValues></_>
        <_>
          <internalNodes>
            0 -1 47 -2.5882866233587265e-02</internalNodes>
          <leafValues>
            5.4750704765319824e-01 -8.2893818616867065e-01</leafValues></_>
        <_>
          <internalNodes>
            0 -1 41 -1.9980112090706825e-02</internalNodes>
          <leafValues>
            6.6863578557968140e-01 -5.5878728628158569e-01</leafValues></_></weakClassifiers></_>
    <!-- stage 3 -->
    <_>
      <maxWeakCount>5</maxWeakCount>
      <stageThreshold>-1.3665875196456909e+00</stageThreshold>
      <weakClassifiers>
        <_>
          <internalNodes>
            0 -1 28 -6.0408063232898712e-02</internalNodes>
          <leafValues>
            8.3160829544067383e-01 -7.2253131866455078e-01</leafValues></_>
        <_>
          <internalNodes>
            0 -1 31 9.3277871608734131e-02</internalNodes>
          <leafValues>
            -7.1400088071823120e-01 6.2245184183120728e-01</leafValues></_>
        <_>
          <internalNodes>
            0 -1 52 1.3164630159735680e-02</internalNodes>
          <leafValues>
            -8.2929605245590210e-01 4.3638160824775696e-01</leafValues></_>
        <_>
          <internalNodes>
            0 -1 18 -3.2275244593620300e-02</internalNodes>
          <leafValues>
            5.8068293333053589e-01 -6.8677794933319092e-01</leafValues></_>
        <_>
          <internalNodes>
            0 -1 21 -4.4936207123100758e-03</internalNodes>
          <leafValues>
            3.1855773925781250e-01 -9.4545912742614746e-01</leafValues></_></weakClassifiers></_>
    <!-- stage 4 -->
    <_>
      <maxWeakCount>6</maxWeakCount>
      <stageThreshold>-9.6648234128952026e-01</stageThreshold>
      <weakClassifiers>
        <_>
          <internalNodes>
            0 -1 42 -3.6322407424449921e-02</internalNodes>
          <leafValues>
            7.8756475448608398e-01 -6.4260929822921753e-01</leafValues></_>
        <_>
          <internalNodes>
            0 -1 17 -2.2852124646306038e-02</internalNodes>
          <leafValues>
            6.4809399843215942e-01 -6.3801610469818115e-01</leafValues></_>
        <_>
          <internalNodes>
            0 -1 37 -2.8290571644902229e-02</internalNodes>
          <leafValues>
            6.7664933204650879e-01 -5.2522212266921997e-01</leafValues></_>
        <_>
          <internalNodes>
            0 -1 50 5.1239663735032082e-03</internalNodes>
          <leafValues>
            -8.8785147666931152e-01 3.8752889633178711e-01</leafValues></_>
        <_>
          <internalNodes>
            0 -1 45 -2.2661922499537468e-02</internalNodes>
          <leafValues>
            2.9224172234535217e-01 -9.5016139745712280e-01</leafValues></_>
        <_>
          <internalNodes>
            0 -1 55 -4.3039052980020642e-04</internalNodes>
          <leafValues>
            2.3310351371765137e-01 -9.6434587240219116e-01</leafValues></_></weakClassifiers></_>
    <!-- stage 5 -->
    <_>
      <maxWeakCount>8</maxWeakCount>
      <stageThreshold>-1.6389656066894531e+00</stageThreshold>
      <weakClassifiers>
        <_>
          <internalNodes>
            0 -1 19 1.3674116134643555e-01</internalNodes>
          <leafValues>
            -7.1193772554397583e-01 6.7036509513854980e-01</leafValues></_>
        <_>
          <internalNodes>
            0 -1 46 -4.5930400490760803e-02</internalNodes>
          <leafValues>
            4.9229627847671509e-01 -7.8923940658569336e-01</leafValues></_>
        <_>
          <internalNodes>
            0 -1 10 1.2528386432677507e-03</internalNodes>
          <leafValues>
            -8.2948857545852661e-01 3.2867929339408875e-01</leafValues></_>
        <_>
          <internalNodes>
            0 -1 16 8.7472200393676758e-03</internalNodes>
          <leafValues>
            2.3211601376533508e-01 -9.9900048971176147e-01</leafValues></_>
        <_>
          <internalNodes>
            0 -1 2 3.9504116773605347e-01</internalNodes>
          <leafValues>
            -7.2361350059509277e-01 4.5763653516769409e-01</leafValues></_>
        <_>
          <internalNodes>
            0 -1 15 6.8774998188018799e-02</internalNodes>
          <leafValues>
            -5.6322222948074341e-01 6.2953025102615356e-01</leafValues></_>
        <_>
          <internalNodes>
            0 -1 6 -1.2026722542941570e-03</internalNodes>
          <leafValues>
            3.1683975458145142e-01 -9.5023560523986816e-01</leafValues></_>
        <_>
          <internalNodes>
            0 -1 1 -1.1637965217232704e-02</internalNodes>
          <leafValues>
            -9.8539668321609497e-01 2.4832999706268311e-01</leafValues></_></weakClassifiers></_>
    <!-- stage 6 -->
    <_>
      <maxWeakCount>5</maxWeakCount>
      <stageThreshold>-6.5814173221588135e-01</stageThreshold>
      <weakClassifiers>
        <_>
          <internalNodes>
            0 -1 43 -1.0908957570791245e-02</internalNodes>
          <leafValues>
            6.1801189184188843e-01 -7.6277917623519897e-01</leafValues></_>
        <_>
          <internalNodes>
            0 -1 14 -1.2802031822502613e-02</internalNodes>
          <leafValues>
            4.3661475181579590e-01 -7.9131418466567993e-01</leafValues></_>
        <_>
          <internalNodes>
            0 -1 12 3.4358635544776917e-01</internalNodes>
          <leafValues>
            -7.3803162574768066e-01 4.8677799105644226e-01</leafValues></_>
        <_>
          <internalNodes>
            0 -1 25 3.8318997621536255e-01</internalNodes>
          <leafValues>
            -4.9090775847434998e-01 7.1850591897964478e-01</leafValues></_>
        <_>
          <internalNodes>
            0 -1 39 -1.6513890027999878e-01</internalNodes>
          <leafValues>
            9.4799810647964478e-01 -3.0933231115341187e-01</leafValues></_></weakClassifiers></_>
    <!-- stage 7 -->
    <_>
      <maxWeakCount>8</maxWeakCount>
      <stageThreshold>-1.0776282548904419e+00</stageThreshold>
      <weakClassifiers>
        <_>
          <internalNodes>
            0 -1 36 -9.0182675048708916e-03</internalNodes>
          <leafValues>
            6.2968051433563232e-01 -7.5360924005508423e-01</leafValues></_>
        <_>
          <internalNodes>
            0 -1 51 -5.1001561805605888e-03</internalNodes>
          <leafValues>
            3.8448309898376465e-01 -9.4534718990325928e-01</leafValues></_>
        <_>
          <internalNodes>
            0 -1 53 -8.5738087072968483e-03</internalNodes>
          <leafValues>
            4.0288195013999939e-01 -7.9389709234237671e-01</leafValues></_>
        <_>
          <internalNodes>
            0 -1 44 -4.4759094715118408e-02</internalNodes>
          <leafValues>
            4.3398940563201904e-01 -7.0388489961624146e-01</leafValues></_>
        <_>
          <internalNodes>
            0 -1 0 -8.7222497677430511e-04</internalNodes>
          <leafValues>
            3.1023034453392029e-01 -9.5786619186401367e-01</leafValues></_>
        <_>
          <internalNodes>
            0 -1 27 7.7681250870227814e-02</internalNodes>
          <leafValues>
            -4.3060466647148132e-01 8.7779587507247925e-01</leafValues></_>
        <_>
          <internalNodes>
            0 -1 56 -4.9719624221324921e-03</internalNodes>
          <leafValues>
            -9.3213158845901489e-01 3.6689889430999756e-01</leafValues></_>
        <_>
          <internalNodes>
            0 -1 26 -1.0979427956044674e-02</internalNodes>
          <leafValues>
            7.3471128940582275e-01 -5.3358745574951172e-01</leafValues></_></weakClassifiers></_>
    <!-- stage 8 -->
    <_>
      <maxWeakCount>6</maxWeakCount>
      <stageThreshold>-1.9082466363906860e+00</stageThreshold>
      <weakClassifiers>
        <_>
          <internalNodes>
            0 -1 54 1.5140448231250048e-03</internalNodes>
          <leafValues>
            -8.8679248094558716e-01 6.7426711320877075e-01</leafValues></_>
        <_>
          <internalNodes>
            0 -1 23 -5.4374113678932190e-03</internalNodes>
          <leafValues>
            7.4309259653091431e-01 -6.8194729089736938e-01</leafValues></_>
        <_>
          <internalNodes>
            0 -1 35 -1.0812096297740936e-01</internalNodes>
          <leafValues>
            7.7340221405029297e-01 -5.2857571840286255e-01</leafValues></_>
        <_>
          <internalNodes>
            0 -1 3 -1.0665485169738531e-03</internalNodes>
          <leafValues>
            4.5347887277603149e-01 -9.6023535728454590e-01</leafValues></_>
        <_>
          <internalNodes>
            0 -1 13 -1.6971783712506294e-02</internalNodes>
          <leafValues>
            -9.2588168382644653e-01 4.2201849818229675e-01</leafValues></_>
        <_>
          <internalNodes>
            0 -1 8 -1.9895187579095364e-03</internalNodes>
          <leafValues>
            3.9950534701347351e-01 -8.3377391099929810e-01</leafValues></_></weakClassifiers></_>
    <!-- stage 9 -->
    <_>
      <maxWeakCount>6</maxWeakCount>
      <stageThreshold>-1.6572098731994629e+00</stageThreshold>
      <weakClassifiers>
        <_>
          <internalNodes>
            0 -1 40 -8.7662348523736000e-03</internalNodes>
          <leafValues>
            9.0284681320190430e-01 -5.4576855897903442e-01</leafValues></_>
        <_>
          <internalNodes>
            0 -1 38 5.9525282267713919e-05</internalNodes>
          <leafValues>
            -8.7032318115234375e-01 7.1259069442749023e-01</leafValues></_>
        <_>
          <internalNodes>
            0 -1 11 -2.9210657812654972e-03</internalNodes>
          <leafValues>
            6.9934093952178955e-01 -8.4793156385421753e-01</leafValues></_>
        <_>
          <internalNodes>
            0 -1 49 -3.3645090297795832e-05</internalNodes>
          <leafValues>
            6.7622470855712891e-01 -7.6470810174942017e-01</leafValues></_>
        <_>
          <internalNodes>
            0 -1 5 -2.4300698190927505e-02</internalNodes>
          <leafValues>
            6.9469070434570312e-01 -7.1667659282684326e-01</leafValues></_>
        <_>
          <internalNodes>
            0 -1 4 -3.9339559152722359e-03</internalNodes>
          <leafValues>
            -9.6814703941345215e-01 5.4092562198638916e-01</leafValues></_></weakClassifiers></_>
    <!-- stage 10 -->
    <_>
      <maxWeakCount>3</maxWeakCount>
      <stageThreshold>-8.7854021787643433e-01</stageThreshold>
      <weakClassifiers>
        <_>
          <internalNodes>
            0 -1 29 -3.8161445991136134e-04</internalNodes>
          <leafValues>
            -8.3776932954788208e-01 1.</leafValues></_>
        <_>
          <internalNodes>
            0 -1 9 -2.1579194813966751e-02</internalNodes>
          <leafValues>
            -9.3711650371551514e-01 8.8546860218048096e-01</leafValues></_>
        <_>
          <internalNodes>
            0 -1 30 5.7048341259360313e-03</internalNodes>
          <leafValues>
            8.9634561538696289e-01 -8.9524430036544800e-01</leafValues></_></weakClassifiers></_></stages>
  <features>
    <_>
      <rects>
        <_>
          0 0 1 24 -1.</_>
        <_>
          0 12 1 12 2.</_></rects>
      <tilted>0</tilted></_>
    <_>
      <rects>
        <_>
          0 0 2 22 -1.</_>
        <_>
          0 11 2 11 2.</_></rects>
      <tilted>0</tilted></_>
    <_>
      <rects>
        <_>
          0 1 26 22 -1.</_>
        <_>
          13 1 13 22 2.</_></rects>
      <tilted>0</tilted></_>
    <_>
      <rects>
        <_>
          0 6 21 1 -1.</_>
        <_>
          7 6 7 1 3.</_></rects>
      <tilted>0</tilted></_>
    <_>
      <rects>
        <_>
          0 7 3 8 -1.</_>
        <_>
          0 11 3 4 2.</_></rects>
      <tilted>0</tilted></_>
    <_>
      <rects>
        <_>
          0 10 33 9 -1.</_>
        <_>
          0 13 33 3 3.</_></rects>
      <tilted>0</tilted></_>
    <_>
      <rects>
        <_>
          1 0 1 24 -1.</_>
        <_>
          1 12 1 12 2.</_></rects>
      <tilted>0</tilted></_>
    <_>
      <rects>
        <_>
          2 2 36 19 -1.</_>
        <_>
          14 2 12 19 3.</_></rects>
      <tilted>0</tilted></_>
    <_>
      <rects>
        <_>
          2 5 15 3 -1.</_>
        <_>
          7 5 5 3 3.</_></rects>
      <tilted>0</tilted></_>
    <_>
      <rects>
        <_>
          2 8 19 14 -1.</_>
        <_>
          2 15 19 7 2.</_></rects>
      <tilted>0</tilted></_>
    <_>
      <rects>
        <_>
          2 11 4 14 -1.</_>
        <_>
          2 11 2 7 2.</_>
        <_>
          4 18 2 7 2.</_></rects>
      <tilted>0</tilted></_>
    <_>
      <rects>
        <_>
          3 0 9 14 -1.</_>
        <_>
          6 0 3 14 3.</_></rects>
      <tilted>0</tilted></_>
    <_>
      <rects>
        <_>
          3 1 22 20 -1.</_>
        <_>
          14 1 11 20 2.</_></rects>
      <tilted>0</tilted></_>
    <_>
      <rects>
        <_>
          3 2 15 5 -1.</_>
        <_>
          8 2 5 5 3.</_></rects>
      <tilted>0</tilted></_>
    <_>
      <rects>
        <_>
          3 6 10 10 -1.</_>
        <_>
          3 11 10 5 2.</_></rects>
      <tilted>0</tilted></_>
    <_>
      <rects>
        <_>
          3 14 27 9 -1.</_>
        <_>
          3 17 27 3 3.</_></rects>
      <tilted>0</tilted></_>
    <_>
      <rects>
        <_>
          3 24 22 1 -1.</_>
        <_>
          14 24 11 1 2.</_></rects>
      <tilted>0</tilted></_>
    <_>
      <rects>
        <_>
          4 10 26 9 -1.</_>
        <_>
          4 13 26 3 3.</_></rects>
      <tilted>0</tilted></_>
    <_>
      <rects>
        <_>
          4 11 12 8 -1.</_>
        <_>
          8 11 4 8 3.</_></rects>
      <tilted>0</tilted></_>
    <_>
      <rects>
        <_>
          4 15 36 3 -1.</_>
        <_>
          16 15 12 3 3.</_></rects>
      <tilted>0</tilted></_>
    <_>
      <rects>
        <_>
          5 5 33 15 -1.</_>
        <_>
          16 5 11 15 3.</_></rects>
      <tilted>0</tilted></_>
    <_>
      <rects>
        <_>
          7 0 2 14 -1.</_>
        <_>
          7 7 2 7 2.</_></rects>
      <tilted>0</tilted></_>
    <_>
      <rects>
        <_>
          7 0 27 21 -1.</_>
        <_>
          16 0 9 21 3.</_></rects>
      <tilted>0</tilted></_>
    <_>
      <rects>
        <_>
          7 2 29 4 -1.</_>
        <_>
          7 4 29 2 2.</_></rects>
      <tilted>0</tilted></_>
    <_>
      <rects>
        <_>
          8 2 1 14 -1.</_>
        <_>
          8 9 1 7 2.</_></rects>
      <tilted>0</tilted></_>
    <_>
      <rects>
        <_>
          8 11 30 9 -1.</_>
        <_>
          18 11 10 9 3.</_></rects>
      <tilted>0</tilted></_>
    <_>
      <rects>
        <_>
          9 12 21 9 -1.</_>
        <_>
          9 15 21 3 3.</_></rects>
      <tilted>0</tilted></_>
    <_>
      <rects>
        <_>
          9 13 18 9 -1.</_>
        <_>
          9 16 18 3 3.</_></rects>
      <tilted>0</tilted></_>
    <_>
      <rects>
        <_>
          11 17 17 8 -1.</_>
        <_>
          11 21 17 4 2.</_></rects>
      <tilted>0</tilted></_>
    <_>
      <rects>
        <_>
          12 7 2 6 -1.</_>
        <_>
          12 7 1 3 2.</_>
        <_>
          13 10 1 3 2.</_></rects>
      <tilted>0</tilted></_>
    <_>
      <rects>
        <_>
          12 20 9 3 -1.</_>
        <_>
          15 20 3 3 3.</_></rects>
      <tilted>0</tilted></_>
    <_>
      <rects>
        <_>
          13 0 10 19 -1.</_>
        <_>
          18 0 5 19 2.</_></rects>
      <tilted>0</tilted></_>
    <_>
      <rects>
        <_>
          13 12 14 12 -1.</_>
        <_>
          13 16 14 4 3.</_></rects>
      <tilted>0</tilted></_>
    <_>
      <rects>
        <_>
          14 14 14 4 -1.</_>
        <_>
          14 16 14 2 2.</_></rects>
      <tilted>0</tilted></_>
    <_>
      <rects>
        <_>
          15 7 12 18 -1.</_>
        <_>
          15 13 12 6 3.</_></rects>
      <tilted>0</tilted></_>
    <_>
      <rects>
        <_>
          15 13 24 4 -1.</_>
        <_>
          27 13 12 4 2.</_></rects>
      <tilted>0</tilted></_>
    <_>
      <rects>
        <_>
          16 17 3 8 -1.</_>
        <_>
          16 21 3 4 2.</_></rects>
      <tilted>0</tilted></_>
    <_>
      <rects>
        <_>
          17 1 8 12 -1.</_>
        <_>
          17 5 8 4 3.</_></rects>
      <tilted>0</tilted></_>
    <_>
      <rects>
        <_>
          17 4 4 1 -1.</_>
        <_>
          19 4 2 1 2.</_></rects>
      <tilted>0</tilted></_>
    <_>
      <rects>
        <_>
          17 5 12 16 -1.</_>
        <_>
          23 5 6 16 2.</_></rects>
      <tilted>0</tilted></_>
    <_>
      <rects>
        <_>
          19 19 13 6 -1.</_>
        <_>
          19 21 13 2 3.</_></rects>
      <tilted>0</tilted></_>
    <_>
      <rects>
        <_>
          20 1 7 12 -1.</_>
        <_>
          20 5 7 4 3.</_></rects>
      <tilted>0</tilted></_>
    <_>
      <rects>
        <_>
          20 16 7 8 -1.</_>
        <_>
          20 20 7 4 2.</_></rects>
      <tilted>0</tilted></_>
    <_>
      <rects>
        <_>
          21 9 13 9 -1.</_>
        <_>
          21 12 13 3 3.</_></rects>
      <tilted>0</tilted></_>
    <_>
      <rects>
        <_>
          22 2 12 23 -1.</_>
        <_>
          26 2 4 23 3.</_></rects>
      <tilted>0</tilted></_>
    <_>
      <rects>
        <_>
          24 0 15 12 -1.</_>
        <_>
          29 0 5 12 3.</_></rects>
      <tilted>0</tilted></_>
    <_>
      <rects>
        <_>
          25 5 13 18 -1.</_>
        <_>
          25 11 13 6 3.</_></rects>
      <tilted>0</tilted></_>
    <_>
      <rects>
        <_>
          27 0 7 18 -1.</_>
        <_>
          27 9 7 9 2.</_></rects>
      <tilted>0</tilted></_>
    <_>
      <rects>
        <_>
          27 5 9 18 -1.</_>
        <_>
          27 11 9 6 3.</_></rects>
      <tilted>0</tilted></_>
    <_>
      <rects>
        <_>
          27 7 2 6 -1.</_>
        <_>
          27 7 1 3 2.</_>
        <_>
          28 10 1 3 2.</_></rects>
      <tilted>0</tilted></_>
    <_>
      <rects>
        <_>
          28 0 12 22 -1.</_>
        <_>
          28 0 6 11 2.</_>
        <_>
          34 11 6 11 2.</_></rects>
      <tilted>0</tilted></_>
    <_>
      <rects>
        <_>
          29 5 9 17 -1.</_>
        <_>
          32 5 3 17 3.</_></rects>
      <tilted>0</tilted></_>
    <_>
      <rects>
        <_>
          29 11 8 14 -1.</_>
        <_>
          29 18 8 7 2.</_></rects>
      <tilted>0</tilted></_>
    <_>
      <rects>
        <_>
          34 3 2 21 -1.</_>
        <_>
          34 10 2 7 3.</_></rects>
      <tilted>0</tilted></_>
    <_>
      <rects>
        <_>
          34 13 1 12 -1.</_>
        <_>
          34 19 1 6 2.</_></rects>
      <tilted>0</tilted></_>
    <_>
      <rects>
        <_>
          39 0 1 14 -1.</_>
        <_>
          39 7 1 7 2.</_></rects>
      <tilted>0</tilted></_>
    <_>
      <rects>
        <_>
          39 4 1 21 -1.</_>
        <_>
          39 11 1 7 3.</_></rects>
      <tilted>0</tilted></_></features></cascade>
</opencv_storage>
