<?xml version="1.0"?>
<opencv_storage>
<cascade>
  <stageType>BOOST</stageType>
  <featureType>HAAR</featureType>
  <height>25</height>
  <width>40</width>
  <stageParams>
    <boostType>GAB</boostType>
    <minHitRate>9.9900001287460327e-01</minHitRate>
    <maxFalseAlarm>5.0000000000000000e-01</maxFalseAlarm>
    <weightTrimRate>9.4999999999999996e-01</weightTrimRate>
    <maxDepth>1</maxDepth>
    <maxWeakCount>100</maxWeakCount></stageParams>
  <featureParams>
    <maxCatCount>0</maxCatCount>
    <featSize>1</featSize>
    <mode>BASIC</mode></featureParams>
  <stageNum>16</stageNum>
  <stages>
    <!-- stage 0 -->
    <_>
      <maxWeakCount>4</maxWeakCount>
      <stageThreshold>-1.7646636962890625e+00</stageThreshold>
      <weakClassifiers>
        <_>
          <internalNodes>
            0 -1 30 1.2667730450630188e-01</internalNodes>
          <leafValues>
            -9.0240502357482910e-01 9.7157341241836548e-01</leafValues></_>
        <_>
          <internalNodes>
            0 -1 70 -6.9122247397899628e-02</internalNodes>
          <leafValues>
            8.2716530561447144e-01 -9.3458563089370728e-01</leafValues></_>
        <_>
          <internalNodes>
            0 -1 36 2.8045064210891724e-01</internalNodes>
          <leafValues>
            -5.3166747093200684e-01 8.5930013656616211e-01</leafValues></_>
        <_>
          <internalNodes>
            0 -1 66 4.0136110037565231e-03</internalNodes>
          <leafValues>
            -8.4272086620330811e-01 6.0399436950683594e-01</leafValues></_></weakClassifiers></_>
    <!-- stage 1 -->
    <_>
      <maxWeakCount>3</maxWeakCount>
      <stageThreshold>-8.4633475542068481e-01</stageThreshold>
      <weakClassifiers>
        <_>
          <internalNodes>
            0 -1 50 4.2362540960311890e-02</internalNodes>
          <leafValues>
            -8.5169339179992676e-01 9.4989663362503052e-01</leafValues></_>
        <_>
          <internalNodes>
            0 -1 112 -8.9676538482308388e-03</internalNodes>
          <leafValues>
            7.9471242427825928e-01 -8.5931712388992310e-01</leafValues></_>
        <_>
          <internalNodes>
            0 -1 33 3.3380839228630066e-01</internalNodes>
          <leafValues>
            -6.1818313598632812e-01 8.6467576026916504e-01</leafValues></_></weakClassifiers></_>
    <!-- stage 2 -->
    <_>
      <maxWeakCount>2</maxWeakCount>
      <stageThreshold>-1.3464851677417755e-01</stageThreshold>
      <weakClassifiers>
        <_>
          <internalNodes>
            0 -1 46 2.9935512691736221e-02</internalNodes>
          <leafValues>
            -8.6950850486755371e-01 8.8080310821533203e-01</leafValues></_>
        <_>
          <internalNodes>
            0 -1 2 -1.2062540277838707e-02</internalNodes>
          <leafValues>
            7.3485994338989258e-01 -8.4353739023208618e-01</leafValues></_></weakClassifiers></_>
    <!-- stage 3 -->
    <_>
      <maxWeakCount>5</maxWeakCount>
      <stageThreshold>-9.3242448568344116e-01</stageThreshold>
      <weakClassifiers>
        <_>
          <internalNodes>
            0 -1 86 -1.0427654534578323e-01</internalNodes>
          <leafValues>
            8.8432043790817261e-01 -6.5859198570251465e-01</leafValues></_>
        <_>
          <internalNodes>
            0 -1 118 -9.9285915493965149e-03</internalNodes>
          <leafValues>
            6.3124823570251465e-01 -9.6360856294631958e-01</leafValues></_>
        <_>
          <internalNodes>
            0 -1 11 2.9473880305886269e-02</internalNodes>
          <leafValues>
            -8.9593476057052612e-01 3.8950210809707642e-01</leafValues></_>
        <_>
          <internalNodes>
            0 -1 51 4.1381549835205078e-01</internalNodes>
          <leafValues>
            -4.9256998300552368e-01 7.1418476104736328e-01</leafValues></_>
        <_>
          <internalNodes>
            0 -1 90 -8.3732027560472488e-03</internalNodes>
          <leafValues>
            5.3667253255844116e-01 -7.5006848573684692e-01</leafValues></_></weakClassifiers></_>
    <!-- stage 4 -->
    <_>
      <maxWeakCount>6</maxWeakCount>
      <stageThreshold>-1.0025283098220825e+00</stageThreshold>
      <weakClassifiers>
        <_>
          <internalNodes>
            0 -1 25 3.2060408592224121e-01</internalNodes>
          <leafValues>
            -5.3400868177413940e-01 8.7145680189132690e-01</leafValues></_>
        <_>
          <internalNodes>
            0 -1 103 -1.9554452970623970e-02</internalNodes>
          <leafValues>
            6.0203969478607178e-01 -7.7395039796829224e-01</leafValues></_>
        <_>
          <internalNodes>
            0 -1 41 -5.1626168191432953e-02</internalNodes>
          <leafValues>
            5.6752133369445801e-01 -5.6609517335891724e-01</leafValues></_>
        <_>
          <internalNodes>
            0 -1 6 -9.3351933173835278e-04</internalNodes>
          <leafValues>
            3.2687431573867798e-01 -8.3049172163009644e-01</leafValues></_>
        <_>
          <internalNodes>
            0 -1 26 -2.0949337631464005e-02</internalNodes>
          <leafValues>
            -8.5826665163040161e-01 2.6581037044525146e-01</leafValues></_>
        <_>
          <internalNodes>
            0 -1 95 -5.7922963052988052e-02</internalNodes>
          <leafValues>
            2.7884128689765930e-01 -7.7807986736297607e-01</leafValues></_></weakClassifiers></_>
    <!-- stage 5 -->
    <_>
      <maxWeakCount>7</maxWeakCount>
      <stageThreshold>-9.8798960447311401e-01</stageThreshold>
      <weakClassifiers>
        <_>
          <internalNodes>
            0 -1 37 2.1088480949401855e-01</internalNodes>
          <leafValues>
            -2.1778906881809235e-01 9.0807116031646729e-01</leafValues></_>
        <_>
          <internalNodes>
            0 -1 4 -1.3292361050844193e-02</internalNodes>
          <leafValues>
            -9.5887863636016846e-01 5.2730768918991089e-01</leafValues></_>
        <_>
          <internalNodes>
            0 -1 71 -4.6819720417261124e-02</internalNodes>
          <leafValues>
            8.1985253095626831e-01 -4.0935596823692322e-01</leafValues></_>
        <_>
          <internalNodes>
            0 -1 78 -5.8079585433006287e-02</internalNodes>
          <leafValues>
            8.4971237182617188e-01 -2.7185168862342834e-01</leafValues></_>
        <_>
          <internalNodes>
            0 -1 5 -4.7023497521877289e-02</internalNodes>
          <leafValues>
            3.3546966314315796e-01 -8.3902198076248169e-01</leafValues></_>
        <_>
          <internalNodes>
            0 -1 9 -6.7826852202415466e-02</internalNodes>
          <leafValues>
            4.1858121752738953e-01 -6.1574137210845947e-01</leafValues></_>
        <_>
          <internalNodes>
            0 -1 81 -8.3203777670860291e-02</internalNodes>
          <leafValues>
            7.0381337404251099e-01 -3.3602878451347351e-01</leafValues></_></weakClassifiers></_>
    <!-- stage 6 -->
    <_>
      <maxWeakCount>6</maxWeakCount>
      <stageThreshold>-1.0441192388534546e+00</stageThreshold>
      <weakClassifiers>
        <_>
          <internalNodes>
            0 -1 77 -1.4030081033706665e-01</internalNodes>
          <leafValues>
            8.4766155481338501e-01 -6.5517240762710571e-01</leafValues></_>
        <_>
          <internalNodes>
            0 -1 113 1.0313072241842747e-02</internalNodes>
          <leafValues>
            -6.4439344406127930e-01 6.3630968332290649e-01</leafValues></_>
        <_>
          <internalNodes>
            0 -1 73 8.4205279126763344e-03</internalNodes>
          <leafValues>
            -6.3517034053802490e-01 4.5222464203834534e-01</leafValues></_>
        <_>
          <internalNodes>
            0 -1 54 3.3314293622970581e-01</internalNodes>
          <leafValues>
            -4.2248430848121643e-01 7.0613592863082886e-01</leafValues></_>
        <_>
          <internalNodes>
            0 -1 84 -5.8915885165333748e-03</internalNodes>
          <leafValues>
            5.7753229141235352e-01 -4.2419680953025818e-01</leafValues></_>
        <_>
          <internalNodes>
            0 -1 124 3.3603645861148834e-03</internalNodes>
          <leafValues>
            2.3446413874626160e-01 -9.6064668893814087e-01</leafValues></_></weakClassifiers></_>
    <!-- stage 7 -->
    <_>
      <maxWeakCount>7</maxWeakCount>
      <stageThreshold>-8.6687147617340088e-01</stageThreshold>
      <weakClassifiers>
        <_>
          <internalNodes>
            0 -1 110 6.7423079162836075e-03</internalNodes>
          <leafValues>
            -7.2508144378662109e-01 7.6416009664535522e-01</leafValues></_>
        <_>
          <internalNodes>
            0 -1 45 -5.1683798432350159e-02</internalNodes>
          <leafValues>
            5.9238064289093018e-01 -5.0796699523925781e-01</leafValues></_>
        <_>
          <internalNodes>
            0 -1 20 -1.4179794117808342e-02</internalNodes>
          <leafValues>
            4.4387516379356384e-01 -5.5600118637084961e-01</leafValues></_>
        <_>
          <internalNodes>
            0 -1 43 8.3926011575385928e-04</internalNodes>
          <leafValues>
            2.4173001945018768e-01 -9.1153681278228760e-01</leafValues></_>
        <_>
          <internalNodes>
            0 -1 98 -3.3684652298688889e-02</internalNodes>
          <leafValues>
            3.5375416278839111e-01 -5.5717897415161133e-01</leafValues></_>
        <_>
          <internalNodes>
            0 -1 27 -1.2975632853340358e-04</internalNodes>
          <leafValues>
            1.9449080526828766e-01 -8.6301553249359131e-01</leafValues></_>
        <_>
          <internalNodes>
            0 -1 56 5.9899417683482170e-03</internalNodes>
          <leafValues>
            1.8983310461044312e-01 -8.8511073589324951e-01</leafValues></_></weakClassifiers></_>
    <!-- stage 8 -->
    <_>
      <maxWeakCount>9</maxWeakCount>
      <stageThreshold>-1.3788927793502808e+00</stageThreshold>
      <weakClassifiers>
        <_>
          <internalNodes>
            0 -1 48 3.2295146957039833e-03</internalNodes>
          <leafValues>
            -5.0103306770324707e-01 7.7676641941070557e-01</leafValues></_>
        <_>
          <internalNodes>
            0 -1 49 3.1319448351860046e-01</internalNodes>
          <leafValues>
            -2.6735112071037292e-01 7.7136313915252686e-01</leafValues></_>
        <_>
          <internalNodes>
            0 -1 72 -1.2012058869004250e-02</internalNodes>
          <leafValues>
            4.6417143940925598e-01 -6.1795139312744141e-01</leafValues></_>
        <_>
          <internalNodes>
            0 -1 14 -3.3660576445981860e-04</internalNodes>
          <leafValues>
            3.2313090562820435e-01 -8.1251281499862671e-01</leafValues></_>
        <_>
          <internalNodes>
            0 -1 59 8.2622822374105453e-03</internalNodes>
          <leafValues>
            -6.5286475419998169e-01 2.7633196115493774e-01</leafValues></_>
        <_>
          <internalNodes>
            0 -1 57 1.4667987823486328e-02</internalNodes>
          <leafValues>
            -3.5707616806030273e-01 6.4052981138229370e-01</leafValues></_>
        <_>
          <internalNodes>
            0 -1 74 -3.0454788357019424e-03</internalNodes>
          <leafValues>
            6.2048822641372681e-01 -3.8385349512100220e-01</leafValues></_>
        <_>
          <internalNodes>
            0 -1 85 1.4492418617010117e-02</internalNodes>
          <leafValues>
            -2.6360818743705750e-01 7.0455056428909302e-01</leafValues></_>
        <_>
          <internalNodes>
            0 -1 1 -5.0556045025587082e-03</internalNodes>
          <leafValues>
            2.5959166884422302e-01 -9.1092139482498169e-01</leafValues></_></weakClassifiers></_>
    <!-- stage 9 -->
    <_>
      <maxWeakCount>9</maxWeakCount>
      <stageThreshold>-7.4644643068313599e-01</stageThreshold>
      <weakClassifiers>
        <_>
          <internalNodes>
            0 -1 47 -2.5665882974863052e-02</internalNodes>
          <leafValues>
            7.9660212993621826e-01 -4.3697103857994080e-01</leafValues></_>
        <_>
          <internalNodes>
            0 -1 64 5.6168464943766594e-03</internalNodes>
          <leafValues>
            -3.3199355006217957e-01 7.2615879774093628e-01</leafValues></_>
        <_>
          <internalNodes>
            0 -1 100 -4.8043616116046906e-02</internalNodes>
          <leafValues>
            7.0697313547134399e-01 -3.1912693381309509e-01</leafValues></_>
        <_>
          <internalNodes>
            0 -1 28 2.3701690137386322e-02</internalNodes>
          <leafValues>
            -2.9820886254310608e-01 6.5006065368652344e-01</leafValues></_>
        <_>
          <internalNodes>
            0 -1 24 -2.6994054205715656e-03</internalNodes>
          <leafValues>
            3.1513452529907227e-01 -7.6511913537979126e-01</leafValues></_>
        <_>
          <internalNodes>
            0 -1 97 -1.4270561747252941e-02</internalNodes>
          <leafValues>
            4.8783063888549805e-01 -3.5033586621284485e-01</leafValues></_>
        <_>
          <internalNodes>
            0 -1 38 4.1861933469772339e-01</internalNodes>
          <leafValues>
            -2.4484427273273468e-01 8.3150368928909302e-01</leafValues></_>
        <_>
          <internalNodes>
            0 -1 117 -1.2840634211897850e-02</internalNodes>
          <leafValues>
            8.3550822734832764e-01 -1.7462751269340515e-01</leafValues></_>
        <_>
          <internalNodes>
            0 -1 75 8.2753216847777367e-03</internalNodes>
          <leafValues>
            2.5636059045791626e-01 -9.2879694700241089e-01</leafValues></_></weakClassifiers></_>
    <!-- stage 10 -->
    <_>
      <maxWeakCount>13</maxWeakCount>
      <stageThreshold>-1.0595225095748901e+00</stageThreshold>
      <weakClassifiers>
        <_>
          <internalNodes>
            0 -1 120 -1.3524086680263281e-03</internalNodes>
          <leafValues>
            7.2107857465744019e-01 -7.6811593770980835e-01</leafValues></_>
        <_>
          <internalNodes>
            0 -1 35 5.6313717365264893e-01</internalNodes>
          <leafValues>
            -2.8541553020477295e-01 7.9364669322967529e-01</leafValues></_>
        <_>
          <internalNodes>
            0 -1 79 -4.9776405096054077e-02</internalNodes>
          <leafValues>
            7.2299903631210327e-01 -3.3160519599914551e-01</leafValues></_>
        <_>
          <internalNodes>
            0 -1 109 -2.3156205192208290e-02</internalNodes>
          <leafValues>
            3.0027613043785095e-01 -8.2209622859954834e-01</leafValues></_>
        <_>
          <internalNodes>
            0 -1 91 3.6567603237926960e-03</internalNodes>
          <leafValues>
            -3.3932399749755859e-01 6.8476748466491699e-01</leafValues></_>
        <_>
          <internalNodes>
            0 -1 58 2.5822822935879230e-03</internalNodes>
          <leafValues>
            -6.5871983766555786e-01 3.3136424422264099e-01</leafValues></_>
        <_>
          <internalNodes>
            0 -1 53 3.6679559946060181e-01</internalNodes>
          <leafValues>
            -3.6162850260734558e-01 4.7434511780738831e-01</leafValues></_>
        <_>
          <internalNodes>
            0 -1 104 1.1753996834158897e-02</internalNodes>
          <leafValues>
            -2.7576935291290283e-01 8.3692783117294312e-01</leafValues></_>
        <_>
          <internalNodes>
            0 -1 17 -5.0261937081813812e-02</internalNodes>
          <leafValues>
            -8.6954832077026367e-01 2.5535765290260315e-01</leafValues></_>
        <_>
          <internalNodes>
            0 -1 61 7.7290320768952370e-04</internalNodes>
          <leafValues>
            -7.9062962532043457e-01 1.8364414572715759e-01</leafValues></_>
        <_>
          <internalNodes>
            0 -1 44 5.8814343065023422e-03</internalNodes>
          <leafValues>
            -2.7656748890876770e-01 6.2888050079345703e-01</leafValues></_>
        <_>
          <internalNodes>
            0 -1 42 5.8618403971195221e-02</internalNodes>
          <leafValues>
            -2.0400206744670868e-01 7.3660755157470703e-01</leafValues></_>
        <_>
          <internalNodes>
            0 -1 89 1.2055593833792955e-04</internalNodes>
          <leafValues>
            -3.2494968175888062e-01 4.9955171346664429e-01</leafValues></_></weakClassifiers></_>
    <!-- stage 11 -->
    <_>
      <maxWeakCount>12</maxWeakCount>
      <stageThreshold>-1.1642473936080933e+00</stageThreshold>
      <weakClassifiers>
        <_>
          <internalNodes>
            0 -1 8 6.0242496430873871e-02</internalNodes>
          <leafValues>
            7.0079636573791504e-01 -9.0430623292922974e-01</leafValues></_>
        <_>
          <internalNodes>
            0 -1 29 -6.7917467094957829e-03</internalNodes>
          <leafValues>
            -8.0886262655258179e-01 4.2367535829544067e-01</leafValues></_>
        <_>
          <internalNodes>
            0 -1 55 -3.1765189021825790e-02</internalNodes>
          <leafValues>
            6.0567110776901245e-01 -4.4345709681510925e-01</leafValues></_>
        <_>
          <internalNodes>
            0 -1 102 -8.8568210601806641e-02</internalNodes>
          <leafValues>
            4.7282689809799194e-01 -4.9096161127090454e-01</leafValues></_>
        <_>
          <internalNodes>
            0 -1 21 5.4320655763149261e-03</internalNodes>
          <leafValues>
            -5.2290666103363037e-01 3.4289890527725220e-01</leafValues></_>
        <_>
          <internalNodes>
            0 -1 92 -8.9072197675704956e-02</internalNodes>
          <leafValues>
            6.7348557710647583e-01 -2.9635661840438843e-01</leafValues></_>
        <_>
          <internalNodes>
            0 -1 63 9.2149496078491211e-02</internalNodes>
          <leafValues>
            -2.4073493480682373e-01 8.3146619796752930e-01</leafValues></_>
        <_>
          <internalNodes>
            0 -1 3 1.1662076413631439e-01</internalNodes>
          <leafValues>
            -8.2219004631042480e-01 2.8647959232330322e-01</leafValues></_>
        <_>
          <internalNodes>
            0 -1 22 -2.6022101519629359e-04</internalNodes>
          <leafValues>
            1.8189361691474915e-01 -7.7926009893417358e-01</leafValues></_>
        <_>
          <internalNodes>
            0 -1 105 1.2093793600797653e-02</internalNodes>
          <leafValues>
            -2.8271812200546265e-01 5.7290130853652954e-01</leafValues></_>
        <_>
          <internalNodes>
            0 -1 93 -4.1645206511020660e-03</internalNodes>
          <leafValues>
            5.7254350185394287e-01 -3.3742791414260864e-01</leafValues></_>
        <_>
          <internalNodes>
            0 -1 115 1.8771190196275711e-02</internalNodes>
          <leafValues>
            2.2420299053192139e-01 -9.1626703739166260e-01</leafValues></_></weakClassifiers></_>
    <!-- stage 12 -->
    <_>
      <maxWeakCount>12</maxWeakCount>
      <stageThreshold>-1.1278436183929443e+00</stageThreshold>
      <weakClassifiers>
        <_>
          <internalNodes>
            0 -1 7 1.8231358379125595e-02</internalNodes>
          <leafValues>
            7.0055532455444336e-01 -8.6651051044464111e-01</leafValues></_>
        <_>
          <internalNodes>
            0 -1 12 2.3670000955462456e-03</internalNodes>
          <leafValues>
            -5.0121766328811646e-01 5.9717702865600586e-01</leafValues></_>
        <_>
          <internalNodes>
            0 -1 60 -2.6801977306604385e-02</internalNodes>
          <leafValues>
            7.3669201135635376e-01 -2.9425922036170959e-01</leafValues></_>
        <_>
          <internalNodes>
            0 -1 10 -5.3939828649163246e-04</internalNodes>
          <leafValues>
            3.1677973270416260e-01 -6.2354612350463867e-01</leafValues></_>
        <_>
          <internalNodes>
            0 -1 15 -4.8328610137104988e-03</internalNodes>
          <leafValues>
            -8.9127200841903687e-01 1.6806480288505554e-01</leafValues></_>
        <_>
          <internalNodes>
            0 -1 99 3.0590849928557873e-03</internalNodes>
          <leafValues>
            -3.0659413337707520e-01 6.9382107257843018e-01</leafValues></_>
        <_>
          <internalNodes>
            0 -1 82 -3.5534389317035675e-02</internalNodes>
          <leafValues>
            6.3504046201705933e-01 -2.4335648119449615e-01</leafValues></_>
        <_>
          <internalNodes>
            0 -1 114 1.3497358304448426e-04</internalNodes>
          <leafValues>
            -6.6888666152954102e-01 2.9039379954338074e-01</leafValues></_>
        <_>
          <internalNodes>
            0 -1 16 -1.3755626277998090e-03</internalNodes>
          <leafValues>
            -9.1185915470123291e-01 1.8539944291114807e-01</leafValues></_>
        <_>
          <internalNodes>
            0 -1 76 1.0647214949131012e-03</internalNodes>
          <leafValues>
            -8.2232367992401123e-01 1.5437802672386169e-01</leafValues></_>
        <_>
          <internalNodes>
            0 -1 119 -1.5016791876405478e-03</internalNodes>
          <leafValues>
            -8.3004957437515259e-01 1.8446125090122223e-01</leafValues></_>
        <_>
          <internalNodes>
            0 -1 122 -5.5240751244127750e-03</internalNodes>
          <leafValues>
            -8.6583614349365234e-01 1.6412043571472168e-01</leafValues></_></weakClassifiers></_>
    <!-- stage 13 -->
    <_>
      <maxWeakCount>15</maxWeakCount>
      <stageThreshold>-1.0143293142318726e+00</stageThreshold>
      <weakClassifiers>
        <_>
          <internalNodes>
            0 -1 68 1.2371798511594534e-03</internalNodes>
          <leafValues>
            -5.8157098293304443e-01 7.2701829671859741e-01</leafValues></_>
        <_>
          <internalNodes>
            0 -1 101 2.4012589827179909e-02</internalNodes>
          <leafValues>
            -2.9920983314514160e-01 6.5665674209594727e-01</leafValues></_>
        <_>
          <internalNodes>
            0 -1 40 -2.0320732146501541e-03</internalNodes>
          <leafValues>
            4.2870375514030457e-01 -4.7044530510902405e-01</leafValues></_>
        <_>
          <internalNodes>
            0 -1 116 5.5990302935242653e-03</internalNodes>
          <leafValues>
            -6.7267596721649170e-01 2.6950383186340332e-01</leafValues></_>
        <_>
          <internalNodes>
            0 -1 123 2.2890754044055939e-03</internalNodes>
          <leafValues>
            1.9217790663242340e-01 -8.4346628189086914e-01</leafValues></_>
        <_>
          <internalNodes>
            0 -1 69 -3.0901315622031689e-03</internalNodes>
          <leafValues>
            -8.9665269851684570e-01 1.4163754880428314e-01</leafValues></_>
        <_>
          <internalNodes>
            0 -1 121 -2.4587465450167656e-03</internalNodes>
          <leafValues>
            -7.9092437028884888e-01 1.6043438017368317e-01</leafValues></_>
        <_>
          <internalNodes>
            0 -1 34 2.9332406818866730e-02</internalNodes>
          <leafValues>
            1.3659358024597168e-01 -9.4988876581192017e-01</leafValues></_>
        <_>
          <internalNodes>
            0 -1 96 -2.0996525883674622e-02</internalNodes>
          <leafValues>
            2.4907498061656952e-01 -6.1531609296798706e-01</leafValues></_>
        <_>
          <internalNodes>
            0 -1 80 1.1471405625343323e-02</internalNodes>
          <leafValues>
            -3.4045165777206421e-01 6.2751877307891846e-01</leafValues></_>
        <_>
          <internalNodes>
            0 -1 52 1.2396068125963211e-01</internalNodes>
          <leafValues>
            -4.8168054223060608e-01 4.9750551581382751e-01</leafValues></_>
        <_>
          <internalNodes>
            0 -1 32 -6.8956715986132622e-03</internalNodes>
          <leafValues>
            4.1191360354423523e-01 -4.7111707925796509e-01</leafValues></_>
        <_>
          <internalNodes>
            0 -1 67 5.5859060958027840e-03</internalNodes>
          <leafValues>
            -2.8259009122848511e-01 7.2599828243255615e-01</leafValues></_>
        <_>
          <internalNodes>
            0 -1 18 -4.4435705989599228e-02</internalNodes>
          <leafValues>
            -9.2980456352233887e-01 2.5499173998832703e-01</leafValues></_>
        <_>
          <internalNodes>
            0 -1 62 4.9954568967223167e-03</internalNodes>
          <leafValues>
            -4.1661748290061951e-01 5.6175786256790161e-01</leafValues></_></weakClassifiers></_>
    <!-- stage 14 -->
    <_>
      <maxWeakCount>8</maxWeakCount>
      <stageThreshold>-6.1187291145324707e-01</stageThreshold>
      <weakClassifiers>
        <_>
          <internalNodes>
            0 -1 13 3.5413864534348249e-03</internalNodes>
          <leafValues>
            7.0989859104156494e-01 -9.3541204929351807e-01</leafValues></_>
        <_>
          <internalNodes>
            0 -1 19 5.5596176534891129e-03</internalNodes>
          <leafValues>
            -4.3919476866722107e-01 6.7667818069458008e-01</leafValues></_>
        <_>
          <internalNodes>
            0 -1 39 -7.6466897735372186e-04</internalNodes>
          <leafValues>
            4.2360410094261169e-01 -5.9636908769607544e-01</leafValues></_>
        <_>
          <internalNodes>
            0 -1 106 5.4463902488350868e-03</internalNodes>
          <leafValues>
            -4.2731535434722900e-01 6.1193042993545532e-01</leafValues></_>
        <_>
          <internalNodes>
            0 -1 83 -2.3960900306701660e-01</internalNodes>
          <leafValues>
            5.4843634366989136e-01 -4.5663788914680481e-01</leafValues></_>
        <_>
          <internalNodes>
            0 -1 111 -7.1832053363323212e-02</internalNodes>
          <leafValues>
            8.6929434537887573e-01 -3.5438957810401917e-01</leafValues></_>
        <_>
          <internalNodes>
            0 -1 65 9.3424983788281679e-04</internalNodes>
          <leafValues>
            3.5173562169075012e-01 -8.8364887237548828e-01</leafValues></_>
        <_>
          <internalNodes>
            0 -1 108 -2.0581852644681931e-02</internalNodes>
          <leafValues>
            2.0139013230800629e-01 -9.5841258764266968e-01</leafValues></_></weakClassifiers></_>
    <!-- stage 15 -->
    <_>
      <maxWeakCount>7</maxWeakCount>
      <stageThreshold>-3.8142207264900208e-01</stageThreshold>
      <weakClassifiers>
        <_>
          <internalNodes>
            0 -1 0 -3.5190777853131294e-03</internalNodes>
          <leafValues>
            -9.3291026353836060e-01 7.3414510488510132e-01</leafValues></_>
        <_>
          <internalNodes>
            0 -1 31 -9.3723721802234650e-03</internalNodes>
          <leafValues>
            7.5319170951843262e-01 -3.7170538306236267e-01</leafValues></_>
        <_>
          <internalNodes>
            0 -1 88 7.2910562157630920e-02</internalNodes>
          <leafValues>
            -3.8635373115539551e-01 9.1982650756835938e-01</leafValues></_>
        <_>
          <internalNodes>
            0 -1 94 2.0236824639141560e-03</internalNodes>
          <leafValues>
            -3.0704307556152344e-01 8.1169116497039795e-01</leafValues></_>
        <_>
          <internalNodes>
            0 -1 107 -1.4037959277629852e-02</internalNodes>
          <leafValues>
            -4.4693338871002197e-01 6.6128414869308472e-01</leafValues></_>
        <_>
          <internalNodes>
            0 -1 23 -1.0960631072521210e-02</internalNodes>
          <leafValues>
            5.7350379228591919e-01 -5.1000189781188965e-01</leafValues></_>
        <_>
          <internalNodes>
            0 -1 87 -5.1261391490697861e-03</internalNodes>
          <leafValues>
            3.8180240988731384e-01 -8.1483060121536255e-01</leafValues></_></weakClassifiers></_></stages>
  <features>
    <_>
      <rects>
        <_>
          0 0 2 6 -1.</_>
        <_>
          0 3 2 3 2.</_></rects>
      <tilted>0</tilted></_>
    <_>
      <rects>
        <_>
          0 0 8 14 -1.</_>
        <_>
          0 7 8 7 2.</_></rects>
      <tilted>0</tilted></_>
    <_>
      <rects>
        <_>
          0 0 9 16 -1.</_>
        <_>
          0 8 9 8 2.</_></rects>
      <tilted>0</tilted></_>
    <_>
      <rects>
        <_>
          0 0 24 23 -1.</_>
        <_>
          12 0 12 23 2.</_></rects>
      <tilted>0</tilted></_>
    <_>
      <rects>
        <_>
          0 0 40 7 -1.</_>
        <_>
          20 0 20 7 2.</_></rects>
      <tilted>0</tilted></_>
    <_>
      <rects>
        <_>
          0 0 40 24 -1.</_>
        <_>
          0 12 40 12 2.</_></rects>
      <tilted>0</tilted></_>
    <_>
      <rects>
        <_>
          0 1 1 24 -1.</_>
        <_>
          0 13 1 12 2.</_></rects>
      <tilted>0</tilted></_>
    <_>
      <rects>
        <_>
          0 1 6 15 -1.</_>
        <_>
          0 6 6 5 3.</_></rects>
      <tilted>0</tilted></_>
    <_>
      <rects>
        <_>
          0 5 21 20 -1.</_>
        <_>
          0 15 21 10 2.</_></rects>
      <tilted>0</tilted></_>
    <_>
      <rects>
        <_>
          0 7 18 13 -1.</_>
        <_>
          6 7 6 13 3.</_></rects>
      <tilted>0</tilted></_>
    <_>
      <rects>
        <_>
          0 13 8 1 -1.</_>
        <_>
          4 13 4 1 2.</_></rects>
      <tilted>0</tilted></_>
    <_>
      <rects>
        <_>
          0 15 24 4 -1.</_>
        <_>
          12 15 12 4 2.</_></rects>
      <tilted>0</tilted></_>
    <_>
      <rects>
        <_>
          1 1 16 15 -1.</_>
        <_>
          1 6 16 5 3.</_></rects>
      <tilted>0</tilted></_>
    <_>
      <rects>
        <_>
          1 2 3 18 -1.</_>
        <_>
          1 11 3 9 2.</_></rects>
      <tilted>0</tilted></_>
    <_>
      <rects>
        <_>
          1 7 2 18 -1.</_>
        <_>
          1 16 2 9 2.</_></rects>
      <tilted>0</tilted></_>
    <_>
      <rects>
        <_>
          1 10 1 14 -1.</_>
        <_>
          1 17 1 7 2.</_></rects>
      <tilted>0</tilted></_>
    <_>
      <rects>
        <_>
          2 2 9 1 -1.</_>
        <_>
          5 2 3 1 3.</_></rects>
      <tilted>0</tilted></_>
    <_>
      <rects>
        <_>
          2 3 18 6 -1.</_>
        <_>
          8 3 6 6 3.</_></rects>
      <tilted>0</tilted></_>
    <_>
      <rects>
        <_>
          2 5 10 12 -1.</_>
        <_>
          2 11 10 6 2.</_></rects>
      <tilted>0</tilted></_>
    <_>
      <rects>
        <_>
          2 9 6 16 -1.</_>
        <_>
          2 9 3 8 2.</_>
        <_>
          5 17 3 8 2.</_></rects>
      <tilted>0</tilted></_>
    <_>
      <rects>
        <_>
          2 9 29 9 -1.</_>
        <_>
          2 12 29 3 3.</_></rects>
      <tilted>0</tilted></_>
    <_>
      <rects>
        <_>
          2 10 24 6 -1.</_>
        <_>
          2 10 12 3 2.</_>
        <_>
          14 13 12 3 2.</_></rects>
      <tilted>0</tilted></_>
    <_>
      <rects>
        <_>
          3 0 9 4 -1.</_>
        <_>
          3 2 9 2 2.</_></rects>
      <tilted>0</tilted></_>
    <_>
      <rects>
        <_>
          3 0 27 10 -1.</_>
        <_>
          12 0 9 10 3.</_></rects>
      <tilted>0</tilted></_>
    <_>
      <rects>
        <_>
          3 3 9 14 -1.</_>
        <_>
          6 3 3 14 3.</_></rects>
      <tilted>0</tilted></_>
    <_>
      <rects>
        <_>
          3 7 36 12 -1.</_>
        <_>
          15 7 12 12 3.</_></rects>
      <tilted>0</tilted></_>
    <_>
      <rects>
        <_>
          3 8 17 14 -1.</_>
        <_>
          3 15 17 7 2.</_></rects>
      <tilted>0</tilted></_>
    <_>
      <rects>
        <_>
          4 2 15 6 -1.</_>
        <_>
          9 2 5 6 3.</_></rects>
      <tilted>0</tilted></_>
    <_>
      <rects>
        <_>
          4 4 27 6 -1.</_>
        <_>
          4 6 27 2 3.</_></rects>
      <tilted>0</tilted></_>
    <_>
      <rects>
        <_>
          4 9 13 16 -1.</_>
        <_>
          4 17 13 8 2.</_></rects>
      <tilted>0</tilted></_>
    <_>
      <rects>
        <_>
          4 10 33 7 -1.</_>
        <_>
          15 10 11 7 3.</_></rects>
      <tilted>0</tilted></_>
    <_>
      <rects>
        <_>
          5 6 7 10 -1.</_>
        <_>
          5 11 7 5 2.</_></rects>
      <tilted>0</tilted></_>
    <_>
      <rects>
        <_>
          5 6 8 8 -1.</_>
        <_>
          5 10 8 4 2.</_></rects>
      <tilted>0</tilted></_>
    <_>
      <rects>
        <_>
          5 6 33 12 -1.</_>
        <_>
          16 6 11 12 3.</_></rects>
      <tilted>0</tilted></_>
    <_>
      <rects>
        <_>
          5 23 27 2 -1.</_>
        <_>
          14 23 9 2 3.</_></rects>
      <tilted>0</tilted></_>
    <_>
      <rects>
        <_>
          6 2 33 17 -1.</_>
        <_>
          17 2 11 17 3.</_></rects>
      <tilted>0</tilted></_>
    <_>
      <rects>
        <_>
          6 7 30 11 -1.</_>
        <_>
          16 7 10 11 3.</_></rects>
      <tilted>0</tilted></_>
    <_>
      <rects>
        <_>
          6 10 30 7 -1.</_>
        <_>
          16 10 10 7 3.</_></rects>
      <tilted>0</tilted></_>
    <_>
      <rects>
        <_>
          6 10 33 9 -1.</_>
        <_>
          17 10 11 9 3.</_></rects>
      <tilted>0</tilted></_>
    <_>
      <rects>
        <_>
          6 11 15 6 -1.</_>
        <_>
          6 13 15 2 3.</_></rects>
      <tilted>0</tilted></_>
    <_>
      <rects>
        <_>
          6 12 13 6 -1.</_>
        <_>
          6 14 13 2 3.</_></rects>
      <tilted>0</tilted></_>
    <_>
      <rects>
        <_>
          6 13 18 12 -1.</_>
        <_>
          6 13 9 6 2.</_>
        <_>
          15 19 9 6 2.</_></rects>
      <tilted>0</tilted></_>
    <_>
      <rects>
        <_>
          6 14 22 9 -1.</_>
        <_>
          6 17 22 3 3.</_></rects>
      <tilted>0</tilted></_>
    <_>
      <rects>
        <_>
          7 0 15 6 -1.</_>
        <_>
          12 0 5 6 3.</_></rects>
      <tilted>0</tilted></_>
    <_>
      <rects>
        <_>
          7 4 23 3 -1.</_>
        <_>
          7 5 23 1 3.</_></rects>
      <tilted>0</tilted></_>
    <_>
      <rects>
        <_>
          7 13 18 12 -1.</_>
        <_>
          7 13 9 6 2.</_>
        <_>
          16 19 9 6 2.</_></rects>
      <tilted>0</tilted></_>
    <_>
      <rects>
        <_>
          8 10 14 6 -1.</_>
        <_>
          15 10 7 6 2.</_></rects>
      <tilted>0</tilted></_>
    <_>
      <rects>
        <_>
          8 13 14 12 -1.</_>
        <_>
          8 13 7 6 2.</_>
        <_>
          15 19 7 6 2.</_></rects>
      <tilted>0</tilted></_>
    <_>
      <rects>
        <_>
          9 6 8 4 -1.</_>
        <_>
          13 6 4 4 2.</_></rects>
      <tilted>0</tilted></_>
    <_>
      <rects>
        <_>
          9 8 27 10 -1.</_>
        <_>
          18 8 9 10 3.</_></rects>
      <tilted>0</tilted></_>
    <_>
      <rects>
        <_>
          9 14 24 3 -1.</_>
        <_>
          17 14 8 3 3.</_></rects>
      <tilted>0</tilted></_>
    <_>
      <rects>
        <_>
          10 0 24 20 -1.</_>
        <_>
          18 0 8 20 3.</_></rects>
      <tilted>0</tilted></_>
    <_>
      <rects>
        <_>
          11 0 12 19 -1.</_>
        <_>
          17 0 6 19 2.</_></rects>
      <tilted>0</tilted></_>
    <_>
      <rects>
        <_>
          11 0 21 22 -1.</_>
        <_>
          18 0 7 22 3.</_></rects>
      <tilted>0</tilted></_>
    <_>
      <rects>
        <_>
          11 4 24 15 -1.</_>
        <_>
          19 4 8 15 3.</_></rects>
      <tilted>0</tilted></_>
    <_>
      <rects>
        <_>
          11 16 17 9 -1.</_>
        <_>
          11 19 17 3 3.</_></rects>
      <tilted>0</tilted></_>
    <_>
      <rects>
        <_>
          12 0 12 4 -1.</_>
        <_>
          16 0 4 4 3.</_></rects>
      <tilted>0</tilted></_>
    <_>
      <rects>
        <_>
          12 4 16 6 -1.</_>
        <_>
          12 6 16 2 3.</_></rects>
      <tilted>0</tilted></_>
    <_>
      <rects>
        <_>
          12 6 15 18 -1.</_>
        <_>
          12 12 15 6 3.</_></rects>
      <tilted>0</tilted></_>
    <_>
      <rects>
        <_>
          12 9 4 16 -1.</_>
        <_>
          14 9 2 16 2.</_></rects>
      <tilted>0</tilted></_>
    <_>
      <rects>
        <_>
          12 17 14 4 -1.</_>
        <_>
          12 19 14 2 2.</_></rects>
      <tilted>0</tilted></_>
    <_>
      <rects>
        <_>
          13 5 4 6 -1.</_>
        <_>
          15 5 2 6 2.</_></rects>
      <tilted>0</tilted></_>
    <_>
      <rects>
        <_>
          13 5 23 3 -1.</_>
        <_>
          13 6 23 1 3.</_></rects>
      <tilted>0</tilted></_>
    <_>
      <rects>
        <_>
          13 13 17 12 -1.</_>
        <_>
          13 17 17 4 3.</_></rects>
      <tilted>0</tilted></_>
    <_>
      <rects>
        <_>
          13 14 16 4 -1.</_>
        <_>
          13 16 16 2 2.</_></rects>
      <tilted>0</tilted></_>
    <_>
      <rects>
        <_>
          14 0 6 1 -1.</_>
        <_>
          16 0 2 1 3.</_></rects>
      <tilted>0</tilted></_>
    <_>
      <rects>
        <_>
          14 0 12 4 -1.</_>
        <_>
          20 0 6 4 2.</_></rects>
      <tilted>0</tilted></_>
    <_>
      <rects>
        <_>
          14 3 18 3 -1.</_>
        <_>
          14 4 18 1 3.</_></rects>
      <tilted>0</tilted></_>
    <_>
      <rects>
        <_>
          14 7 4 5 -1.</_>
        <_>
          16 7 2 5 2.</_></rects>
      <tilted>0</tilted></_>
    <_>
      <rects>
        <_>
          14 11 5 6 -1.</_>
        <_>
          14 14 5 3 2.</_></rects>
      <tilted>0</tilted></_>
    <_>
      <rects>
        <_>
          14 11 26 8 -1.</_>
        <_>
          27 11 13 8 2.</_></rects>
      <tilted>0</tilted></_>
    <_>
      <rects>
        <_>
          15 0 15 9 -1.</_>
        <_>
          15 3 15 3 3.</_></rects>
      <tilted>0</tilted></_>
    <_>
      <rects>
        <_>
          15 0 23 6 -1.</_>
        <_>
          15 3 23 3 2.</_></rects>
      <tilted>0</tilted></_>
    <_>
      <rects>
        <_>
          15 3 6 14 -1.</_>
        <_>
          15 10 6 7 2.</_></rects>
      <tilted>0</tilted></_>
    <_>
      <rects>
        <_>
          15 4 13 2 -1.</_>
        <_>
          15 5 13 1 2.</_></rects>
      <tilted>0</tilted></_>
    <_>
      <rects>
        <_>
          15 21 18 3 -1.</_>
        <_>
          24 21 9 3 2.</_></rects>
      <tilted>0</tilted></_>
    <_>
      <rects>
        <_>
          16 0 8 3 -1.</_>
        <_>
          20 0 4 3 2.</_></rects>
      <tilted>0</tilted></_>
    <_>
      <rects>
        <_>
          16 7 24 11 -1.</_>
        <_>
          28 7 12 11 2.</_></rects>
      <tilted>0</tilted></_>
    <_>
      <rects>
        <_>
          16 17 12 8 -1.</_>
        <_>
          16 21 12 4 2.</_></rects>
      <tilted>0</tilted></_>
    <_>
      <rects>
        <_>
          18 0 12 9 -1.</_>
        <_>
          18 3 12 3 3.</_></rects>
      <tilted>0</tilted></_>
    <_>
      <rects>
        <_>
          19 0 14 2 -1.</_>
        <_>
          26 0 7 2 2.</_></rects>
      <tilted>0</tilted></_>
    <_>
      <rects>
        <_>
          19 0 16 12 -1.</_>
        <_>
          19 0 8 6 2.</_>
        <_>
          27 6 8 6 2.</_></rects>
      <tilted>0</tilted></_>
    <_>
      <rects>
        <_>
          19 0 9 9 -1.</_>
        <_>
          19 3 9 3 3.</_></rects>
      <tilted>0</tilted></_>
    <_>
      <rects>
        <_>
          19 0 18 20 -1.</_>
        <_>
          28 0 9 20 2.</_></rects>
      <tilted>0</tilted></_>
    <_>
      <rects>
        <_>
          19 1 7 4 -1.</_>
        <_>
          19 3 7 2 2.</_></rects>
      <tilted>0</tilted></_>
    <_>
      <rects>
        <_>
          19 3 13 6 -1.</_>
        <_>
          19 5 13 2 3.</_></rects>
      <tilted>0</tilted></_>
    <_>
      <rects>
        <_>
          19 6 16 12 -1.</_>
        <_>
          27 6 8 12 2.</_></rects>
      <tilted>0</tilted></_>
    <_>
      <rects>
        <_>
          19 14 21 11 -1.</_>
        <_>
          26 14 7 11 3.</_></rects>
      <tilted>0</tilted></_>
    <_>
      <rects>
        <_>
          19 14 18 10 -1.</_>
        <_>
          19 14 9 5 2.</_>
        <_>
          28 19 9 5 2.</_></rects>
      <tilted>0</tilted></_>
    <_>
      <rects>
        <_>
          19 19 6 2 -1.</_>
        <_>
          19 20 6 1 2.</_></rects>
      <tilted>0</tilted></_>
    <_>
      <rects>
        <_>
          20 0 14 6 -1.</_>
        <_>
          20 3 14 3 2.</_></rects>
      <tilted>0</tilted></_>
    <_>
      <rects>
        <_>
          20 3 9 3 -1.</_>
        <_>
          20 4 9 1 3.</_></rects>
      <tilted>0</tilted></_>
    <_>
      <rects>
        <_>
          21 0 16 12 -1.</_>
        <_>
          21 0 8 6 2.</_>
        <_>
          29 6 8 6 2.</_></rects>
      <tilted>0</tilted></_>
    <_>
      <rects>
        <_>
          21 3 5 4 -1.</_>
        <_>
          21 5 5 2 2.</_></rects>
      <tilted>0</tilted></_>
    <_>
      <rects>
        <_>
          21 4 9 3 -1.</_>
        <_>
          21 5 9 1 3.</_></rects>
      <tilted>0</tilted></_>
    <_>
      <rects>
        <_>
          21 7 18 16 -1.</_>
        <_>
          27 7 6 16 3.</_></rects>
      <tilted>0</tilted></_>
    <_>
      <rects>
        <_>
          21 12 15 9 -1.</_>
        <_>
          26 12 5 9 3.</_></rects>
      <tilted>0</tilted></_>
    <_>
      <rects>
        <_>
          22 0 12 5 -1.</_>
        <_>
          26 0 4 5 3.</_></rects>
      <tilted>0</tilted></_>
    <_>
      <rects>
        <_>
          22 0 12 20 -1.</_>
        <_>
          26 0 4 20 3.</_></rects>
      <tilted>0</tilted></_>
    <_>
      <rects>
        <_>
          22 3 4 3 -1.</_>
        <_>
          22 4 4 1 3.</_></rects>
      <tilted>0</tilted></_>
    <_>
      <rects>
        <_>
          22 12 15 5 -1.</_>
        <_>
          27 12 5 5 3.</_></rects>
      <tilted>0</tilted></_>
    <_>
      <rects>
        <_>
          23 14 8 10 -1.</_>
        <_>
          23 14 4 5 2.</_>
        <_>
          27 19 4 5 2.</_></rects>
      <tilted>0</tilted></_>
    <_>
      <rects>
        <_>
          24 3 15 16 -1.</_>
        <_>
          29 3 5 16 3.</_></rects>
      <tilted>0</tilted></_>
    <_>
      <rects>
        <_>
          24 5 15 15 -1.</_>
        <_>
          24 10 15 5 3.</_></rects>
      <tilted>0</tilted></_>
    <_>
      <rects>
        <_>
          25 0 15 1 -1.</_>
        <_>
          30 0 5 1 3.</_></rects>
      <tilted>0</tilted></_>
    <_>
      <rects>
        <_>
          26 3 4 9 -1.</_>
        <_>
          26 6 4 3 3.</_></rects>
      <tilted>0</tilted></_>
    <_>
      <rects>
        <_>
          26 5 5 6 -1.</_>
        <_>
          26 7 5 2 3.</_></rects>
      <tilted>0</tilted></_>
    <_>
      <rects>
        <_>
          27 2 12 13 -1.</_>
        <_>
          33 2 6 13 2.</_></rects>
      <tilted>0</tilted></_>
    <_>
      <rects>
        <_>
          28 2 9 21 -1.</_>
        <_>
          28 9 9 7 3.</_></rects>
      <tilted>0</tilted></_>
    <_>
      <rects>
        <_>
          28 3 5 21 -1.</_>
        <_>
          28 10 5 7 3.</_></rects>
      <tilted>0</tilted></_>
    <_>
      <rects>
        <_>
          29 11 10 14 -1.</_>
        <_>
          29 18 10 7 2.</_></rects>
      <tilted>0</tilted></_>
    <_>
      <rects>
        <_>
          30 0 8 18 -1.</_>
        <_>
          30 6 8 6 3.</_></rects>
      <tilted>0</tilted></_>
    <_>
      <rects>
        <_>
          30 1 2 24 -1.</_>
        <_>
          30 9 2 8 3.</_></rects>
      <tilted>0</tilted></_>
    <_>
      <rects>
        <_>
          30 11 7 14 -1.</_>
        <_>
          30 18 7 7 2.</_></rects>
      <tilted>0</tilted></_>
    <_>
      <rects>
        <_>
          30 13 10 1 -1.</_>
        <_>
          35 13 5 1 2.</_></rects>
      <tilted>0</tilted></_>
    <_>
      <rects>
        <_>
          30 16 10 9 -1.</_>
        <_>
          35 16 5 9 2.</_></rects>
      <tilted>0</tilted></_>
    <_>
      <rects>
        <_>
          31 11 6 12 -1.</_>
        <_>
          31 17 6 6 2.</_></rects>
      <tilted>0</tilted></_>
    <_>
      <rects>
        <_>
          32 0 8 2 -1.</_>
        <_>
          36 0 4 2 2.</_></rects>
      <tilted>0</tilted></_>
    <_>
      <rects>
        <_>
          33 0 7 14 -1.</_>
        <_>
          33 7 7 7 2.</_></rects>
      <tilted>0</tilted></_>
    <_>
      <rects>
        <_>
          34 19 5 4 -1.</_>
        <_>
          34 21 5 2 2.</_></rects>
      <tilted>0</tilted></_>
    <_>
      <rects>
        <_>
          36 0 4 10 -1.</_>
        <_>
          36 5 4 5 2.</_></rects>
      <tilted>0</tilted></_>
    <_>
      <rects>
        <_>
          37 3 3 6 -1.</_>
        <_>
          37 5 3 2 3.</_></rects>
      <tilted>0</tilted></_>
    <_>
      <rects>
        <_>
          37 13 3 12 -1.</_>
        <_>
          37 17 3 4 3.</_></rects>
      <tilted>0</tilted></_>
    <_>
      <rects>
        <_>
          39 3 1 22 -1.</_>
        <_>
          39 14 1 11 2.</_></rects>
      <tilted>0</tilted></_>
    <_>
      <rects>
        <_>
          39 11 1 14 -1.</_>
        <_>
          39 18 1 7 2.</_></rects>
      <tilted>0</tilted></_></features></cascade>
</opencv_storage>
