<?xml version="1.0"?>
<opencv_storage>
<cascade>
  <stageType>BOOST</stageType>
  <featureType>HAAR</featureType>
  <height>30</height>
  <width>50</width>
  <stageParams>
    <boostType>GAB</boostType>
    <minHitRate>9.9900001287460327e-01</minHitRate>
    <maxFalseAlarm>5.0000000000000000e-01</maxFalseAlarm>
    <weightTrimRate>9.4999999999999996e-01</weightTrimRate>
    <maxDepth>1</maxDepth>
    <maxWeakCount>100</maxWeakCount></stageParams>
  <featureParams>
    <maxCatCount>0</maxCatCount>
    <featSize>1</featSize>
    <mode>BASIC</mode></featureParams>
  <stageNum>17</stageNum>
  <stages>
    <!-- stage 0 -->
    <_>
      <maxWeakCount>3</maxWeakCount>
      <stageThreshold>-1.0029889345169067e+00</stageThreshold>
      <weakClassifiers>
        <_>
          <internalNodes>
            0 -1 8 5.5471146106719971e-01</internalNodes>
          <leafValues>
            -9.9623823165893555e-01 9.9201995134353638e-01</leafValues></_>
        <_>
          <internalNodes>
            0 -1 42 -1.8952450156211853e-01</internalNodes>
          <leafValues>
            9.8050445318222046e-01 -9.5709025859832764e-01</leafValues></_>
        <_>
          <internalNodes>
            0 -1 2 3.1773817539215088e-01</internalNodes>
          <leafValues>
            -9.1665107011795044e-01 9.5033949613571167e-01</leafValues></_></weakClassifiers></_>
    <!-- stage 1 -->
    <_>
      <maxWeakCount>2</maxWeakCount>
      <stageThreshold>-1.1316925287246704e-02</stageThreshold>
      <weakClassifiers>
        <_>
          <internalNodes>
            0 -1 31 -3.2268524169921875e-02</internalNodes>
          <leafValues>
            9.1953468322753906e-01 -9.7397530078887939e-01</leafValues></_>
        <_>
          <internalNodes>
            0 -1 4 6.3737615942955017e-02</internalNodes>
          <leafValues>
            -8.3601987361907959e-01 9.6265834569931030e-01</leafValues></_></weakClassifiers></_>
    <!-- stage 2 -->
    <_>
      <maxWeakCount>4</maxWeakCount>
      <stageThreshold>-1.8542238473892212e+00</stageThreshold>
      <weakClassifiers>
        <_>
          <internalNodes>
            0 -1 19 5.3753245621919632e-02</internalNodes>
          <leafValues>
            -8.7898087501525879e-01 8.7684726715087891e-01</leafValues></_>
        <_>
          <internalNodes>
            0 -1 45 -2.3426611442118883e-03</internalNodes>
          <leafValues>
            -8.9494013786315918e-01 7.8494465351104736e-01</leafValues></_>
        <_>
          <internalNodes>
            0 -1 41 -2.6273483037948608e-01</internalNodes>
          <leafValues>
            8.5905039310455322e-01 -7.0390969514846802e-01</leafValues></_>
        <_>
          <internalNodes>
            0 -1 3 -1.4155267272144556e-03</internalNodes>
          <leafValues>
            6.2360680103302002e-01 -9.0973347425460815e-01</leafValues></_></weakClassifiers></_>
    <!-- stage 3 -->
    <_>
      <maxWeakCount>2</maxWeakCount>
      <stageThreshold>-4.5406453311443329e-02</stageThreshold>
      <weakClassifiers>
        <_>
          <internalNodes>
            0 -1 22 8.5753396153450012e-02</internalNodes>
          <leafValues>
            -8.5534965991973877e-01 9.5018160343170166e-01</leafValues></_>
        <_>
          <internalNodes>
            0 -1 10 -6.9342851638793945e-03</internalNodes>
          <leafValues>
            -9.9558806419372559e-01 8.4578561782836914e-01</leafValues></_></weakClassifiers></_>
    <!-- stage 4 -->
    <_>
      <maxWeakCount>3</maxWeakCount>
      <stageThreshold>-9.8304867744445801e-01</stageThreshold>
      <weakClassifiers>
        <_>
          <internalNodes>
            0 -1 11 3.9190030097961426e-01</internalNodes>
          <leafValues>
            -9.7630017995834351e-01 9.0485346317291260e-01</leafValues></_>
        <_>
          <internalNodes>
            0 -1 39 -2.2617338597774506e-01</internalNodes>
          <leafValues>
            9.6682423353195190e-01 -7.5762653350830078e-01</leafValues></_>
        <_>
          <internalNodes>
            0 -1 35 -2.6655571535229683e-02</internalNodes>
          <leafValues>
            -9.5677828788757324e-01 7.5087809562683105e-01</leafValues></_></weakClassifiers></_>
    <!-- stage 5 -->
    <_>
      <maxWeakCount>3</maxWeakCount>
      <stageThreshold>-1.0290580987930298e+00</stageThreshold>
      <weakClassifiers>
        <_>
          <internalNodes>
            0 -1 20 6.7044675350189209e-02</internalNodes>
          <leafValues>
            -7.7031803131103516e-01 8.9800208806991577e-01</leafValues></_>
        <_>
          <internalNodes>
            0 -1 28 -5.5481024086475372e-02</internalNodes>
          <leafValues>
            8.5054051876068115e-01 -7.9494929313659668e-01</leafValues></_>
        <_>
          <internalNodes>
            0 -1 7 -5.3701787255704403e-03</internalNodes>
          <leafValues>
            -9.4935899972915649e-01 5.3620922565460205e-01</leafValues></_></weakClassifiers></_>
    <!-- stage 6 -->
    <_>
      <maxWeakCount>3</maxWeakCount>
      <stageThreshold>-8.0913609266281128e-01</stageThreshold>
      <weakClassifiers>
        <_>
          <internalNodes>
            0 -1 48 -1.5945360064506531e-03</internalNodes>
          <leafValues>
            -8.6184209585189819e-01 8.2211536169052124e-01</leafValues></_>
        <_>
          <internalNodes>
            0 -1 43 -1.8611790239810944e-01</internalNodes>
          <leafValues>
            9.8343396186828613e-01 -5.7590413093566895e-01</leafValues></_>
        <_>
          <internalNodes>
            0 -1 15 7.2678670287132263e-02</internalNodes>
          <leafValues>
            -8.5452693700790405e-01 6.2861007452011108e-01</leafValues></_></weakClassifiers></_>
    <!-- stage 7 -->
    <_>
      <maxWeakCount>2</maxWeakCount>
      <stageThreshold>-2.0994296669960022e-01</stageThreshold>
      <weakClassifiers>
        <_>
          <internalNodes>
            0 -1 14 5.2355751395225525e-03</internalNodes>
          <leafValues>
            -9.3251973390579224e-01 7.6982331275939941e-01</leafValues></_>
        <_>
          <internalNodes>
            0 -1 32 2.6559010148048401e-02</internalNodes>
          <leafValues>
            -9.5989871025085449e-01 7.2257679700851440e-01</leafValues></_></weakClassifiers></_>
    <!-- stage 8 -->
    <_>
      <maxWeakCount>3</maxWeakCount>
      <stageThreshold>-1.0315123796463013e+00</stageThreshold>
      <weakClassifiers>
        <_>
          <internalNodes>
            0 -1 29 1.7719483003020287e-04</internalNodes>
          <leafValues>
            -9.3610697984695435e-01 7.3646849393844604e-01</leafValues></_>
        <_>
          <internalNodes>
            0 -1 36 -2.3541152477264404e-01</internalNodes>
          <leafValues>
            8.9447271823883057e-01 -7.2553759813308716e-01</leafValues></_>
        <_>
          <internalNodes>
            0 -1 9 9.7109982743859291e-04</internalNodes>
          <leafValues>
            6.3013225793838501e-01 -9.0934747457504272e-01</leafValues></_></weakClassifiers></_>
    <!-- stage 9 -->
    <_>
      <maxWeakCount>5</maxWeakCount>
      <stageThreshold>-1.1209993362426758e+00</stageThreshold>
      <weakClassifiers>
        <_>
          <internalNodes>
            0 -1 17 2.0246165804564953e-03</internalNodes>
          <leafValues>
            -8.6129456758499146e-01 8.1687438488006592e-01</leafValues></_>
        <_>
          <internalNodes>
            0 -1 37 2.9745571315288544e-02</internalNodes>
          <leafValues>
            -7.3029994964599609e-01 7.6552712917327881e-01</leafValues></_>
        <_>
          <internalNodes>
            0 -1 25 5.6902486830949783e-03</internalNodes>
          <leafValues>
            -6.9448226690292358e-01 7.0267587900161743e-01</leafValues></_>
        <_>
          <internalNodes>
            0 -1 50 -6.9955817889422178e-04</internalNodes>
          <leafValues>
            -6.8650740385055542e-01 6.8034094572067261e-01</leafValues></_>
        <_>
          <internalNodes>
            0 -1 6 -8.2666845992207527e-03</internalNodes>
          <leafValues>
            -9.1242164373397827e-01 5.8281773328781128e-01</leafValues></_></weakClassifiers></_>
    <!-- stage 10 -->
    <_>
      <maxWeakCount>3</maxWeakCount>
      <stageThreshold>-9.6300476789474487e-01</stageThreshold>
      <weakClassifiers>
        <_>
          <internalNodes>
            0 -1 38 3.9910312741994858e-02</internalNodes>
          <leafValues>
            -9.0367895364761353e-01 8.3182895183563232e-01</leafValues></_>
        <_>
          <internalNodes>
            0 -1 27 9.7995780408382416e-02</internalNodes>
          <leafValues>
            -7.0084911584854126e-01 8.8423877954483032e-01</leafValues></_>
        <_>
          <internalNodes>
            0 -1 23 3.2416041940450668e-03</internalNodes>
          <leafValues>
            -9.4356465339660645e-01 6.9147640466690063e-01</leafValues></_></weakClassifiers></_>
    <!-- stage 11 -->
    <_>
      <maxWeakCount>2</maxWeakCount>
      <stageThreshold>-9.4712808728218079e-02</stageThreshold>
      <weakClassifiers>
        <_>
          <internalNodes>
            0 -1 26 2.8315115720033646e-02</internalNodes>
          <leafValues>
            -9.5774650573730469e-01 9.3032383918762207e-01</leafValues></_>
        <_>
          <internalNodes>
            0 -1 33 2.6356421876698732e-03</internalNodes>
          <leafValues>
            -8.9261955022811890e-01 8.6303365230560303e-01</leafValues></_></weakClassifiers></_>
    <!-- stage 12 -->
    <_>
      <maxWeakCount>5</maxWeakCount>
      <stageThreshold>-1.6365867853164673e+00</stageThreshold>
      <weakClassifiers>
        <_>
          <internalNodes>
            0 -1 49 -3.8923388347029686e-03</internalNodes>
          <leafValues>
            7.2317129373550415e-01 -9.4988608360290527e-01</leafValues></_>
        <_>
          <internalNodes>
            0 -1 44 6.8579986691474915e-03</internalNodes>
          <leafValues>
            -8.5423284769058228e-01 7.1706575155258179e-01</leafValues></_>
        <_>
          <internalNodes>
            0 -1 24 -5.5249342694878578e-03</internalNodes>
          <leafValues>
            -9.7955751419067383e-01 4.5006009936332703e-01</leafValues></_>
        <_>
          <internalNodes>
            0 -1 13 1.5768851153552532e-04</internalNodes>
          <leafValues>
            -8.3191674947738647e-01 5.6105959415435791e-01</leafValues></_>
        <_>
          <internalNodes>
            0 -1 30 2.5549352169036865e-02</internalNodes>
          <leafValues>
            -8.4467381238937378e-01 5.4938882589340210e-01</leafValues></_></weakClassifiers></_>
    <!-- stage 13 -->
    <_>
      <maxWeakCount>3</maxWeakCount>
      <stageThreshold>-9.6560758352279663e-01</stageThreshold>
      <weakClassifiers>
        <_>
          <internalNodes>
            0 -1 1 7.8193172812461853e-03</internalNodes>
          <leafValues>
            7.8597784042358398e-01 -9.1061455011367798e-01</leafValues></_>
        <_>
          <internalNodes>
            0 -1 34 2.4629771709442139e-02</internalNodes>
          <leafValues>
            -6.0618805885314941e-01 8.7501472234725952e-01</leafValues></_>
        <_>
          <internalNodes>
            0 -1 21 -4.9960748292505741e-03</internalNodes>
          <leafValues>
            -9.3000781536102295e-01 5.8379817008972168e-01</leafValues></_></weakClassifiers></_>
    <!-- stage 14 -->
    <_>
      <maxWeakCount>3</maxWeakCount>
      <stageThreshold>-9.8985838890075684e-01</stageThreshold>
      <weakClassifiers>
        <_>
          <internalNodes>
            0 -1 12 -2.3050708696246147e-03</internalNodes>
          <leafValues>
            -9.5520234107971191e-01 7.7707582712173462e-01</leafValues></_>
        <_>
          <internalNodes>
            0 -1 40 1.3944413512945175e-02</internalNodes>
          <leafValues>
            -6.2077206373214722e-01 9.1853189468383789e-01</leafValues></_>
        <_>
          <internalNodes>
            0 -1 5 7.7951734419912100e-04</internalNodes>
          <leafValues>
            5.8611601591110229e-01 -9.0304511785507202e-01</leafValues></_></weakClassifiers></_>
    <!-- stage 15 -->
    <_>
      <maxWeakCount>2</maxWeakCount>
      <stageThreshold>-1.8179969489574432e-01</stageThreshold>
      <weakClassifiers>
        <_>
          <internalNodes>
            0 -1 18 1.4485894935205579e-03</internalNodes>
          <leafValues>
            -9.8420220613479614e-01 7.0522707700729370e-01</leafValues></_>
        <_>
          <internalNodes>
            0 -1 46 3.4087926615029573e-03</internalNodes>
          <leafValues>
            -7.5415593385696411e-01 8.0240249633789062e-01</leafValues></_></weakClassifiers></_>
    <!-- stage 16 -->
    <_>
      <maxWeakCount>3</maxWeakCount>
      <stageThreshold>-8.8798785209655762e-01</stageThreshold>
      <weakClassifiers>
        <_>
          <internalNodes>
            0 -1 47 -1.3901060447096825e-03</internalNodes>
          <leafValues>
            8.9837008714675903e-01 -9.7357994318008423e-01</leafValues></_>
        <_>
          <internalNodes>
            0 -1 0 -1.7591230571269989e-02</internalNodes>
          <leafValues>
            -8.9295887947082520e-01 7.6009237766265869e-01</leafValues></_>
        <_>
          <internalNodes>
            0 -1 16 -7.6623344793915749e-03</internalNodes>
          <leafValues>
            9.7855097055435181e-01 -6.7189615964889526e-01</leafValues></_></weakClassifiers></_></stages>
  <features>
    <_>
      <rects>
        <_>
          0 2 11 12 -1.</_>
        <_>
          0 8 11 6 2.</_></rects>
      <tilted>0</tilted></_>
    <_>
      <rects>
        <_>
          0 3 14 4 -1.</_>
        <_>
          7 3 7 4 2.</_></rects>
      <tilted>0</tilted></_>
    <_>
      <rects>
        <_>
          0 5 32 20 -1.</_>
        <_>
          16 5 16 20 2.</_></rects>
      <tilted>0</tilted></_>
    <_>
      <rects>
        <_>
          0 6 27 2 -1.</_>
        <_>
          9 6 9 2 3.</_></rects>
      <tilted>0</tilted></_>
    <_>
      <rects>
        <_>
          0 14 44 15 -1.</_>
        <_>
          0 19 44 5 3.</_></rects>
      <tilted>0</tilted></_>
    <_>
      <rects>
        <_>
          1 5 18 2 -1.</_>
        <_>
          7 5 6 2 3.</_></rects>
      <tilted>0</tilted></_>
    <_>
      <rects>
        <_>
          1 7 40 14 -1.</_>
        <_>
          1 7 20 7 2.</_>
        <_>
          21 14 20 7 2.</_></rects>
      <tilted>0</tilted></_>
    <_>
      <rects>
        <_>
          2 0 8 8 -1.</_>
        <_>
          2 4 8 4 2.</_></rects>
      <tilted>0</tilted></_>
    <_>
      <rects>
        <_>
          2 6 48 19 -1.</_>
        <_>
          18 6 16 19 3.</_></rects>
      <tilted>0</tilted></_>
    <_>
      <rects>
        <_>
          3 3 18 3 -1.</_>
        <_>
          9 3 6 3 3.</_></rects>
      <tilted>0</tilted></_>
    <_>
      <rects>
        <_>
          4 8 12 22 -1.</_>
        <_>
          4 19 12 11 2.</_></rects>
      <tilted>0</tilted></_>
    <_>
      <rects>
        <_>
          4 12 45 13 -1.</_>
        <_>
          19 12 15 13 3.</_></rects>
      <tilted>0</tilted></_>
    <_>
      <rects>
        <_>
          5 5 40 2 -1.</_>
        <_>
          25 5 20 2 2.</_></rects>
      <tilted>0</tilted></_>
    <_>
      <rects>
        <_>
          7 4 42 9 -1.</_>
        <_>
          7 7 42 3 3.</_></rects>
      <tilted>0</tilted></_>
    <_>
      <rects>
        <_>
          8 9 15 16 -1.</_>
        <_>
          8 17 15 8 2.</_></rects>
      <tilted>0</tilted></_>
    <_>
      <rects>
        <_>
          8 12 39 3 -1.</_>
        <_>
          21 12 13 3 3.</_></rects>
      <tilted>0</tilted></_>
    <_>
      <rects>
        <_>
          10 12 8 18 -1.</_>
        <_>
          10 12 4 9 2.</_>
        <_>
          14 21 4 9 2.</_></rects>
      <tilted>0</tilted></_>
    <_>
      <rects>
        <_>
          11 2 18 19 -1.</_>
        <_>
          17 2 6 19 3.</_></rects>
      <tilted>0</tilted></_>
    <_>
      <rects>
        <_>
          12 9 8 2 -1.</_>
        <_>
          16 9 4 2 2.</_></rects>
      <tilted>0</tilted></_>
    <_>
      <rects>
        <_>
          13 4 10 25 -1.</_>
        <_>
          18 4 5 25 2.</_></rects>
      <tilted>0</tilted></_>
    <_>
      <rects>
        <_>
          13 14 33 15 -1.</_>
        <_>
          13 19 33 5 3.</_></rects>
      <tilted>0</tilted></_>
    <_>
      <rects>
        <_>
          14 7 20 6 -1.</_>
        <_>
          14 10 20 3 2.</_></rects>
      <tilted>0</tilted></_>
    <_>
      <rects>
        <_>
          14 18 24 12 -1.</_>
        <_>
          22 18 8 12 3.</_></rects>
      <tilted>0</tilted></_>
    <_>
      <rects>
        <_>
          15 6 8 4 -1.</_>
        <_>
          19 6 4 4 2.</_></rects>
      <tilted>0</tilted></_>
    <_>
      <rects>
        <_>
          15 8 15 6 -1.</_>
        <_>
          15 11 15 3 2.</_></rects>
      <tilted>0</tilted></_>
    <_>
      <rects>
        <_>
          15 22 6 8 -1.</_>
        <_>
          18 22 3 8 2.</_></rects>
      <tilted>0</tilted></_>
    <_>
      <rects>
        <_>
          17 0 27 30 -1.</_>
        <_>
          17 15 27 15 2.</_></rects>
      <tilted>0</tilted></_>
    <_>
      <rects>
        <_>
          17 12 28 18 -1.</_>
        <_>
          17 18 28 6 3.</_></rects>
      <tilted>0</tilted></_>
    <_>
      <rects>
        <_>
          18 0 28 20 -1.</_>
        <_>
          18 0 14 10 2.</_>
        <_>
          32 10 14 10 2.</_></rects>
      <tilted>0</tilted></_>
    <_>
      <rects>
        <_>
          18 1 10 10 -1.</_>
        <_>
          18 1 5 5 2.</_>
        <_>
          23 6 5 5 2.</_></rects>
      <tilted>0</tilted></_>
    <_>
      <rects>
        <_>
          18 11 24 3 -1.</_>
        <_>
          26 11 8 3 3.</_></rects>
      <tilted>0</tilted></_>
    <_>
      <rects>
        <_>
          19 0 28 16 -1.</_>
        <_>
          19 0 14 8 2.</_>
        <_>
          33 8 14 8 2.</_></rects>
      <tilted>0</tilted></_>
    <_>
      <rects>
        <_>
          19 0 31 22 -1.</_>
        <_>
          19 11 31 11 2.</_></rects>
      <tilted>0</tilted></_>
    <_>
      <rects>
        <_>
          19 6 10 3 -1.</_>
        <_>
          24 6 5 3 2.</_></rects>
      <tilted>0</tilted></_>
    <_>
      <rects>
        <_>
          19 13 24 8 -1.</_>
        <_>
          19 17 24 4 2.</_></rects>
      <tilted>0</tilted></_>
    <_>
      <rects>
        <_>
          20 5 26 24 -1.</_>
        <_>
          20 17 26 12 2.</_></rects>
      <tilted>0</tilted></_>
    <_>
      <rects>
        <_>
          20 13 30 12 -1.</_>
        <_>
          35 13 15 12 2.</_></rects>
      <tilted>0</tilted></_>
    <_>
      <rects>
        <_>
          20 15 30 12 -1.</_>
        <_>
          20 19 30 4 3.</_></rects>
      <tilted>0</tilted></_>
    <_>
      <rects>
        <_>
          21 6 15 18 -1.</_>
        <_>
          26 6 5 18 3.</_></rects>
      <tilted>0</tilted></_>
    <_>
      <rects>
        <_>
          21 12 28 13 -1.</_>
        <_>
          35 12 14 13 2.</_></rects>
      <tilted>0</tilted></_>
    <_>
      <rects>
        <_>
          21 14 21 6 -1.</_>
        <_>
          21 17 21 3 2.</_></rects>
      <tilted>0</tilted></_>
    <_>
      <rects>
        <_>
          23 7 24 19 -1.</_>
        <_>
          35 7 12 19 2.</_></rects>
      <tilted>0</tilted></_>
    <_>
      <rects>
        <_>
          23 11 26 13 -1.</_>
        <_>
          36 11 13 13 2.</_></rects>
      <tilted>0</tilted></_>
    <_>
      <rects>
        <_>
          23 12 24 12 -1.</_>
        <_>
          35 12 12 12 2.</_></rects>
      <tilted>0</tilted></_>
    <_>
      <rects>
        <_>
          25 13 15 10 -1.</_>
        <_>
          25 18 15 5 2.</_></rects>
      <tilted>0</tilted></_>
    <_>
      <rects>
        <_>
          28 1 11 15 -1.</_>
        <_>
          28 6 11 5 3.</_></rects>
      <tilted>0</tilted></_>
    <_>
      <rects>
        <_>
          35 15 5 12 -1.</_>
        <_>
          35 19 5 4 3.</_></rects>
      <tilted>0</tilted></_>
    <_>
      <rects>
        <_>
          39 4 7 12 -1.</_>
        <_>
          39 10 7 6 2.</_></rects>
      <tilted>0</tilted></_>
    <_>
      <rects>
        <_>
          40 13 10 3 -1.</_>
        <_>
          45 13 5 3 2.</_></rects>
      <tilted>0</tilted></_>
    <_>
      <rects>
        <_>
          41 1 5 16 -1.</_>
        <_>
          41 9 5 8 2.</_></rects>
      <tilted>0</tilted></_>
    <_>
      <rects>
        <_>
          44 14 6 9 -1.</_>
        <_>
          47 14 3 9 2.</_></rects>
      <tilted>0</tilted></_></features></cascade>
</opencv_storage>
